{"learner":{"attributes":{"best_iteration":"99","best_msg":"[100]\ttrain-auc:0.886489\ttest-auc:0.768893","best_ntreelimit":"100","best_score":"0.76889322281813755","niter":"99"},"feature_names":[],"feature_types":[],"gradient_booster":{"model":{"gbtree_model_param":{"num_parallel_tree":"1","num_trees":"100","size_leaf_vector":"0"},"tree_info":[0,0,0,0,0,0,0,0,0,0,0,0,0,0,0,0,0,0,0,0,0,0,0,0,0,0,0,0,0,0,0,0,0,0,0,0,0,0,0,0,0,0,0,0,0,0,0,0,0,0,0,0,0,0,0,0,0,0,0,0,0,0,0,0,0,0,0,0,0,0,0,0,0,0,0,0,0,0,0,0,0,0,0,0,0,0,0,0,0,0,0,0,0,0,0,0,0,0,0,0],"trees":[{"base_weights":[1.2671412E-3,-7.9751335E-2,1.0984175E1,-5.772192E-1,6.777846E-1,-6.0539275E-1,1.796595E0,4.6488023E-1,2.4367523E0,-6.3763523E-1,1.3755271E0,3.7405547E-1,3.7521656E0,3.2728283E0,-4.8372734E-1,-6.6164094E-1,1.4656042E0,-2.0972723E-2,7.8523463E-1,3.9271429E0,-5.8551306E-1,-6.846017E-1,8.4379345E-1,1.513112E-1,-8.1399775E-1,6.41437E-1,2.703043E0,4.625706E0,4.9788713E-1],"categories":[],"categories_nodes":[],"categories_segments":[],"categories_sizes":[],"default_left":[1,1,0,1,1,1,0,1,1,1,0,1,0,1,0,1,0,1,1,1,0,0,0,0,0,0,0,0,0],"id":0,"left_children":[1,3,-1,5,7,9,-1,11,13,15,-1,17,-1,19,-1,21,-1,23,25,27,-1,-1,-1,-1,-1,-1,-1,-1,-1],"loss_changes":[2.838391E2,1.1972642E2,0E0,1.3907185E1,4.604645E1,1.302401E1,0E0,3.2518295E1,3.4220993E1,1.045269E1,0E0,1.8154968E1,0E0,2.885897E1,0E0,7.0204163E0,0E0,8.037645E0,1.3363033E1,1.9555817E1,0E0,0E0,0E0,0E0,0E0,0E0,0E0,0E0,0E0],"parents":[2147483647,0,0,1,1,3,3,4,4,5,5,7,7,8,8,9,9,11,11,13,13,15,15,17,17,18,18,19,19],"right_children":[2,4,-1,6,8,10,-1,12,14,16,-1,18,-1,20,-1,22,-1,24,26,28,-1,-1,-1,-1,-1,-1,-1,-1,-1],"split_conditions":[-9.536743E-7,-9.536743E-7,1.0984175E0,-9.536743E-7,-9.536743E-7,-9.536743E-7,1.796595E-1,-9.536743E-7,-9.536743E-7,-9.536743E-7,1.3755272E-1,-9.536743E-7,3.7521657E-1,-9.536743E-7,-4.8372734E-2,-9.536743E-7,1.4656042E-1,-9.536743E-7,-9.536743E-7,-9.536743E-7,-5.8551308E-2,-6.8460174E-2,8.4379345E-2,1.5131121E-2,-8.1399776E-2,6.41437E-2,2.703043E-1,4.6257064E-1,4.9788713E-2],"split_indices":[4084,1083,0,9,2688,1931,0,716,1253,4357,0,20,0,2,0,8,0,2,841,3432,0,0,0,0,0,0,0,0,0],"split_type":[0,0,0,0,0,0,0,0,0,0,0,0,0,0,0,0,0,0,0,0,0,0,0,0,0,0,0,0,0],"sum_hessian":[3.1700098E2,3.1566513E2,1.3358533E0,1.9068309E2,1.2498204E2,1.8918275E2,1.5003427E0,1.12615425E2,1.2366612E1,1.8682008E2,2.362666E0,1.1067146E2,1.9439657E0,9.520448E0,2.8461652E0,1.8538953E2,1.4305594E0,5.6928288E1,5.3743176E1,8.12478E0,1.3956677E0,1.8314151E2,2.2480218E0,4.7432762E1,9.495524E0,5.123596E1,2.5072172E0,6.4599476E0,1.6648321E0],"tree_param":{"num_deleted":"0","num_feature":"4848","num_nodes":"29","size_leaf_vector":"0"}},{"base_weights":[3.8122298E-4,-6.373075E-2,7.5390077E0,-5.533494E-1,5.911152E-1,-5.8214426E-1,1.4823041E0,4.9816227E-1,3.617189E0,-6.1518395E-1,1.1519016E0,6.652521E-1,-6.136309E-1,3.5661265E-1,4.9415245E0,-6.444263E-1,1.1446186E0,4.7924015E-1,1.8507619E0,3.923291E-1,-7.0614237E-1,-6.683196E-1,7.4113005E-1,1.7558032E0,-4.294651E-2,3.858526E-1,2.9800465E0,2.4338171E0,-4.9117324E-1,-8.024377E-1,2.737519E-2],"categories":[],"categories_nodes":[],"categories_segments":[],"categories_sizes":[],"default_left":[1,1,0,1,1,1,0,1,1,1,0,1,1,0,0,1,1,1,1,0,1,0,0,0,0,0,0,0,0,0,0],"id":1,"left_children":[1,3,-1,5,7,9,-1,11,13,15,-1,17,19,-1,-1,21,23,25,27,-1,29,-1,-1,-1,-1,-1,-1,-1,-1,-1,-1],"loss_changes":[1.5428767E2,1.01818016E2,0E0,1.15097885E1,3.6425556E1,1.1011009E1,0E0,2.511813E1,1.5037312E1,9.851898E0,0E0,2.4718616E1,1.9427581E0,0E0,0E0,6.284004E0,2.4380484E0,2.2605425E1,2.2221912E1,0E0,1.2049923E0,0E0,0E0,0E0,0E0,0E0,0E0,0E0,0E0,0E0,0E0],"parents":[2147483647,0,0,1,1,3,3,4,4,5,5,7,7,8,8,9,9,11,11,12,12,15,15,16,16,17,17,18,18,20,20],"right_children":[2,4,-1,6,8,10,-1,12,14,16,-1,18,20,-1,-1,22,24,26,28,-1,30,-1,-1,-1,-1,-1,-1,-1,-1,-1,-1],"split_conditions":[-9.536743E-7,-9.536743E-7,7.5390077E-1,-9.536743E-7,-9.536743E-7,-9.536743E-7,1.4823042E-1,-9.536743E-7,-9.536743E-7,-9.536743E-7,1.1519016E-1,-9.536743E-7,-9.536743E-7,3.5661265E-2,4.9415246E-1,-9.536743E-7,-9.536743E-7,-9.536743E-7,-9.536743E-7,3.923291E-2,-9.536743E-7,-6.683196E-2,7.4113004E-2,1.7558032E-1,-4.294651E-3,3.858526E-2,2.9800466E-1,2.4338172E-1,-4.9117323E-2,-8.0243774E-2,2.737519E-3],"split_indices":[394,1083,0,9,4081,1931,0,2,3433,4357,0,2688,1742,0,0,8,711,716,3432,0,2573,0,0,0,0,0,0,0,0,0,0],"split_type":[0,0,0,0,0,0,0,0,0,0,0,0,0,0,0,0,0,0,0,0,0,0,0,0,0,0,0,0,0,0,0],"sum_hessian":[3.172331E2,3.1554114E2,1.6919619E0,1.806367E2,1.3490442E2,1.7882126E2,1.8154466E0,1.3201393E2,2.890491E0,1.7611096E2,2.710302E0,1.1511508E2,1.6898844E1,1.2015343E0,1.6889567E0,1.7385583E2,2.255129E0,1.0071645E2,1.4398629E1,1.1502522E0,1.5748592E1,1.7141747E2,2.438366E0,1.1729673E0,1.0821619E0,9.820354E1,2.5129204E0,1.1497054E1,2.901575E0,1.3837997E1,1.9105952E0],"tree_param":{"num_deleted":"0","num_feature":"4848","num_nodes":"31","size_leaf_vector":"0"}},{"base_weights":[1.379621E-3,-6.991145E-2,4.011744E0,-5.3798497E-1,4.9267283E-1,4.965811E0,6.619435E-1,-5.676382E-1,1.265578E0,3.6904654E-1,1.9844123E0,-6.016883E-1,9.730927E-1,5.020658E-1,-5.861518E-1,2.296936E0,-5.0635946E-1,-6.3451236E-1,5.4629916E-1,3.930443E-1,1.8888574E0,3.7649977E-1,-6.830598E-1,2.6870253E0,1.658132E-1,-6.557212E-1,9.164628E-1,8.6839354E-1,-1.7674264E-1,4.9049202E-1,-6.89806E-1,2.6499634E0,-6.3725144E-1,-7.850235E-1,3.8116947E-2,1.2703958E0,3.65645E0],"categories":[],"categories_nodes":[],"categories_segments":[],"categories_sizes":[],"default_left":[1,1,1,1,1,0,0,1,0,1,1,1,0,1,1,1,0,1,1,1,1,0,1,1,0,0,0,0,0,0,0,0,0,0,0,0,0],"id":2,"left_children":[1,3,5,7,9,-1,-1,11,-1,13,15,17,-1,19,21,23,-1,25,27,29,31,-1,33,35,-1,-1,-1,-1,-1,-1,-1,-1,-1,-1,-1,-1,-1],"loss_changes":[9.114562E1,8.275336E1,1.450853E1,9.888611E0,2.5599716E1,0E0,0E0,9.471622E0,0E0,1.7204088E1,9.491478E0,6.614502E0,0E0,1.7000692E1,1.8178153E0,7.607445E0,0E0,5.935646E0,1.3554591E0,1.1952599E1,1.7628656E1,0E0,1.1737013E0,6.509407E0,0E0,0E0,0E0,0E0,0E0,0E0,0E0,0E0,0E0,0E0,0E0,0E0,0E0],"parents":[2147483647,0,0,1,1,2,2,3,3,4,4,7,7,9,9,10,10,11,11,13,13,14,14,15,15,17,17,18,18,19,19,20,20,22,22,23,23],"right_children":[2,4,6,8,10,-1,-1,12,-1,14,16,18,-1,20,22,24,-1,26,28,30,32,-1,34,36,-1,-1,-1,-1,-1,-1,-1,-1,-1,-1,-1,-1,-1],"split_conditions":[-9.536743E-7,-9.536743E-7,-9.536743E-7,-9.536743E-7,-9.536743E-7,4.9658108E-1,6.619435E-2,-9.536743E-7,1.2655781E-1,-9.536743E-7,-9.536743E-7,-9.536743E-7,9.730927E-2,-9.536743E-7,-9.536743E-7,-9.536743E-7,-5.0635945E-2,-9.536743E-7,-9.536743E-7,-9.536743E-7,-9.536743E-7,3.7649978E-2,-9.536743E-7,-9.536743E-7,1.658132E-2,-6.557212E-2,9.164628E-2,8.6839356E-2,-1.7674265E-2,4.9049202E-2,-6.89806E-2,2.6499635E-1,-6.372514E-2,-7.850235E-2,3.8116947E-3,1.2703958E-1,3.6564502E-1],"split_indices":[4060,1083,951,9,4331,0,0,1931,0,2,2869,7,0,841,1742,5,0,733,20,3064,1149,0,2573,997,0,0,0,0,0,0,0,0,0,0,0,0,0],"split_type":[0,0,0,0,0,0,0,0,0,0,0,0,0,0,0,0,0,0,0,0,0,0,0,0,0,0,0,0,0,0,0,0,0,0,0,0,0],"sum_hessian":[3.1681793E2,3.1224973E2,4.568205E0,1.704653E2,1.4178442E2,3.1800616E0,1.3881433E0,1.6838211E2,2.0831826E0,1.3208539E2,9.699042E0,1.6533763E2,3.0444756E0,1.1635621E2,1.572918E1,8.686896E0,1.0121458E0,1.6117645E2,4.161186E0,1.0906553E2,7.290679E0,1.1747264E0,1.4554454E1,7.122344E0,1.5645521E0,1.5957161E2,1.604845E0,2.7397E0,1.4214859E0,1.0056274E2,8.50279E0,5.564952E0,1.7257268E0,1.26740055E1,1.8804477E0,3.832435E0,3.2899094E0],"tree_param":{"num_deleted":"0","num_feature":"4848","num_nodes":"37","size_leaf_vector":"0"}},{"base_weights":[1.2022465E-3,-4.5819944E-1,4.923035E-1,3.084949E0,-5.136967E-1,4.0659633E-1,2.642031E0,-5.5607307E-1,7.638926E-1,5.230292E-1,-5.751073E-1,5.0359976E-1,4.7092295E0,-5.914263E-1,8.2478446E-1,1.4703982E0,2.908769E-1,4.2275462E-1,1.5188389E0,3.3117378E-1,-6.722049E-1,1.584611E0,-6.389944E-1,-6.4614326E-1,1.9728439E-1,2.195868E-1,1.372296E0,-7.514286E-2,6.6234654E-1,2.7831766E-1,1.1986548E0,2.064204E0,3.767239E-1,-7.752355E-1,1.3737812E-2,-6.6830754E-1,5.0249803E-1,3.3666563E-1,-5.3207964E-1,-1.0587512E-1,-3.345741E-3,2.696686E0,2.2536722E-1,1.5359117E0,-4.9389848E-1,2.7695725E0,-1.6812619E-3,-7.201035E-1,1.7333027E0,-9.1127837E-1,-1.00231975E-1],"categories":[],"categories_nodes":[],"categories_segments":[],"categories_sizes":[],"default_left":[1,0,1,0,1,1,1,1,1,1,1,1,0,1,1,0,1,1,1,0,1,0,0,1,1,0,0,1,0,0,1,1,1,1,0,0,0,0,0,0,0,0,0,0,0,0,0,0,0,0,0],"id":3,"left_children":[1,3,5,-1,7,9,11,13,15,17,19,21,-1,23,25,-1,27,29,31,-1,33,-1,-1,35,37,-1,-1,39,-1,41,43,45,47,49,-1,-1,-1,-1,-1,-1,-1,-1,-1,-1,-1,-1,-1,-1,-1,-1,-1],"loss_changes":[7.191109E1,3.396748E1,2.730943E1,0E0,9.249668E0,1.736934E1,2.2934013E1,8.217991E0,1.4619064E0,1.2740246E1,1.6577864E0,5.8710775E0,0E0,6.8156624E0,1.1468358E0,0E0,6.797545E-1,1.3466938E1,6.618889E0,0E0,1.0750546E0,0E0,0E0,4.031349E0,1.2791095E0,0E0,0E0,6.7770034E-3,0E0,1.2853255E1,1.1617767E1,1.139114E1,8.778612E0,1.1126919E0,0E0,0E0,0E0,0E0,0E0,0E0,0E0,0E0,0E0,0E0,0E0,0E0,0E0,0E0,0E0,0E0,0E0],"parents":[2147483647,0,0,1,1,2,2,4,4,5,5,6,6,7,7,8,8,9,9,10,10,11,11,13,13,14,14,16,16,17,17,18,18,20,20,23,23,24,24,27,27,29,29,30,30,31,31,32,32,33,33],"right_children":[2,4,6,-1,8,10,12,14,16,18,20,22,-1,24,26,-1,28,30,32,-1,34,-1,-1,36,38,-1,-1,40,-1,42,44,46,48,50,-1,-1,-1,-1,-1,-1,-1,-1,-1,-1,-1,-1,-1,-1,-1,-1,-1],"split_conditions":[-9.536743E-7,4.5E-1,-9.536743E-7,3.084949E-1,-9.536743E-7,-9.536743E-7,-9.536743E-7,-9.536743E-7,-9.536743E-7,-9.536743E-7,-9.536743E-7,-9.536743E-7,4.7092295E-1,-9.536743E-7,-9.536743E-7,1.4703982E-1,-9.536743E-7,-9.536743E-7,-9.536743E-7,3.311738E-2,-9.536743E-7,1.5846111E-1,-6.389944E-2,-9.536743E-7,-9.536743E-7,2.195868E-2,1.372296E-1,-9.536743E-7,6.6234656E-2,2.5E-1,-9.536743E-7,-9.536743E-7,-9.536743E-7,-9.536743E-7,1.3737812E-3,-6.6830754E-2,5.0249804E-2,3.3666562E-2,-5.3207964E-2,-1.05875125E-2,-3.345741E-4,2.696686E-1,2.2536723E-2,1.5359117E-1,-4.938985E-2,2.7695724E-1,-1.681262E-4,-7.201035E-2,1.7333028E-1,-9.1127835E-2,-1.0023198E-2],"split_indices":[1083,1,4082,0,1086,2,3539,1931,711,4331,1742,4544,0,841,2,0,20,2688,901,0,2573,0,0,8,4319,0,0,3124,0,1,1253,734,1214,1232,0,0,0,0,0,0,0,0,0,0,0,0,0,0,0,0,0],"split_type":[0,0,0,0,0,0,0,0,0,0,0,0,0,0,0,0,0,0,0,0,0,0,0,0,0,0,0,0,0,0,0,0,0,0,0,0,0,0,0,0,0,0,0,0,0,0,0,0,0,0,0],"sum_hessian":[3.1673697E2,1.6368474E2,1.5305225E2,1.6824646E0,1.6200227E2,1.4832773E2,4.7245173E0,1.5734795E2,4.6543326E0,1.3301857E2,1.5309162E1,2.9335232E0,1.7909939E0,1.5397745E2,3.3704908E0,1.0209141E0,3.6334186E0,1.22143654E2,1.0874908E1,1.2481902E0,1.4060971E1,1.3085998E0,1.6249235E0,1.4415727E2,9.820186E0,2.2663834E0,1.1041074E0,2.231939E0,1.4014795E0,1.04119995E2,1.8023659E1,6.8138914E0,4.0610175E0,1.21116E1,1.949372E0,1.4183852E2,2.3187463E0,8.696667E0,1.1235186E0,1.2305624E0,1.0013766E0,1.1611063E0,1.0295889E2,1.5106163E1,2.9174957E0,4.825625E0,1.9882667E0,2.5049114E0,1.5561059E0,9.78871E0,2.32289E0],"tree_param":{"num_deleted":"0","num_feature":"4848","num_nodes":"51","size_leaf_vector":"0"}},{"base_weights":[3.363795E-3,-4.3133998E-1,4.2739758E-1,-4.7863114E-1,3.3476732E0,3.6780182E-1,2.5867927E0,-5.2006143E-1,2.8986292E0,3.035813E-1,2.3966389E0,3.4272334E-1,4.399377E0,-5.547685E-1,7.378396E-1,2.2367382E-1,1.2225243E0,-5.314688E-1,3.4296677E0,-5.813448E-1,8.154758E-1,1.983968E-1,1.2038867E0,1.9063897E-1,2.416969E0,1.6935132E0,-6.858923E-1,-6.0746527E-1,5.829288E-1,2.7824247E-1,-5.932613E-1,7.8410417E-1,3.3946059E0],"categories":[],"categories_nodes":[],"categories_segments":[],"categories_sizes":[],"default_left":[1,1,1,1,0,1,1,1,0,1,1,0,0,1,1,1,1,0,0,1,0,0,0,1,0,1,0,0,0,0,0,0,0],"id":4,"left_children":[1,3,5,7,-1,9,11,13,-1,15,17,-1,-1,19,21,23,25,-1,-1,27,-1,-1,-1,29,-1,31,-1,-1,-1,-1,-1,-1,-1],"loss_changes":[5.859273E1,2.965397E1,1.9755686E1,2.3321E1,0E0,1.9826164E1,1.5395899E1,7.1701164E0,0E0,1.103888E1,1.602474E1,0E0,0E0,5.9827385E0,9.143963E-1,9.897039E0,1.2037916E1,0E0,0E0,4.8846817E0,0E0,0E0,0E0,9.9109955E0,0E0,1.27980385E1,0E0,0E0,0E0,0E0,0E0,0E0,0E0],"parents":[2147483647,0,0,1,1,2,2,3,3,5,5,6,6,7,7,9,9,10,10,13,13,14,14,15,15,16,16,19,19,23,23,25,25],"right_children":[2,4,6,8,-1,10,12,14,-1,16,18,-1,-1,20,22,24,26,-1,-1,28,-1,-1,-1,30,-1,32,-1,-1,-1,-1,-1,-1,-1],"split_conditions":[-9.536743E-7,-9.536743E-7,-9.536743E-7,-9.536743E-7,3.347673E-1,-9.536743E-7,-9.536743E-7,-9.536743E-7,2.8986293E-1,-9.536743E-7,-9.536743E-7,3.4272335E-2,4.3993768E-1,-9.536743E-7,-9.536743E-7,-9.536743E-7,-9.536743E-7,-5.314688E-2,3.4296677E-1,-9.536743E-7,8.154758E-2,1.983968E-2,1.2038868E-1,-9.536743E-7,2.4169691E-1,-9.536743E-7,-6.858923E-2,-6.074653E-2,5.8292877E-2,2.7824247E-2,-5.932613E-2,7.841042E-2,3.3946058E-1],"split_indices":[1083,4697,394,2264,0,1220,4382,1931,0,841,954,0,0,9,2,4562,1237,0,0,8,0,0,0,2,0,1231,0,0,0,0,0,0,0],"split_type":[0,0,0,0,0,0,0,0,0,0,0,0,0,0,0,0,0,0,0,0,0,0,0,0,0,0,0,0,0,0,0,0,0],"sum_hessian":[3.1587012E2,1.5596417E2,1.5990594E2,1.5489908E2,1.0650856E0,1.5675023E2,3.1557226E0,1.5385765E2,1.0414264E0,1.5305507E2,3.695149E0,1.9413344E0,1.2143883E0,1.5027048E2,3.5871794E0,1.4195468E2,1.11003895E1,1.0902818E0,2.6048672E0,1.4797617E2,2.2943048E0,2.323483E0,1.2636963E0,1.4091911E2,1.0355687E0,8.993452E0,2.1069367E0,1.4519693E2,2.7792487E0,1.2733415E2,1.3584965E1,6.812443E0,2.1810095E0],"tree_param":{"num_deleted":"0","num_feature":"4848","num_nodes":"33","size_leaf_vector":"0"}},{"base_weights":[6.8966225E-3,-4.0387467E-1,3.755699E-1,-4.5165446E-1,2.633012E0,3.2872742E-1,2.5760045E0,-4.937474E-1,2.3632488E0,2.8588805E-1,1.9721719E0,3.477779E-1,3.6528592E0,-5.290189E-1,6.629497E-1,1.7944121E-1,8.7818664E-1,6.4279556E-1,2.9838455E0,-5.833185E-1,1.741728E-1,8.9196527E-1,-5.3816702E-2,-5.741775E-2,4.0609664E-1,1.1324006E0,-5.467283E-1,-6.123979E-1,5.446736E-1,3.0507568E-1,-5.266463E-1,-1.6425464E-1,2.334995E0,6.277581E-1,-3.8623288E-1,1.4052216E0,-1.4459564E-2,-1.6740322E-2,-7.050476E-1],"categories":[],"categories_nodes":[],"categories_segments":[],"categories_sizes":[],"default_left":[1,1,1,1,0,1,1,1,0,1,1,0,0,1,1,1,1,0,0,1,1,0,0,1,1,1,1,0,0,0,0,0,0,0,0,0,0,0,0],"id":5,"left_children":[1,3,5,7,-1,9,11,13,-1,15,17,-1,-1,19,21,23,25,-1,-1,27,29,-1,-1,31,33,35,37,-1,-1,-1,-1,-1,-1,-1,-1,-1,-1,-1,-1],"loss_changes":[4.7943867E1,2.2918428E1,1.6349272E1,1.8736843E1,0E0,1.10177555E1,6.722748E0,6.3451385E0,0E0,1.0024205E1,3.4744282E0,0E0,0E0,5.5669823E0,8.345399E-1,7.4397902E0,9.4376335E0,0E0,0E0,4.6996117E0,1.1726042E0,0E0,0E0,1.7873865E1,1.2662572E1,6.5861816E0,3.5404336E-1,0E0,0E0,0E0,0E0,0E0,0E0,0E0,0E0,0E0,0E0,0E0,0E0],"parents":[2147483647,0,0,1,1,2,2,3,3,5,5,6,6,7,7,9,9,10,10,13,13,14,14,15,15,16,16,19,19,20,20,23,23,24,24,25,25,26,26],"right_children":[2,4,6,8,-1,10,12,14,-1,16,18,-1,-1,20,22,24,26,-1,-1,28,30,-1,-1,32,34,36,38,-1,-1,-1,-1,-1,-1,-1,-1,-1,-1,-1,-1],"split_conditions":[-9.536743E-7,-9.536743E-7,-9.536743E-7,-9.536743E-7,2.6330122E-1,-9.536743E-7,-9.536743E-7,-9.536743E-7,2.3632489E-1,-9.536743E-7,-9.536743E-7,3.477779E-2,3.6528593E-1,-9.536743E-7,-9.536743E-7,-9.536743E-7,-9.536743E-7,6.4279556E-2,2.9838455E-1,-9.536743E-7,-9.536743E-7,8.9196526E-2,-5.3816703E-3,-9.536743E-7,-9.536743E-7,-9.536743E-7,-9.536743E-7,-6.123979E-2,5.446736E-2,3.0507568E-2,-5.2664634E-2,-1.6425464E-2,2.3349951E-1,6.277581E-2,-3.862329E-2,1.4052217E-1,-1.4459564E-3,-1.6740322E-3,-7.050476E-2],"split_indices":[1083,4697,1243,2264,0,521,4342,1931,0,2688,759,0,0,841,4397,20,1253,0,0,418,4676,0,0,716,1254,2107,4379,0,0,0,0,0,0,0,0,0,0,0,0],"split_type":[0,0,0,0,0,0,0,0,0,0,0,0,0,0,0,0,0,0,0,0,0,0,0,0,0,0,0,0,0,0,0,0,0,0,0,0,0,0,0],"sum_hessian":[3.1458414E2,1.4875151E2,1.6583261E2,1.4728552E2,1.4659879E0,1.6350142E2,2.3311987E0,1.4592798E2,1.3575542E0,1.6049187E2,3.0095546E0,1.1905894E0,1.1406093E0,1.4213641E2,3.7915556E0,1.37147E2,2.3344856E1,2.0072858E0,1.0022689E0,1.3210583E2,1.0030582E1,2.68821E0,1.1033456E0,6.7429085E1,6.971792E1,1.9984737E1,3.3601198E0,1.2923137E2,2.8744724E0,8.927704E0,1.1028787E0,6.543819E1,1.9908997E0,5.463968E1,1.5078244E1,1.5962273E1,4.0224648E0,1.0272033E0,2.3329165E0],"tree_param":{"num_deleted":"0","num_feature":"4848","num_nodes":"39","size_leaf_vector":"0"}},{"base_weights":[8.759689E-3,-3.7791306E-1,3.3064663E-1,-4.2190894E-1,2.9101336E0,2.981216E-1,2.949008E0,-4.5807526E-1,1.7843933E0,2.140135E-1,1.1936018E0,-4.938261E-1,6.501831E-1,1.702424E-1,1.4445997E0,5.424627E-1,3.263604E0,-5.308165E-1,5.826361E-1,9.1354245E-1,-8.711829E-2,2.4110083E-1,-4.837375E-1,-5.11323E-1,2.0278304E0,1.3362907E0,-2.7757585E-1,-5.6035995E-1,7.6788443E-1,1.000969E0,-5.159834E-1,3.0866364E-1,-5.076769E-1,-6.551185E-1,9.700818E-1,8.7201416E-1,2.822582E0,1.6977603E0,-1.09553374E-1,2.8768885E-1,-5.8646554E-1],"categories":[],"categories_nodes":[],"categories_segments":[],"categories_sizes":[],"default_left":[1,1,1,1,0,1,0,1,0,1,1,1,1,1,1,1,0,1,1,0,0,1,1,0,1,1,1,0,0,0,0,0,0,0,0,0,0,0,0,0,0],"id":6,"left_children":[1,3,5,7,-1,9,-1,11,-1,13,15,17,19,21,23,25,-1,27,29,-1,-1,31,33,-1,35,37,39,-1,-1,-1,-1,-1,-1,-1,-1,-1,-1,-1,-1,-1,-1],"loss_changes":[3.930808E1,2.1983812E1,1.3796999E1,1.2184792E1,0E0,1.2648631E1,0E0,5.905985E0,0E0,8.255862E0,1.7762827E1,5.769272E0,1.0187459E0,7.232139E0,7.0689077E0,8.32811E0,0E0,5.5366707E0,2.8291726E0,0E0,0E0,7.1991053E0,4.458412E0,0E0,1.4652233E0,3.5219612E0,1.3631086E0,0E0,0E0,0E0,0E0,0E0,0E0,0E0,0E0,0E0,0E0,0E0,0E0,0E0,0E0],"parents":[2147483647,0,0,1,1,2,2,3,3,5,5,7,7,9,9,10,10,11,11,12,12,13,13,14,14,15,15,17,17,18,18,21,21,22,22,24,24,25,25,26,26],"right_children":[2,4,6,8,-1,10,-1,12,-1,14,16,18,20,22,24,26,-1,28,30,-1,-1,32,34,-1,36,38,40,-1,-1,-1,-1,-1,-1,-1,-1,-1,-1,-1,-1,-1,-1],"split_conditions":[-9.536743E-7,-9.536743E-7,-9.536743E-7,-9.536743E-7,2.9101336E-1,-9.536743E-7,2.949008E-1,-9.536743E-7,1.7843933E-1,-9.536743E-7,-9.536743E-7,-9.536743E-7,-9.536743E-7,-9.536743E-7,-9.536743E-7,-9.536743E-7,3.263604E-1,-9.536743E-7,-9.536743E-7,9.135424E-2,-8.711829E-3,-9.536743E-7,-9.536743E-7,-5.11323E-2,-9.536743E-7,-9.536743E-7,-9.536743E-7,-5.6035995E-2,7.678845E-2,1.00096904E-1,-5.159834E-2,3.0866364E-2,-5.076769E-2,-6.551185E-2,9.700818E-2,8.720142E-2,2.822582E-1,1.6977604E-1,-1.0955337E-2,2.8768886E-2,-5.8646556E-2],"split_indices":[1083,3563,3543,4697,0,1115,0,7,0,1220,3,1931,20,2,954,2107,0,9,842,0,0,3062,3433,0,1236,4340,20,0,0,0,0,0,0,0,0,0,0,0,0,0,0],"split_type":[0,0,0,0,0,0,0,0,0,0,0,0,0,0,0,0,0,0,0,0,0,0,0,0,0,0,0,0,0,0,0,0,0,0,0,0,0,0,0,0,0],"sum_hessian":[3.1381262E2,1.424808E2,1.713318E2,1.4145969E2,1.0211245E0,1.7032985E2,1.0019611E0,1.3995782E2,1.5018492E0,1.5683783E2,1.3492023E1,1.3612117E2,3.8366609E0,1.5255006E2,4.287757E0,1.1223593E1,2.268431E0,1.3208908E2,4.0320835E0,2.6507826E0,1.185878E0,1.3820676E2,1.4343309E1,1.0131956E0,3.2745614E0,5.383051E0,5.8405414E0,1.2970697E2,2.382113E0,2.984521E0,1.0475628E0,1.2730748E2,1.089928E1,1.3322223E1,1.0210866E0,2.1887105E0,1.085851E0,4.167033E0,1.216018E0,2.0880566E0,3.7524848E0],"tree_param":{"num_deleted":"0","num_feature":"4848","num_nodes":"41","size_leaf_vector":"0"}},{"base_weights":[1.1132456E-2,-3.520381E-1,2.9339427E-1,-3.967723E-1,2.6192944E0,2.6234776E-1,2.7561193E0,-4.4781798E-1,7.181433E-1,2.2128493E-1,1.6830599E0,-4.86647E-1,7.061928E-1,1.0686185E0,-1.6969584E-2,2.9022088E-2,4.9447143E-1,-7.98574E-2,2.2601635E0,-5.25297E-1,5.074355E-1,9.405489E-1,-3.967928E-2,4.0379804E-1,1.399103E0,1.1888077E0,-1.3431674E-2,6.8855494E-1,-1.1839716E-1,-5.9866256E-1,1.306035E-1,8.8048995E-2,8.9824456E-1,-1.8308443E-1,2.1271846E0,-6.1688457E-2,1.0518667E0,7.99206E-1,-5.973066E-1,-5.3865963E-1,4.3975243E-1],"categories":[],"categories_nodes":[],"categories_segments":[],"categories_sizes":[],"default_left":[1,1,1,1,0,1,0,1,1,1,1,1,1,1,0,0,1,0,0,1,1,0,0,0,0,1,1,1,1,0,0,0,0,0,0,0,0,0,0,0,0],"id":7,"left_children":[1,3,5,7,-1,9,-1,11,13,15,17,19,21,23,-1,25,27,-1,-1,29,31,-1,-1,-1,-1,33,35,37,39,-1,-1,-1,-1,-1,-1,-1,-1,-1,-1,-1,-1],"loss_changes":[3.2273544E1,1.9342175E1,1.2820089E1,8.091438E0,0E0,9.896859E0,0E0,6.220989E0,1.6570044E0,9.032111E0,5.0573072E0,5.1647243E0,8.5495925E-1,3.848853E-1,0E0,5.0457025E0,8.536692E0,0E0,0E0,6.0069275E0,7.862705E-1,0E0,0E0,0E0,0E0,5.047639E0,5.181749E0,8.179569E0,4.4473443E0,0E0,0E0,0E0,0E0,0E0,0E0,0E0,0E0,0E0,0E0,0E0,0E0],"parents":[2147483647,0,0,1,1,2,2,3,3,5,5,7,7,8,8,9,9,10,10,11,11,12,12,13,13,15,15,16,16,19,19,20,20,25,25,26,26,27,27,28,28],"right_children":[2,4,6,8,-1,10,-1,12,14,16,18,20,22,24,-1,26,28,-1,-1,30,32,-1,-1,-1,-1,34,36,38,40,-1,-1,-1,-1,-1,-1,-1,-1,-1,-1,-1,-1],"split_conditions":[-9.536743E-7,-9.536743E-7,-9.536743E-7,-9.536743E-7,2.6192945E-1,-9.536743E-7,2.7561194E-1,-9.536743E-7,-9.536743E-7,-9.536743E-7,-9.536743E-7,-9.536743E-7,-9.536743E-7,-9.536743E-7,-1.6969584E-3,3.5000002E-1,-9.536743E-7,-7.98574E-3,2.2601636E-1,-9.536743E-7,-9.536743E-7,9.405489E-2,-3.9679282E-3,4.0379804E-2,1.3991031E-1,-9.536743E-7,-9.536743E-7,-9.536743E-7,-9.536743E-7,-5.9866257E-2,1.3060351E-2,8.8049E-3,8.982446E-2,-1.8308444E-2,2.1271847E-1,-6.1688456E-3,1.0518666E-1,7.9920605E-2,-5.973066E-2,-5.3865965E-2,4.3975245E-2],"split_indices":[1083,1051,4394,1086,0,521,0,7,788,997,4320,1931,20,4264,0,1,1253,0,0,843,2,0,0,0,0,20,597,3064,4321,0,0,0,0,0,0,0,0,0,0,0,0],"split_type":[0,0,0,0,0,0,0,0,0,0,0,0,0,0,0,0,0,0,0,0,0,0,0,0,0,0,0,0,0,0,0,0,0,0,0,0,0,0,0,0,0],"sum_hessian":[3.1282806E2,1.3669852E2,1.7612956E2,1.3552461E2,1.1738925E0,1.7502957E2,1.0999947E0,1.301635E2,5.361114E0,1.712361E2,3.7934785E0,1.2648592E2,3.677575E0,3.3231003E0,2.038014E0,1.0115301E2,7.008309E1,1.1480564E0,2.6454222E0,1.2220612E2,4.2798038E0,2.599725E0,1.0778501E0,1.8411598E0,1.4819404E0,2.6184235E0,9.8534584E1,5.3133316E1,1.6949778E1,1.0999044E2,1.2215688E1,2.6554627E0,1.6243408E0,1.3904704E0,1.227953E0,9.516577E1,3.3688068E0,4.9271835E1,3.861479E0,9.689171E0,7.260607E0],"tree_param":{"num_deleted":"0","num_feature":"4848","num_nodes":"41","size_leaf_vector":"0"}},{"base_weights":[1.2540145E-2,-3.2688272E-1,2.600439E-1,-3.713211E-1,2.1936119E0,2.1631195E-1,1.5651013E0,-4.221084E-1,6.436109E-1,1.7091686E-1,1.324928E0,2.4033432E0,-3.061573E-1,-4.6087167E-1,6.193497E-1,9.4480824E-1,-5.109544E-1,1.0676316E-1,8.6054754E-1,-5.3171235E-1,1.7687542E0,5.082947E-1,3.4452956E0,-4.92284E-1,8.1101096E-1,8.122192E-1,-3.7701916E-2,2.38039E-1,1.336315E0,4.5477976E-3,5.9208935E-1,1.1859139E0,-6.8964154E-1,2.115956E0,3.0855715E-1,-5.332085E-1,4.591449E-1,2.0796987E-1,-3.3794418E-1,2.6805174E-1,1.5922642E0,1.5440738E0,-3.6483237E-1,2.6796317E0,3.383881E-1],"categories":[],"categories_nodes":[],"categories_segments":[],"categories_sizes":[],"default_left":[1,1,1,1,0,1,1,1,1,1,1,1,0,1,1,1,0,1,1,0,1,0,0,1,0,0,0,0,0,1,1,1,0,1,0,0,0,0,0,0,0,0,0,0,0],"id":8,"left_children":[1,3,5,7,-1,9,11,13,15,17,19,21,-1,23,25,27,-1,29,31,-1,33,-1,-1,35,-1,-1,-1,-1,-1,37,39,41,-1,43,-1,-1,-1,-1,-1,-1,-1,-1,-1,-1,-1],"loss_changes":[2.6389357E1,1.565343E1,1.0027758E1,7.026331E0,0E0,8.676405E0,9.721724E0,5.3479233E0,2.7921572E0,7.477722E0,6.552705E0,6.284067E0,0E0,5.2524986E0,6.549479E-1,1.236412E0,0E0,7.819163E0,8.090989E0,0E0,2.2510548E0,0E0,0E0,4.8848724E0,0E0,0E0,0E0,0E0,0E0,9.214592E0,8.460826E0,7.38723E0,0E0,3.558878E0,0E0,0E0,0E0,0E0,0E0,0E0,0E0,0E0,0E0,0E0,0E0],"parents":[2147483647,0,0,1,1,2,2,3,3,5,5,6,6,7,7,8,8,9,9,10,10,11,11,13,13,14,14,15,15,17,17,18,18,20,20,23,23,29,29,30,30,31,31,33,33],"right_children":[2,4,6,8,-1,10,12,14,16,18,20,22,-1,24,26,28,-1,30,32,-1,34,-1,-1,36,-1,-1,-1,-1,-1,38,40,42,-1,44,-1,-1,-1,-1,-1,-1,-1,-1,-1,-1,-1],"split_conditions":[-9.536743E-7,-9.536743E-7,-9.536743E-7,-9.536743E-7,2.1936119E-1,-9.536743E-7,-9.536743E-7,-9.536743E-7,-9.536743E-7,-9.536743E-7,-9.536743E-7,-9.536743E-7,-3.061573E-2,-9.536743E-7,-9.536743E-7,-9.536743E-7,-5.1095437E-2,-9.536743E-7,-9.536743E-7,-5.3171236E-2,-9.536743E-7,5.082947E-2,3.4452957E-1,-9.536743E-7,8.11011E-2,8.122192E-2,-3.7701917E-3,2.38039E-2,1.3363151E-1,-9.536743E-7,-9.536743E-7,-9.536743E-7,-6.896415E-2,-9.536743E-7,3.0855715E-2,-5.332085E-2,4.591449E-2,2.0796988E-2,-3.3794418E-2,2.6805175E-2,1.5922642E-1,1.5440738E-1,-3.648324E-2,2.6796317E-1,3.383881E-2],"split_indices":[1083,1051,394,1086,0,1220,4406,7,4373,841,954,4382,0,8,20,4264,0,760,1237,0,1253,0,0,1931,0,0,0,0,0,951,1524,1149,0,2107,0,0,0,0,0,0,0,0,0,0,0],"split_type":[0,0,0,0,0,0,0,0,0,0,0,0,0,0,0,0,0,0,0,0,0,0,0,0,0,0,0,0,0,0,0,0,0,0,0,0,0,0,0,0,0,0,0,0,0],"sum_hessian":[3.121156E2,1.3148221E2,1.806334E2,1.3004213E2,1.44007E0,1.7590466E2,4.728745E0,1.24401184E2,5.640949E0,1.700939E2,5.8107543E0,3.069429E0,1.659316E0,1.2047458E2,3.9266086E0,4.6179233E0,1.0230253E0,1.5667393E2,1.3419963E1,1.0828581E0,4.727896E0,1.6167667E0,1.4526622E0,1.18169044E2,2.3055341E0,2.8529904E0,1.073618E0,2.219382E0,2.3985415E0,1.3025095E2,2.6423E1,1.1286126E1,2.133837E0,3.4568467E0,1.2710496E0,1.1371722E2,4.4518256E0,8.1962395E1,4.8288544E1,2.0914957E1,5.508043E0,9.172053E0,2.1140726E0,2.2392871E0,1.2175596E0],"tree_param":{"num_deleted":"0","num_feature":"4848","num_nodes":"45","size_leaf_vector":"0"}},{"base_weights":[1.35596255E-2,-1.7082157E-2,2.3946924E0,-3.4090498E-1,2.0552902E-1,3.70848E0,3.831474E-1,-3.8523287E-1,1.5618763E0,1.7184919E-1,1.6483399E0,-4.139037E-1,7.544048E-1,4.3814003E-1,1.9200535E0,1.369274E-1,1.3594698E0,-4.6833146E-2,2.258683E0,-4.502668E-1,4.2028916E-1,9.776799E-2,1.1550497E0,1.6426098E-1,2.379575E0,-4.805441E-1,6.2396353E-1,5.753616E-1,-8.650687E-2,1.4603764E-1,-5.31898E-1,1.7847778E-1,2.7113883E0,3.657597E-1,-1.06871955E-1],"categories":[],"categories_nodes":[],"categories_segments":[],"categories_sizes":[],"default_left":[1,1,1,1,1,0,0,1,1,1,1,1,0,0,0,1,1,0,0,1,1,1,1,1,0,0,0,0,0,0,0,0,0,0,0],"id":9,"left_children":[1,3,5,7,9,-1,-1,11,13,15,17,19,-1,-1,-1,21,23,-1,-1,25,27,29,31,33,-1,-1,-1,-1,-1,-1,-1,-1,-1,-1,-1],"loss_changes":[2.2841614E1,2.2382524E1,9.090416E0,1.1269157E1,8.660419E0,0E0,0E0,4.3767853E0,3.9727783E-1,7.31932E0,4.3291054E0,3.889618E0,0E0,0E0,0E0,6.940365E0,5.7752466E0,0E0,0E0,4.1174545E0,4.908728E-1,5.2887306E0,9.334391E0,2.2500265E-1,0E0,0E0,0E0,0E0,0E0,0E0,0E0,0E0,0E0,0E0,0E0],"parents":[2147483647,0,0,1,1,2,2,3,3,4,4,7,7,8,8,9,9,10,10,11,11,15,15,16,16,19,19,20,20,21,21,22,22,23,23],"right_children":[2,4,6,8,10,-1,-1,12,14,16,18,20,-1,-1,-1,22,24,-1,-1,26,28,30,32,34,-1,-1,-1,-1,-1,-1,-1,-1,-1,-1,-1],"split_conditions":[-9.536743E-7,-9.536743E-7,-9.536743E-7,-9.536743E-7,-9.536743E-7,3.70848E-1,3.831474E-2,-9.536743E-7,-9.536743E-7,-9.536743E-7,-9.536743E-7,-9.536743E-7,7.544048E-2,4.3814003E-2,1.9200535E-1,-9.536743E-7,-9.536743E-7,-4.683315E-3,2.258683E-1,-9.536743E-7,-9.536743E-7,-9.536743E-7,-9.536743E-7,-9.536743E-7,2.379575E-1,-4.805441E-2,6.2396355E-2,5.7536162E-2,-8.6506875E-3,1.4603764E-2,-5.3189803E-2,1.7847778E-2,2.7113885E-1,3.657597E-2,-1.0687196E-2],"split_indices":[3554,1083,4397,4697,1243,0,0,9,2244,1182,4342,7,0,0,0,597,4321,0,0,4357,20,3064,951,20,0,0,0,0,0,0,0,0,0,0,0],"split_type":[0,0,0,0,0,0,0,0,0,0,0,0,0,0,0,0,0,0,0,0,0,0,0,0,0,0,0,0,0,0,0,0,0,0,0],"sum_hessian":[3.1150046E2,3.0852304E2,2.9774256E0,1.254724E2,1.8305066E2,1.2907854E0,1.68664E0,1.2339528E2,2.0771182E0,1.7996872E2,3.0819385E0,1.2098828E2,2.4069936E0,1.0393951E0,1.0377232E0,1.7591136E2,4.0573506E0,1.0603048E0,2.0216336E0,1.1637562E2,4.612667E0,1.7045142E2,5.4599404E0,2.402951E0,1.6543996E0,1.13722984E2,2.6526291E0,3.4283483E0,1.1843185E0,1.590285E2,1.1422918E1,4.039753E0,1.4201875E0,1.17828E0,1.224671E0],"tree_param":{"num_deleted":"0","num_feature":"4848","num_nodes":"35","size_leaf_vector":"0"}},{"base_weights":[1.5775686E-2,-1.1749464E-2,2.203302E0,-3.1126285E-1,1.8390581E-1,2.8534439E0,3.1890482E-1,-3.6187053E-1,1.4822922E0,1.1835837E-1,8.186989E-1,-3.9020288E-1,6.6311306E-1,2.0123637E0,2.7379966E-1,1.5070327E-1,-8.343814E-1,3.5038638E-1,2.092065E0,-4.2780188E-1,4.5818707E-1,9.7670805E-1,-3.8802773E-2,1.2051979E-1,1.2130053E0,7.240816E-2,1.924217E0,2.5982144E0,3.5675147E-1,-4.5950994E-1,6.579714E-1,7.976362E-1,-5.1051414E-1,1.6543588E-1,-5.9862906E-1,2.8520024E-3,2.1419191E0,-2.3942044E-1,1.6977566E0],"categories":[],"categories_nodes":[],"categories_segments":[],"categories_sizes":[],"default_left":[1,1,1,1,1,0,0,1,1,1,1,1,1,0,0,1,0,1,1,1,1,0,0,1,1,1,0,0,0,0,0,0,0,0,0,0,0,0,0],"id":10,"left_children":[1,3,5,7,9,-1,-1,11,13,15,17,19,21,-1,-1,23,-1,25,27,29,31,-1,-1,33,35,37,-1,-1,-1,-1,-1,-1,-1,-1,-1,-1,-1,-1,-1],"loss_changes":[1.8781378E1,1.8142504E1,3.8386364E0,1.1638551E1,7.696517E0,0E0,0E0,3.7366352E0,1.7248802E0,5.39347E0,9.620021E0,3.9335556E0,8.285198E-1,0E0,0E0,5.18201E0,0E0,5.939248E0,2.9965706E0,4.1828403E0,2.2010126E0,0E0,0E0,5.354249E0,5.030867E0,6.9180326E0,0E0,0E0,0E0,0E0,0E0,0E0,0E0,0E0,0E0,0E0,0E0,0E0,0E0],"parents":[2147483647,0,0,1,1,2,2,3,3,4,4,7,7,8,8,9,9,10,10,11,11,12,12,15,15,17,17,18,18,19,19,20,20,23,23,24,24,25,25],"right_children":[2,4,6,8,10,-1,-1,12,14,16,18,20,22,-1,-1,24,-1,26,28,30,32,-1,-1,34,36,38,-1,-1,-1,-1,-1,-1,-1,-1,-1,-1,-1,-1,-1],"split_conditions":[-9.536743E-7,-9.536743E-7,-9.536743E-7,-9.536743E-7,-9.536743E-7,2.853444E-1,3.189048E-2,-9.536743E-7,-9.536743E-7,-9.536743E-7,-9.536743E-7,-9.536743E-7,-9.536743E-7,2.0123637E-1,2.7379965E-2,-9.536743E-7,-8.343814E-2,-9.536743E-7,-9.536743E-7,-9.536743E-7,-9.536743E-7,9.767081E-2,-3.8802773E-3,-9.536743E-7,-9.536743E-7,-9.536743E-7,1.924217E-1,2.5982144E-1,3.567515E-2,-4.5950994E-2,6.579714E-2,7.976362E-2,-5.1051416E-2,1.6543588E-2,-5.9862908E-2,2.8520025E-4,2.1419191E-1,-2.3942044E-2,1.6977566E-1],"split_indices":[3544,1083,3745,4697,1115,0,0,9,3372,2583,3,1931,20,0,0,398,0,2806,1149,8,842,0,0,893,20,3027,0,0,0,0,0,0,0,0,0,0,0,0,0],"split_type":[0,0,0,0,0,0,0,0,0,0,0,0,0,0,0,0,0,0,0,0,0,0,0,0,0,0,0,0,0,0,0,0,0,0,0,0,0,0,0],"sum_hessian":[3.10491E2,3.0761496E2,2.8760211E0,1.2131398E2,1.8630098E2,1.7559481E0,1.120073E0,1.1876121E2,2.5527763E0,1.699398E2,1.6361183E1,1.1616939E2,2.591817E0,1.3120826E0,1.2406938E0,1.6517407E2,4.76573E0,1.2894187E1,3.4669964E0,1.1171418E2,4.4552097E0,1.5208553E0,1.0709616E0,1.6169328E2,3.480784E0,1.1847608E1,1.046579E0,2.2991347E0,1.1678616E0,1.0910476E2,2.6094184E0,3.4299054E0,1.0253042E0,1.5291272E2,8.780561E0,1.9471638E0,1.53362E0,1.0655928E1,1.1916798E0],"tree_param":{"num_deleted":"0","num_feature":"4848","num_nodes":"39","size_leaf_vector":"0"}},{"base_weights":[1.7440703E-2,-5.737166E-2,7.0285785E-1,-3.1829044E-1,1.1943463E-1,4.461964E-1,1.845549E0,-3.5213304E-1,1.1999122E0,1.9127075E-1,-6.120365E-1,3.1320223E-1,1.845441E0,2.667546E0,2.2881608E-1,-4.1207296E-1,3.0645004E-1,2.8565124E-1,-3.1730047E-1,-7.237976E-1,4.8291045E-1,7.452979E-2,1.1880352E0,-4.576E-1,5.395814E-1,4.560978E-1,-5.067098E-1,1.8504134E-1,8.871631E-1,-5.622358E-1,3.0207902E-1,-1.3693164E-1,-7.726075E-1,2.8961062E-1,-8.1952554E-1,1.8414816E0,-5.605027E-1,-4.9960655E-1,5.005647E-1,7.3681355E-1,-7.758617E-2,5.984076E-1,-1.7399506E-1,2.3947656E-1,-7.1040046E-1,5.362959E-1,2.3440657E0,-6.51314E-1,4.0858695E-1,6.361564E-1,-6.129268E-1,-8.2569057E-1,-2.7323002E-1,9.7077703E-1,-1.0060915E-1,5.838175E-1,2.7964833E0],"categories":[],"categories_nodes":[],"categories_segments":[],"categories_sizes":[],"default_left":[1,1,1,1,1,1,1,1,0,1,1,1,0,0,0,1,1,1,1,1,0,1,1,1,1,1,0,1,1,1,1,0,1,1,0,1,0,0,0,0,0,0,0,0,0,0,0,0,0,0,0,0,0,0,0,0,0],"id":11,"left_children":[1,3,5,7,9,11,13,15,-1,17,19,21,-1,-1,-1,23,25,27,29,31,-1,33,35,37,39,41,-1,43,45,47,49,-1,51,53,-1,55,-1,-1,-1,-1,-1,-1,-1,-1,-1,-1,-1,-1,-1,-1,-1,-1,-1,-1,-1,-1,-1],"loss_changes":[1.5967528E1,1.2999536E1,8.163223E0,6.267542E0,8.955561E0,4.323709E0,6.4347076E0,4.5496254E0,0E0,7.478908E0,2.2193685E0,5.185384E0,0E0,0E0,0E0,4.7152176E0,1.4383826E0,7.7247972E0,3.8969588E0,3.0282164E-1,0E0,4.2584844E0,7.1415634E0,4.2333317E0,6.861781E-1,9.026489E-1,0E0,5.6752853E0,8.156697E0,1.8188586E0,2.7169776E0,0E0,1.1779261E-1,4.7745557E0,0E0,3.3226986E0,0E0,0E0,0E0,0E0,0E0,0E0,0E0,0E0,0E0,0E0,0E0,0E0,0E0,0E0,0E0,0E0,0E0,0E0,0E0,0E0,0E0],"parents":[2147483647,0,0,1,1,2,2,3,3,4,4,5,5,6,6,7,7,9,9,10,10,11,11,15,15,16,16,17,17,18,18,19,19,21,21,22,22,23,23,24,24,25,25,27,27,28,28,29,29,30,30,32,32,33,33,35,35],"right_children":[2,4,6,8,10,12,14,16,-1,18,20,22,-1,-1,-1,24,26,28,30,32,-1,34,36,38,40,42,-1,44,46,48,50,-1,52,54,-1,56,-1,-1,-1,-1,-1,-1,-1,-1,-1,-1,-1,-1,-1,-1,-1,-1,-1,-1,-1,-1,-1],"split_conditions":[-9.536743E-7,-9.536743E-7,-9.536743E-7,-9.536743E-7,-9.536743E-7,-9.536743E-7,-9.536743E-7,-9.536743E-7,1.1999122E-1,-9.536743E-7,-9.536743E-7,-9.536743E-7,1.845441E-1,2.667546E-1,2.2881608E-2,-9.536743E-7,-9.536743E-7,-9.536743E-7,-9.536743E-7,-9.536743E-7,4.8291046E-2,-9.536743E-7,-9.536743E-7,-9.536743E-7,-9.536743E-7,-9.536743E-7,-5.067098E-2,-9.536743E-7,-9.536743E-7,-9.536743E-7,-9.536743E-7,-1.3693164E-2,-9.536743E-7,-9.536743E-7,-8.195256E-2,-9.536743E-7,-5.605027E-2,-4.9960654E-2,5.005647E-2,7.3681355E-2,-7.758617E-3,5.9840765E-2,-1.7399507E-2,2.3947656E-2,-7.104005E-2,5.362959E-2,2.3440658E-1,-6.51314E-2,4.0858697E-2,6.361564E-2,-6.1292678E-2,-8.2569055E-2,-2.7323002E-2,9.7077705E-2,-1.0060916E-2,5.8381747E-2,2.7964833E-1],"split_indices":[4356,1083,393,4697,2,10,1152,841,0,1254,3432,1899,0,0,0,1931,794,4384,4342,953,0,3372,1214,1019,4397,2,0,3062,1232,2634,1085,0,2573,711,0,1113,0,0,0,0,0,0,0,0,0,0,0,0,0,0,0,0,0,0,0,0,0],"split_type":[0,0,0,0,0,0,0,0,0,0,0,0,0,0,0,0,0,0,0,0,0,0,0,0,0,0,0,0,0,0,0,0,0,0,0,0,0,0,0,0,0,0,0,0,0,0,0,0,0,0,0,0,0,0,0,0,0],"sum_hessian":[3.09607E2,2.7996542E2,2.9641556E1,1.1276066E2,1.6720477E2,2.5340313E1,4.3012433E0,1.1105321E2,1.7074528E0,1.5292488E2,1.4279894E1,2.4258453E1,1.0818597E0,2.4205832E0,1.8806603E0,1.0213212E2,8.921092E0,1.2935715E2,2.3567732E1,1.3264911E1,1.0149826E0,1.9911406E1,4.347048E0,9.7964645E1,4.1674676E0,7.905355E0,1.0157372E0,1.1194129E2,1.7415863E1,1.6955065E1,6.6126666E0,1.3107309E0,1.195418E1,1.6595205E1,3.3161998E0,3.1257632E0,1.2212845E0,9.430868E1,3.655971E0,3.0112731E0,1.1561946E0,6.48987E0,1.4154849E0,1.06216774E2,5.7245126E0,1.5138217E1,2.2776449E0,1.5831546E1,1.1235197E0,5.067299E0,1.5453676E0,1.02149105E1,1.7392697E0,5.5024233E0,1.1092782E1,2.04456E0,1.0812032E0],"tree_param":{"num_deleted":"0","num_feature":"4848","num_nodes":"57","size_leaf_vector":"0"}},{"base_weights":[1.7519563E-2,-8.577931E-3,1.6491064E0,-2.4944252E-1,1.635496E-1,2.3226676E0,-2.1096413E-1,-2.8818792E-1,1.1425918E0,1.1928343E-1,1.2283281E0,2.9427977E0,3.7121737E-1,-3.2077482E-1,8.476168E-1,1.6793451E0,2.0372202E-1,1.7135485E-1,-4.9777302E-1,1.6375325E0,-5.4628104E-1,-3.6723378E-1,4.2799428E-1,2.635291E-1,-2.698087E-1,-6.912806E-1,9.7642547E-1,6.724756E-1,2.1358995E0,7.807964E-1,-3.9735487E-1,-9.680585E-2,1.8922279E0,3.946323E-2,4.8012787E-1,-3.8607267E-1,6.183077E-1,-8.233594E-1,8.70479E-2,1.0762839E0,-8.006101E-2,7.127375E-1,2.673252E0],"categories":[],"categories_nodes":[],"categories_segments":[],"categories_sizes":[],"default_left":[1,1,1,1,1,1,0,1,1,1,1,0,0,1,0,0,0,1,1,1,0,0,1,1,1,1,0,1,1,0,0,0,0,0,0,0,0,0,0,0,0,0,0],"id":12,"left_children":[1,3,5,7,9,11,-1,13,15,17,19,-1,-1,21,-1,-1,-1,23,25,27,-1,29,31,33,35,37,-1,39,41,-1,-1,-1,-1,-1,-1,-1,-1,-1,-1,-1,-1,-1,-1],"loss_changes":[1.322137E1,1.27391405E1,6.6144342E0,7.235621E0,8.301448E0,3.351305E0,0E0,4.9125166E0,1.5068364E0,5.6499953E0,6.011464E0,0E0,0E0,4.4223776E0,0E0,0E0,0E0,6.5958047E0,4.5927315E0,1.4379101E0,0E0,4.3209724E0,6.042368E0,6.447007E0,3.153077E0,1.3798614E0,0E0,1.1481384E0,7.570896E-1,0E0,0E0,0E0,0E0,0E0,0E0,0E0,0E0,0E0,0E0,0E0,0E0,0E0,0E0],"parents":[2147483647,0,0,1,1,2,2,3,3,4,4,5,5,7,7,8,8,9,9,10,10,13,13,17,17,18,18,19,19,21,21,22,22,23,23,24,24,25,25,27,27,28,28],"right_children":[2,4,6,8,10,12,-1,14,16,18,20,-1,-1,22,-1,-1,-1,24,26,28,-1,30,32,34,36,38,-1,40,42,-1,-1,-1,-1,-1,-1,-1,-1,-1,-1,-1,-1,-1,-1],"split_conditions":[-9.536743E-7,-9.536743E-7,-9.536743E-7,-9.536743E-7,-9.536743E-7,-9.536743E-7,-2.1096414E-2,-9.536743E-7,-9.536743E-7,-9.536743E-7,-9.536743E-7,2.9427978E-1,3.712174E-2,-9.536743E-7,8.476168E-2,1.6793452E-1,2.0372203E-2,-9.536743E-7,-9.536743E-7,-9.536743E-7,-5.4628104E-2,3.5000002E-1,-9.536743E-7,-9.536743E-7,-9.536743E-7,-9.536743E-7,9.764255E-2,-9.536743E-7,-9.536743E-7,7.807964E-2,-3.973549E-2,-9.680585E-3,1.892228E-1,3.946323E-3,4.801279E-2,-3.8607266E-2,6.183077E-2,-8.233594E-2,8.70479E-3,1.076284E-1,-8.0061015E-3,7.127375E-2,2.6732522E-1],"split_indices":[3554,953,1292,1214,1220,4397,0,9,711,2,1727,0,0,4345,0,0,0,1254,1426,997,0,1,1190,20,4363,2573,0,758,4379,0,0,0,0,0,0,0,0,0,0,0,0,0,0],"split_type":[0,0,0,0,0,0,0,0,0,0,0,0,0,0,0,0,0,0,0,0,0,0,0,0,0,0,0,0,0,0,0,0,0,0,0,0,0,0,0,0,0,0,0],"sum_hessian":[3.0917197E2,3.0528366E2,3.8883185E0,1.27049416E2,1.7823424E2,2.6720338E0,1.2162846E0,1.24380424E2,2.6689894E0,1.7218787E2,6.046362E0,1.6421783E0,1.0298555E0,1.2160897E2,2.7714517E0,1.1963478E0,1.4726416E0,1.5945433E2,1.2733538E1,4.97616E0,1.0702016E0,1.1498409E2,6.6248827E0,1.3222966E2,2.7224676E1,1.1725494E1,1.0080425E0,2.4946952E0,2.4814649E0,2.3025653E0,1.12681526E2,5.564412E0,1.0604706E0,6.557559E1,6.665407E1,2.4573086E1,2.65159E0,9.974938E0,1.7505565E0,1.3435456E0,1.1511497E0,1.3177722E0,1.1636926E0],"tree_param":{"num_deleted":"0","num_feature":"4848","num_nodes":"43","size_leaf_vector":"0"}},{"base_weights":[1.8789219E-2,-1.7018417E-2,1.0344806E0,-1.4694707E-1,2.7203012E-1,5.1748776E-1,1.8264197E0,-1.8595082E-1,1.002757E0,3.3354017E-1,-8.203862E-1,-3.032024E-1,1.6490955E0,2.970629E0,-2.3029377E-1,-2.3749654E-1,5.748973E-1,1.4999967E0,-5.8559304E-1,4.654035E-1,-1.7412321E-1,-5.9404576E-1,4.7784406E-1,-2.955869E-1,2.503664E-1,1.114722E0,-4.4511512E-1,1.6806239E0,4.1008666E-1,3.445495E-1,1.5029327E0,-3.2532868E-1,8.980968E-1,-7.340208E-1,-6.995924E-2,-3.2010308E-1,9.1096854E-1,6.1550874E-2,8.5800236E-1,1.6625174E0,-4.0457594E-1,-7.277388E-1,9.1396555E-2,2.136772E-1,9.02654E-1,5.311547E-1,3.284769E0,-5.0573003E-1,2.993421E-1],"categories":[],"categories_nodes":[],"categories_segments":[],"categories_sizes":[],"default_left":[1,1,1,1,1,1,1,1,1,1,0,1,0,0,0,1,1,1,0,1,1,1,0,1,1,1,1,0,0,1,1,1,0,0,0,0,0,0,0,0,0,0,0,0,0,0,0,0,0],"id":13,"left_children":[1,3,5,7,9,11,13,15,17,19,-1,21,-1,-1,-1,23,25,27,-1,29,31,33,-1,35,37,39,41,-1,-1,43,45,47,-1,-1,-1,-1,-1,-1,-1,-1,-1,-1,-1,-1,-1,-1,-1,-1,-1],"loss_changes":[1.1268056E1,1.1298687E1,3.3744392E0,9.489976E0,6.544061E0,7.723978E0,9.5602045E0,8.039286E0,6.3784122E0,6.0425158E0,0E0,1.499948E0,0E0,0E0,0E0,5.442425E0,7.6971383E0,4.1017914E-1,0E0,8.380362E0,3.387105E0,2.6751173E-1,0E0,5.31227E0,2.321766E0,8.02748E0,8.611417E-1,0E0,0E0,4.5443907E0,1.0560137E1,2.1194816E0,0E0,0E0,0E0,0E0,0E0,0E0,0E0,0E0,0E0,0E0,0E0,0E0,0E0,0E0,0E0,0E0,0E0],"parents":[2147483647,0,0,1,1,2,2,3,3,4,4,5,5,6,6,7,7,8,8,9,9,11,11,15,15,16,16,17,17,19,19,20,20,21,21,23,23,24,24,25,25,26,26,29,29,30,30,31,31],"right_children":[2,4,6,8,10,12,14,16,18,20,-1,22,-1,-1,-1,24,26,28,-1,30,32,34,-1,36,38,40,42,-1,-1,44,46,48,-1,-1,-1,-1,-1,-1,-1,-1,-1,-1,-1,-1,-1,-1,-1,-1,-1],"split_conditions":[-9.536743E-7,-9.536743E-7,-9.536743E-7,-9.536743E-7,-9.536743E-7,-9.536743E-7,-9.536743E-7,-9.536743E-7,-9.536743E-7,-9.536743E-7,-8.203862E-2,-9.536743E-7,1.6490956E-1,2.970629E-1,-2.3029378E-2,-9.536743E-7,-9.536743E-7,-9.536743E-7,-5.8559306E-2,-9.536743E-7,-9.536743E-7,-9.536743E-7,4.7784407E-2,-9.536743E-7,-9.536743E-7,-9.536743E-7,-9.536743E-7,1.6806239E-1,4.1008666E-2,-9.536743E-7,-9.536743E-7,-9.536743E-7,8.980968E-2,-7.3402084E-2,-6.995924E-3,-3.201031E-2,9.1096856E-2,6.1550876E-3,8.580024E-2,1.6625175E-1,-4.0457595E-2,-7.277388E-2,9.139656E-3,2.136772E-2,9.02654E-2,5.311547E-2,3.284769E-1,-5.0573003E-2,2.993421E-2],"split_indices":[394,996,4271,8,8,3744,3326,1267,4343,1253,0,2107,0,0,0,5,951,4397,0,1113,1172,4406,0,716,1149,758,4384,0,0,5,1727,3,0,0,0,0,0,0,0,0,0,0,0,0,0,0,0,0,0],"split_type":[0,0,0,0,0,0,0,0,0,0,0,0,0,0,0,0,0,0,0,0,0,0,0,0,0,0,0,0,0,0,0,0,0,0,0,0,0,0,0,0,0,0,0,0,0,0,0,0,0],"sum_hessian":[3.083375E2,2.9878717E2,9.550332E0,2.064697E2,9.2317474E1,6.778587E0,2.771745E0,2.005058E2,5.963902E0,8.805413E1,4.2633376E0,4.3533864E0,2.4252005E0,1.4954343E0,1.2763107E0,1.8842807E2,1.2077721E1,4.584371E0,1.3795308E0,6.9964424E1,1.8089706E1,3.3466105E0,1.0067759E0,1.6873119E2,1.969689E1,7.8371744E0,4.2405467E0,3.467697E0,1.1166742E0,6.385816E1,6.10627E0,1.6464457E1,1.6252489E0,2.325054E0,1.0215564E0,1.6609105E2,2.64013E0,1.5867538E1,3.8293502E0,5.690978E0,2.1461961E0,2.5439944E0,1.6965524E0,5.2848377E1,1.1009781E1,4.79129E0,1.3149801E0,1.2922824E1,3.541633E0],"tree_param":{"num_deleted":"0","num_feature":"4848","num_nodes":"49","size_leaf_vector":"0"}},{"base_weights":[1.9353813E-2,1.0527974E-3,1.8808463E0,-1.18382834E-1,2.5673953E-1,-1.533408E-1,8.5431993E-1,2.0786558E-1,1.8519026E0,-1.9087264E-1,8.44412E-1,1.2525356E0,-3.6776245E-1,3.3539775E-1,-3.0358323E-1,-2.6264217E-1,2.184703E-1,1.2305174E0,-5.710777E-1,4.1334808E-1,2.2745323E0,2.6789668E-1,1.5407833E0,-5.656311E-1,2.342477E-1,-3.231169E-1,3.5899815E-1,-1.576833E-1,1.0001662E0,6.7427975E-1,1.7973555E0,-3.788155E-1,1.3116516E0,1.5917896E-1,8.847462E-1,4.9168158E-1,2.097171E0,-6.811893E-1,2.84368E-1,6.755372E-1,-6.60697E-1],"categories":[],"categories_nodes":[],"categories_segments":[],"categories_sizes":[],"default_left":[1,1,0,1,1,1,1,1,0,1,1,1,0,1,1,1,1,1,0,1,0,1,1,1,1,0,0,0,0,0,0,0,0,0,0,0,0,0,0,0,0],"id":14,"left_children":[1,3,-1,5,7,9,11,13,-1,15,17,19,-1,21,23,25,27,29,-1,31,-1,33,35,37,39,-1,-1,-1,-1,-1,-1,-1,-1,-1,-1,-1,-1,-1,-1,-1,-1],"loss_changes":[1.0517712E1,9.3990755E0,0E0,7.264741E0,7.2548294E0,7.7765937E0,4.076634E0,6.3770366E0,0E0,5.839208E0,4.832727E0,4.0609293E0,0E0,5.8914127E0,2.912706E0,6.42801E0,8.950681E0,7.6002884E-1,0E0,3.6450496E0,0E0,4.8608294E0,1.244338E0,1.5253162E0,3.2778716E0,0E0,0E0,0E0,0E0,0E0,0E0,0E0,0E0,0E0,0E0,0E0,0E0,0E0,0E0,0E0,0E0],"parents":[2147483647,0,0,1,1,3,3,4,4,5,5,6,6,7,7,9,9,10,10,11,11,13,13,14,14,15,15,16,16,17,17,19,19,21,21,22,22,23,23,24,24],"right_children":[2,4,-1,6,8,10,12,14,-1,16,18,20,-1,22,24,26,28,30,-1,32,-1,34,36,38,40,-1,-1,-1,-1,-1,-1,-1,-1,-1,-1,-1,-1,-1,-1,-1,-1],"split_conditions":[-9.536743E-7,-9.536743E-7,1.8808463E-1,-9.536743E-7,-9.536743E-7,-9.536743E-7,-9.536743E-7,-9.536743E-7,1.8519026E-1,-9.536743E-7,-9.536743E-7,-9.536743E-7,-3.6776245E-2,-9.536743E-7,-9.536743E-7,-9.536743E-7,-9.536743E-7,-9.536743E-7,-5.7107773E-2,-9.536743E-7,2.2745323E-1,-9.536743E-7,-9.536743E-7,-9.536743E-7,-9.536743E-7,-3.231169E-2,3.5899814E-2,-1.576833E-2,1.0001662E-1,6.742798E-2,1.7973556E-1,-3.788155E-2,1.3116516E-1,1.5917895E-2,8.8474624E-2,4.916816E-2,2.0971711E-1,-6.811893E-2,2.84368E-2,6.755372E-2,-6.60697E-2],"split_indices":[13,996,0,394,1118,8,3179,1253,0,1149,4343,4271,0,716,4342,841,4348,2108,0,4355,0,759,4348,7,1085,0,0,0,0,0,0,0,0,0,0,0,0,0,0,0,0],"split_type":[0,0,0,0,0,0,0,0,0,0,0,0,0,0,0,0,0,0,0,0,0,0,0,0,0,0,0,0,0,0,0,0,0,0,0,0,0,0,0,0,0],"sum_hessian":[3.0779236E2,3.0578662E2,2.0057347E0,2.0879291E2,9.699372E1,2.0236255E2,6.4303536E0,9.5207E1,1.7867217E0,1.9580574E2,6.556803E0,4.831191E0,1.5991627E0,7.648046E1,1.8726543E1,1.6690152E2,2.890423E1,5.254266E0,1.3025372E0,3.4240599E0,1.4071311E0,7.358214E1,2.8983188E0,1.2556795E1,6.1697474E0,1.5254205E2,1.4359457E1,2.0052979E1,8.851253E0,3.7570357E0,1.4972303E0,2.1268282E0,1.2972317E0,6.3626266E1,9.955873E0,1.6572258E0,1.2410929E0,1.1228826E1,1.3279699E0,4.296395E0,1.8733523E0],"tree_param":{"num_deleted":"0","num_feature":"4848","num_nodes":"41","size_leaf_vector":"0"}},{"base_weights":[2.0320905E-2,-2.5550937E-3,1.3227824E0,-2.0249192E-1,1.2796237E-1,1.8317947E0,-2.2104548E-1,-2.4473467E-1,9.7514015E-1,8.9258604E-2,9.9127764E-1,2.2730837E0,3.1100318E-1,-2.698522E-1,1.0702003E0,1.6282731E0,-2.583043E-1,1.2862094E-1,-6.016339E-1,1.3202649E0,-5.501788E-1,-3.106384E-1,5.694217E-1,1.7354283E-1,-4.4769332E-1,-7.5862825E-1,6.103517E-2,1.5714903E0,-3.1788167E-2,-3.431319E-1,9.4378304E-1,7.8360325E-1,-1.10957384E-1,2.2618881E-1,-5.0965625E-1,-6.547958E-1,9.0470254E-1,-8.663844E-1,-4.678457E-3,1.8895296E0,2.8581285E-1],"categories":[],"categories_nodes":[],"categories_segments":[],"categories_sizes":[],"default_left":[1,1,1,1,1,1,0,1,1,1,1,0,0,1,0,0,0,1,1,1,0,1,1,1,1,1,0,1,0,0,0,0,0,0,0,0,0,0,0,0,0],"id":15,"left_children":[1,3,5,7,9,11,-1,13,15,17,19,-1,-1,21,-1,-1,-1,23,25,27,-1,29,31,33,35,37,-1,39,-1,-1,-1,-1,-1,-1,-1,-1,-1,-1,-1,-1,-1],"loss_changes":[9.183583E0,7.9534135E0,4.585577E0,6.2268076E0,6.073559E0,2.050393E0,0E0,4.1532164E0,3.9402804E0,4.907331E0,4.6890206E0,0E0,0E0,4.1343145E0,0E0,0E0,0E0,4.449176E0,1.0605783E0,2.3372145E0,0E0,4.8441534E0,9.191662E-1,5.775325E0,4.0904465E0,6.423516E-1,0E0,1.7900219E0,0E0,0E0,0E0,0E0,0E0,0E0,0E0,0E0,0E0,0E0,0E0,0E0,0E0],"parents":[2147483647,0,0,1,1,2,2,3,3,4,4,5,5,7,7,8,8,9,9,10,10,13,13,17,17,18,18,19,19,21,21,22,22,23,23,24,24,25,25,27,27],"right_children":[2,4,6,8,10,12,-1,14,16,18,20,-1,-1,22,-1,-1,-1,24,26,28,-1,30,32,34,36,38,-1,40,-1,-1,-1,-1,-1,-1,-1,-1,-1,-1,-1,-1,-1],"split_conditions":[-9.536743E-7,-9.536743E-7,-9.536743E-7,-9.536743E-7,-9.536743E-7,-9.536743E-7,-2.2104548E-2,-9.536743E-7,-9.536743E-7,-9.536743E-7,-9.536743E-7,2.2730838E-1,3.1100318E-2,-9.536743E-7,1.07020035E-1,1.6282731E-1,-2.583043E-2,-9.536743E-7,-9.536743E-7,-9.536743E-7,-5.5017885E-2,-9.536743E-7,-9.536743E-7,-9.536743E-7,-9.536743E-7,-9.536743E-7,6.103517E-3,-9.536743E-7,-3.1788168E-3,-3.431319E-2,9.437831E-2,7.836033E-2,-1.1095739E-2,2.261888E-2,-5.0965626E-2,-6.5479584E-2,9.0470254E-2,-8.663844E-2,-4.678457E-4,1.8895297E-1,2.8581286E-2],"split_indices":[3554,953,1292,4697,1220,4397,0,521,3372,921,1727,0,0,7,0,0,0,2,759,5,0,1279,20,3062,1426,684,0,4,0,0,0,0,0,0,0,0,0,0,0,0,0],"split_type":[0,0,0,0,0,0,0,0,0,0,0,0,0,0,0,0,0,0,0,0,0,0,0,0,0,0,0,0,0,0,0,0,0,0,0,0,0,0,0,0,0],"sum_hessian":[3.071111E2,3.0279102E2,4.3200827E0,1.19373665E2,1.8341736E2,3.1086185E0,1.2114643E0,1.16004654E2,3.3690124E0,1.7660335E2,6.8140116E0,2.0260475E0,1.0825709E0,1.1461018E2,1.3944736E0,1.9933773E0,1.3756349E0,1.67854E2,8.74934E0,5.7337694E0,1.0802422E0,1.0989928E2,4.710905E0,1.5636475E2,1.1489266E1,6.956463E0,1.7928773E0,4.6984506E0,1.0353192E0,1.07832535E2,2.0667412E0,3.4675984E0,1.2433064E0,1.457987E2,1.0566037E1,1.0410807E1,1.0784597E0,5.9560795E0,1.0003835E0,3.3901494E0,1.3083012E0],"tree_param":{"num_deleted":"0","num_feature":"4848","num_nodes":"41","size_leaf_vector":"0"}},{"base_weights":[1.959629E-2,-3.6861498E-2,4.693295E-1,-5.5952307E-2,1.9214848E0,8.3349854E-1,6.615358E-2,-1.0813798E-1,4.6451327E-1,1.131038E0,-1.3262741E-1,-3.176853E-1,9.1489464E-1,-1.7268473E-1,5.2063704E-1,7.2420347E-1,-5.031395E-1,1.3650504E0,-3.105613E-1,-7.4665934E-1,6.789535E-1,1.2293839E-1,-7.2085077E-1,1.6534837E0,-3.370474E-1,-2.333733E-1,4.0217075E-1,1.0198183E-2,9.5414686E-1,4.300352E-1,1.657468E0,-7.6574296E-1,5.9709344E-2,1.8012277E0,6.1880267E-1,-1.6623099E-1,8.4682626E-1,-8.421699E-1,-1.9100852E-2,2.0221467E0,4.037966E-1,-2.5576878E-1,9.675535E-1,2.36497E-1,1.8638473E0,-3.802231E-1,6.5353227E-1,1.496573E0,1.3089913E-1,9.161132E-2,9.1327256E-1,2.4468844E0,1.4238022E-1,2.1486251E0,-8.4699266E-2,-3.161519E-1,1.4956315E0,7.8377105E-2,-5.71951E-1],"categories":[],"categories_nodes":[],"categories_segments":[],"categories_sizes":[],"default_left":[1,1,1,1,0,1,1,1,1,1,1,1,1,1,1,1,1,1,0,0,0,1,1,1,0,1,1,1,1,1,1,0,0,1,1,1,0,0,0,0,0,0,0,0,0,0,0,0,0,0,0,0,0,0,0,0,0,0,0],"id":16,"left_children":[1,3,5,7,-1,9,11,13,15,17,19,21,23,25,27,29,31,33,-1,-1,-1,35,37,39,-1,41,43,45,47,49,51,-1,-1,53,55,57,-1,-1,-1,-1,-1,-1,-1,-1,-1,-1,-1,-1,-1,-1,-1,-1,-1,-1,-1,-1,-1,-1,-1],"loss_changes":[7.833439E0,1.0367282E1,4.996598E0,7.458281E0,0E0,5.3218946E0,5.9641213E0,1.0183619E1,6.6577535E0,5.0997467E0,3.0640683E0,2.350756E0,5.8103375E0,7.9888306E0,5.168844E0,4.820569E0,9.1616845E-1,2.8271465E0,0E0,0E0,0E0,1.5932182E0,5.6244326E-1,9.076233E-1,0E0,5.7697124E0,4.881136E0,3.201903E0,5.450389E0,2.6433659E0,5.009927E0,0E0,0E0,4.8464203E0,5.383832E0,6.1983883E-1,0E0,0E0,0E0,0E0,0E0,0E0,0E0,0E0,0E0,0E0,0E0,0E0,0E0,0E0,0E0,0E0,0E0,0E0,0E0,0E0,0E0,0E0,0E0],"parents":[2147483647,0,0,1,1,2,2,3,3,5,5,6,6,7,7,8,8,9,9,10,10,11,11,12,12,13,13,14,14,15,15,16,16,17,17,21,21,22,22,23,23,25,25,26,26,27,27,28,28,29,29,30,30,33,33,34,34,35,35],"right_children":[2,4,6,8,-1,10,12,14,16,18,20,22,24,26,28,30,32,34,-1,-1,-1,36,38,40,-1,42,44,46,48,50,52,-1,-1,54,56,58,-1,-1,-1,-1,-1,-1,-1,-1,-1,-1,-1,-1,-1,-1,-1,-1,-1,-1,-1,-1,-1,-1,-1],"split_conditions":[-9.536743E-7,1.5E-1,-9.536743E-7,-9.536743E-7,1.9214849E-1,-9.536743E-7,-9.536743E-7,-9.536743E-7,-9.536743E-7,-9.536743E-7,-9.536743E-7,-9.536743E-7,-9.536743E-7,-9.536743E-7,-9.536743E-7,-9.536743E-7,-9.536743E-7,-9.536743E-7,-3.105613E-2,-7.4665934E-2,6.789535E-2,-9.536743E-7,-9.536743E-7,-9.536743E-7,-3.370474E-2,-9.536743E-7,-9.536743E-7,-9.536743E-7,-9.536743E-7,-9.536743E-7,-9.536743E-7,-7.6574296E-2,5.9709344E-3,-9.536743E-7,-9.536743E-7,-9.536743E-7,8.468263E-2,-8.421699E-2,-1.9100852E-3,2.0221467E-1,4.0379662E-2,-2.5576878E-2,9.675535E-2,2.36497E-2,1.8638472E-1,-3.802231E-2,6.535323E-2,1.496573E-1,1.3089913E-2,9.161132E-3,9.132726E-2,2.4468844E-1,1.4238022E-2,2.1486251E-1,-8.469927E-3,-3.161519E-2,1.4956315E-1,7.837711E-3,-5.7195097E-2],"split_indices":[4356,1,711,841,0,1727,735,758,4319,1277,1246,2107,1424,2573,997,1231,4343,3372,0,0,0,1115,4,758,0,3028,4820,951,734,20,2107,0,0,3,3982,2869,0,0,0,0,0,0,0,0,0,0,0,0,0,0,0,0,0,0,0,0,0,0,0],"split_type":[0,0,0,0,0,0,0,0,0,0,0,0,0,0,0,0,0,0,0,0,0,0,0,0,0,0,0,0,0,0,0,0,0,0,0,0,0,0,0,0,0,0,0,0,0,0,0,0,0,0,0,0,0,0,0,0,0,0,0],"sum_hessian":[3.068318E2,2.7342508E2,3.34067E1,2.717474E2,1.6776826E0,1.6991648E1,1.6415054E1,2.4770311E2,2.404429E1,1.2860334E1,4.131313E0,1.1734076E1,4.680979E0,2.2530031E2,2.240279E1,1.9155178E1,4.8891125E0,1.1109971E1,1.7503633E0,2.3974364E0,1.7338763E0,5.938689E0,5.795387E0,2.7423697E0,1.938609E0,2.0432353E2,2.0976786E1,1.0758569E1,1.164422E1,1.5675112E1,3.4800653E0,3.0879278E0,1.8011844E0,6.119467E0,4.9905043E0,4.7940054E0,1.1446837E0,4.7705507E0,1.0248362E0,1.6403402E0,1.1020294E0,2.0135558E2,2.9679546E0,1.9884747E1,1.0920386E0,6.9498696E0,3.8086994E0,6.5262675E0,5.117953E0,9.918501E0,5.756611E0,1.8836188E0,1.5964465E0,5.049947E0,1.0695199E0,2.7246604E0,2.2658439E0,3.4941852E0,1.2998203E0],"tree_param":{"num_deleted":"0","num_feature":"4848","num_nodes":"59","size_leaf_vector":"0"}},{"base_weights":[2.0666733E-2,4.714973E-3,1.4230865E0,-1.778536E-2,9.6820563E-1,-4.1490782E-2,8.6342114E-1,-2.9822242E-1,1.4670749E0,-5.402962E-2,1.5363268E0,1.7436506E-1,1.8416433E0,5.657252E-1,2.2637544E0,-6.662272E-2,1.3823402E0,-5.114487E-1,1.138163E0,4.7241434E-1,2.278929E0,-2.3899755E-1,1.2209331E0,-1.1882171E-1,2.8154722E-1,-9.215032E-2,-6.545186E-1],"categories":[],"categories_nodes":[],"categories_segments":[],"categories_sizes":[],"default_left":[1,1,0,1,1,1,1,0,1,1,0,1,1,1,0,1,0,1,0,0,0,0,0,0,0,0,0],"id":17,"left_children":[1,3,-1,5,7,9,11,-1,13,15,-1,17,19,21,-1,23,-1,25,-1,-1,-1,-1,-1,-1,-1,-1,-1],"loss_changes":[6.8595743E0,6.617966E0,0E0,6.271557E0,4.838661E0,5.8529406E0,4.9808187E0,0E0,2.4293566E0,5.3433776E0,0E0,4.362675E0,8.071747E-1,2.272821E0,0E0,5.281121E0,0E0,1.8154144E-1,0E0,0E0,0E0,0E0,0E0,0E0,0E0,0E0,0E0],"parents":[2147483647,0,0,1,1,3,3,4,4,5,5,6,6,8,8,9,9,11,11,12,12,13,13,15,15,17,17],"right_children":[2,4,-1,6,8,10,12,-1,14,16,-1,18,20,22,-1,24,-1,26,-1,-1,-1,-1,-1,-1,-1,-1,-1],"split_conditions":[-9.536743E-7,-9.536743E-7,1.4230865E-1,-9.536743E-7,-9.536743E-7,-9.536743E-7,-9.536743E-7,-2.9822243E-2,-9.536743E-7,-9.536743E-7,1.5363269E-1,-9.536743E-7,-9.536743E-7,-9.536743E-7,2.2637545E-1,-9.536743E-7,1.3823402E-1,-9.536743E-7,1.138163E-1,4.7241434E-2,2.278929E-1,-2.3899755E-2,1.2209331E-1,-1.1882171E-2,2.8154721E-2,-9.215033E-3,-6.545186E-2],"split_indices":[13,1182,0,597,4381,209,951,0,3,609,0,4345,20,4321,0,5,0,4373,0,0,0,0,0,0,0,0,0],"split_type":[0,0,0,0,0,0,0,0,0,0,0,0,0,0,0,0,0,0,0,0,0,0,0,0,0,0,0],"sum_hessian":[3.05927E2,3.034785E2,2.4485402E0,2.9751224E2,5.9662423E0,2.9064642E2,6.8657923E0,1.7997092E0,4.166533E0,2.8931305E2,1.3333998E0,4.7195826E0,2.1462097E0,2.7571943E0,1.4093388E0,2.8774393E2,1.5691222E0,3.031667E0,1.6879156E0,1.0230786E0,1.1231312E0,1.5225009E0,1.2346934E0,2.508015E2,3.694241E1,1.1895419E0,1.842125E0],"tree_param":{"num_deleted":"0","num_feature":"4848","num_nodes":"27","size_leaf_vector":"0"}},{"base_weights":[2.15904E-2,2.8445018E-3,1.1318909E0,-1.2562546E-1,1.6932411E-1,1.496314E0,-1.5672475E-1,-1.688648E-1,1.0234985E0,1.234158E-1,1.2937865E0,3.0658898E-1,1.8010927E0,-1.0315563E-1,-5.941765E-1,1.4401606E0,-2.1045898E-1,-3.6805376E-2,3.7189153E-1,5.598786E-1,1.8669637E0,-1.3007426E-1,9.043724E-1,-7.1214503E-1,6.859845E-1,1.9268278E0,1.9293283E-1,-8.3183475E-2,1.1123954E0,2.2325166E-1,8.804701E-1,-2.0823222E-1,1.1932878E0,-1.8775633E-1,2.8817183E-1,1.8026968E0,-2.963869E-1,-7.465845E-1,-5.9163217E-2,1.00654E0,-1.3223325E-1,5.1188335E-2,9.49542E-1,1.4182903E0,-3.1321627E-1],"categories":[],"categories_nodes":[],"categories_segments":[],"categories_sizes":[],"default_left":[1,1,1,1,1,1,0,1,1,1,1,0,0,1,1,1,0,1,1,1,0,1,1,1,0,0,0,0,0,1,1,0,0,0,0,0,0,0,0,0,0,0,0,0,0],"id":18,"left_children":[1,3,5,7,9,11,-1,13,15,17,19,-1,-1,21,23,25,-1,27,29,31,-1,33,35,37,-1,-1,-1,39,-1,41,43,-1,-1,-1,-1,-1,-1,-1,-1,-1,-1,-1,-1,-1,-1],"loss_changes":[6.372157E0,6.485154E0,2.6215935E0,8.6773405E0,6.6578045E0,9.190283E-1,0E0,4.5726314E0,3.5671377E0,5.1091104E0,1.0895119E0,0E0,0E0,4.0456843E0,3.8077788E0,2.5863743E0,0E0,4.288353E0,3.6032887E0,2.0261319E0,0E0,3.4784055E0,4.7353086E0,4.194317E-1,0E0,0E0,0E0,4.2274623E0,0E0,4.9797564E0,7.524536E0,0E0,0E0,0E0,0E0,0E0,0E0,0E0,0E0,0E0,0E0,0E0,0E0,0E0,0E0],"parents":[2147483647,0,0,1,1,2,2,3,3,4,4,5,5,7,7,8,8,9,9,10,10,13,13,14,14,15,15,17,17,18,18,19,19,21,21,22,22,23,23,27,27,29,29,30,30],"right_children":[2,4,6,8,10,12,-1,14,16,18,20,-1,-1,22,24,26,-1,28,30,32,-1,34,36,38,-1,-1,-1,40,-1,42,44,-1,-1,-1,-1,-1,-1,-1,-1,-1,-1,-1,-1,-1,-1],"split_conditions":[-9.536743E-7,-9.536743E-7,-9.536743E-7,-9.536743E-7,-9.536743E-7,-9.536743E-7,-1.5672475E-2,-9.536743E-7,-9.536743E-7,-9.536743E-7,-9.536743E-7,3.0658899E-2,1.8010928E-1,1.5E-1,-9.536743E-7,-9.536743E-7,-2.1045899E-2,-9.536743E-7,-9.536743E-7,-9.536743E-7,1.8669638E-1,-9.536743E-7,-9.536743E-7,-9.536743E-7,6.859845E-2,1.9268279E-1,1.9293284E-2,2.5E-1,1.11239545E-1,-9.536743E-7,-9.536743E-7,-2.0823224E-2,1.1932879E-1,-1.8775633E-2,2.8817182E-2,1.8026969E-1,-2.963869E-2,-7.4658446E-2,-5.9163217E-3,1.00654E-1,-1.3223325E-2,5.1188334E-3,9.49542E-2,1.4182903E-1,-3.1321626E-2],"split_indices":[3544,20,1292,716,597,4394,0,2,1215,996,951,0,0,1,1931,1236,0,4144,759,4348,0,2688,3188,1064,0,0,0,1,0,2573,901,0,0,0,0,0,0,0,0,0,0,0,0,0,0],"split_type":[0,0,0,0,0,0,0,0,0,0,0,0,0,0,0,0,0,0,0,0,0,0,0,0,0,0,0,0,0,0,0,0,0,0,0,0,0,0,0,0,0,0,0,0,0],"sum_hessian":[3.053085E2,3.0122528E2,4.083213E0,1.7016035E2,1.3106494E2,3.057396E0,1.025817E0,1.6481184E2,5.348507E0,1.2699009E2,4.0748553E0,1.0325814E0,2.0248146E0,1.4383273E2,2.0979116E1,3.8734708E0,1.475036E0,7.772416E1,4.9265923E1,2.6537447E0,1.4211106E0,1.4093811E2,2.8946173E0,1.9615252E1,1.3638648E0,2.3943207E0,1.47915E0,7.560077E1,2.1233912E0,3.9237217E1,1.0028706E1,1.5027136E0,1.151031E0,1.24340836E2,1.6597279E1,1.369074E0,1.5255433E0,1.8496372E1,1.118879E0,2.4155037E0,7.3185265E1,3.258749E1,6.649728E0,6.7839913E0,3.2447145E0],"tree_param":{"num_deleted":"0","num_feature":"4848","num_nodes":"45","size_leaf_vector":"0"}},{"base_weights":[2.2507524E-2,9.513324E-3,1.4070017E0,-4.9307007E-2,3.5886312E-1,-1.0545243E-1,3.3549818E-1,1.9472611E-1,1.0753231E0,-1.4799567E-1,5.3874546E-1,7.512224E-1,-1.8317154E-1,8.668319E-2,1.4980139E0,2.2159579E0,2.1905385E-1,-1.6892703E-1,1.0693243E0,1.85425E-1,1.2136445E0,8.7378013E-1,-5.552854E-1,-4.589385E-1,7.248224E-1,2.967576E-1,-4.3953297E-1,6.849916E-1,2.7671359E0,-5.787439E-1,1.1038883E0,-1.8708543E-1,7.443819E-1,1.4513175E-1,1.5925617E0,-9.925818E-2,1.4278903E0,1.867756E0,-5.326815E-1,4.933771E-1,1.4405243E0,-6.884086E-1,1.3090007E-1,1.3069634E0,-5.097293E-1,6.156522E-2,1.0066558E0,-6.297752E-1,8.641361E-2,-1.3236892E-1,-7.102006E-1],"categories":[],"categories_nodes":[],"categories_segments":[],"categories_sizes":[],"default_left":[1,1,0,1,1,1,1,1,1,1,1,1,1,1,0,1,1,1,1,1,1,1,0,1,1,1,1,0,0,1,0,0,0,0,0,0,0,0,0,0,0,0,0,0,0,0,0,0,0,0,0],"id":19,"left_children":[1,3,-1,5,7,9,11,13,15,17,19,21,23,25,-1,27,29,31,33,35,37,39,-1,41,43,45,47,-1,-1,49,-1,-1,-1,-1,-1,-1,-1,-1,-1,-1,-1,-1,-1,-1,-1,-1,-1,-1,-1,-1,-1],"loss_changes":[5.4814663E0,6.2563186E0,0E0,5.668413E0,4.9498134E0,6.336321E0,7.347432E0,5.068251E0,7.2853756E0,5.657158E0,3.1987E0,3.4885426E0,4.258984E0,4.016171E0,0E0,8.9081764E-1,4.6303573E0,3.6578226E0,1.5917611E0,3.8926628E0,6.4246936E0,3.0699997E0,0E0,1.8009357E0,3.5701215E0,4.232098E0,1.098228E0,0E0,0E0,1.1896372E-1,0E0,0E0,0E0,0E0,0E0,0E0,0E0,0E0,0E0,0E0,0E0,0E0,0E0,0E0,0E0,0E0,0E0,0E0,0E0,0E0,0E0],"parents":[2147483647,0,0,1,1,3,3,4,4,5,5,6,6,7,7,8,8,9,9,10,10,11,11,12,12,13,13,15,15,16,16,17,17,18,18,19,19,20,20,21,21,23,23,24,24,25,25,26,26,29,29],"right_children":[2,4,-1,6,8,10,12,14,16,18,20,22,24,26,-1,28,30,32,34,36,38,40,-1,42,44,46,48,-1,-1,50,-1,-1,-1,-1,-1,-1,-1,-1,-1,-1,-1,-1,-1,-1,-1,-1,-1,-1,-1,-1,-1],"split_conditions":[-9.536743E-7,-9.536743E-7,1.4070018E-1,-9.536743E-7,-9.536743E-7,-9.536743E-7,-9.536743E-7,-9.536743E-7,-9.536743E-7,-9.536743E-7,-9.536743E-7,-9.536743E-7,-9.536743E-7,-9.536743E-7,1.4980139E-1,-9.536743E-7,-9.536743E-7,-9.536743E-7,-9.536743E-7,-9.536743E-7,-9.536743E-7,-9.536743E-7,-5.552854E-2,-9.536743E-7,-9.536743E-7,-9.536743E-7,-9.536743E-7,6.849916E-2,2.7671358E-1,-9.536743E-7,1.1038883E-1,-1.8708544E-2,7.443819E-2,1.4513175E-2,1.5925618E-1,-9.925818E-3,1.4278904E-1,1.8677561E-1,-5.3268153E-2,4.933771E-2,1.4405243E-1,-6.884086E-2,1.3090007E-2,1.3069634E-1,-5.0972935E-2,6.1565223E-3,1.00665584E-1,-6.297752E-2,8.641361E-3,-1.3236892E-2,-7.102006E-2],"split_indices":[1994,4384,0,5,3028,1244,4399,597,4052,10,3539,901,789,1253,0,996,3715,398,4399,384,734,996,0,1238,760,1238,2098,0,0,4554,0,0,0,0,0,0,0,0,0,0,0,0,0,0,0,0,0,0,0,0,0],"split_type":[0,0,0,0,0,0,0,0,0,0,0,0,0,0,0,0,0,0,0,0,0,0,0,0,0,0,0,0,0,0,0,0,0,0,0,0,0,0,0,0,0,0,0,0,0,0,0,0,0,0,0],"sum_hessian":[3.0443253E2,3.0259933E2,1.8331811E0,2.5972763E2,4.2871708E1,2.2729053E2,3.2437115E1,3.5915462E1,6.956245E0,2.1393256E2,1.3357976E1,1.7756533E1,1.4680582E1,3.415086E1,1.7646048E0,2.3019283E0,4.6543164E0,2.111629E2,2.7696393E0,9.604573E0,3.7534032E0,1.6536524E1,1.2200092E0,1.1639964E1,3.0406175E0,2.4718763E1,9.4320965E0,1.2030587E0,1.0988694E0,2.6294458E0,2.0248709E0,2.0782607E2,3.3368404E0,1.4629711E0,1.3066682E0,8.562727E0,1.0418458E0,2.680026E0,1.073377E0,1.1014234E1,5.5222907E0,8.259562E0,3.380403E0,2.026423E0,1.0141946E0,1.9383612E1,5.3351517E0,6.7816615E0,2.650435E0,1.0547776E0,1.574668E0],"tree_param":{"num_deleted":"0","num_feature":"4848","num_nodes":"51","size_leaf_vector":"0"}},{"base_weights":[2.3674814E-2,5.776891E-3,9.583285E-1,-1.4515168E-2,7.899547E-1,1.4472796E0,-6.3055605E-1,6.759425E-3,-8.670144E-1,-3.293084E-1,1.2254989E0,1.726203E0,2.3627791E-1,-1.39531875E-2,7.89109E-1,5.449295E-1,2.0244522E0,-2.4598045E-2,1.4651607E0,-3.484596E-1,1.2637881E0,-4.2748728E-1,1.7575301E0,-4.57259E-2,6.877265E-1,1.5994611E0,3.4330204E-1,-5.4339683E-1,-1.06475346E-1],"categories":[],"categories_nodes":[],"categories_segments":[],"categories_sizes":[],"default_left":[1,1,1,1,1,1,0,1,0,0,1,0,0,1,1,1,0,1,0,0,1,1,0,0,0,0,0,0,0],"id":20,"left_children":[1,3,5,7,9,11,-1,13,-1,-1,15,-1,-1,17,19,21,-1,23,-1,-1,25,27,-1,-1,-1,-1,-1,-1,-1],"loss_changes":[5.091747E0,4.78508E0,5.355802E0,5.3272185E0,4.101182E0,1.1718779E0,0E0,4.6658072E0,0E0,0E0,1.9809551E0,0E0,0E0,4.45765E0,4.450391E0,5.9764624E0,0E0,4.2424655E0,0E0,0E0,1.1366863E0,6.3572526E-2,0E0,0E0,0E0,0E0,0E0,0E0,0E0],"parents":[2147483647,0,0,1,1,2,2,3,3,4,4,5,5,7,7,10,10,13,13,14,14,15,15,17,17,20,20,21,21],"right_children":[2,4,6,8,10,12,-1,14,-1,-1,16,-1,-1,18,20,22,-1,24,-1,-1,26,28,-1,-1,-1,-1,-1,-1,-1],"split_conditions":[-9.536743E-7,-9.536743E-7,-9.536743E-7,-9.536743E-7,-9.536743E-7,-9.536743E-7,-6.3055605E-2,-9.536743E-7,-8.6701445E-2,-3.293084E-2,-9.536743E-7,1.726203E-1,2.3627792E-2,-9.536743E-7,-9.536743E-7,-9.536743E-7,2.0244522E-1,-9.536743E-7,1.4651607E-1,-3.484596E-2,-9.536743E-7,-9.536743E-7,1.7575301E-1,-4.5725903E-3,6.877265E-2,1.5994611E-1,3.4330204E-2,-5.4339685E-2,-1.0647534E-2],"split_indices":[3554,1182,4809,566,4381,3062,0,521,0,0,1266,0,0,1181,4320,3,0,597,0,0,4379,1150,0,0,0,0,0,0,0],"split_type":[0,0,0,0,0,0,0,0,0,0,0,0,0,0,0,0,0,0,0,0,0,0,0,0,0,0,0,0,0],"sum_hessian":[3.0370908E2,2.9898984E2,4.7192526E0,2.9240482E2,6.5850277E0,3.6768801E0,1.0423725E0,2.8625327E2,6.1515384E0,1.9129741E0,4.672054E0,2.6427548E0,1.0341254E0,2.7982706E2,6.426223E0,3.4312656E0,1.2407881E0,2.7880392E2,1.023121E0,1.9703009E0,4.455922E0,2.2635372E0,1.1677285E0,2.7168155E2,7.1223855E0,2.7246857E0,1.7312362E0,1.1540688E0,1.1094682E0],"tree_param":{"num_deleted":"0","num_feature":"4848","num_nodes":"29","size_leaf_vector":"0"}},{"base_weights":[2.3184374E-2,-8.653259E-2,1.6101523E-1,-1.24920644E-1,8.243341E-1,2.4139678E-1,-2.9535878E-1,-1.6282745E-1,8.901096E-1,1.1481105E0,-2.1920839E-1,1.687131E-1,8.3439916E-1,-4.4640973E-1,9.7458345E-1,-2.2120973E-1,2.6312426E-1,1.3484191E0,-5.8725715E-1,-3.394336E-2,1.4330722E0,1.3225451E-2,5.72698E-1,1.3086767E0,-1.8392606E-1,-5.619335E-1,5.713177E-1,-2.9010794E-1,2.209154E-1,4.1335303E-1,-6.804593E-1,2.314313E0,4.5945165E-1,4.9968973E-1,2.1727803E0,-6.762617E-2,9.5007867E-1,3.9596826E-1,1.4589201E0,1.6305764E0,-5.2841604E-1,2.9837593E-1,-6.51236E-1,-3.367085E-1,-8.644451E-1,-3.4400502E-1,3.0336288E-1,4.3615678E-1,-7.510931E-1,1.455611E-1,1.1107752E0,-5.693277E-1,1.0285969E0,-5.211889E-2,7.957186E-1,-1.1538724E-1,1.1152653E0,-1.3671552E-1,2.5412683E0,1.9595572E-1,1.1822559E0,2.3308098E-1,1.9458151E0,4.6964976E-1,2.648328E0,4.5217666E-1,-8.441743E-3,-4.4874588E-1,3.9399132E-1],"categories":[],"categories_nodes":[],"categories_segments":[],"categories_sizes":[],"default_left":[1,1,1,1,1,1,1,1,1,1,0,1,1,1,0,1,1,1,0,0,1,1,1,1,1,1,0,1,1,1,0,0,1,1,0,1,1,1,1,1,0,1,0,1,0,0,0,0,0,0,0,0,0,0,0,0,0,0,0,0,0,0,0,0,0,0,0,0,0],"id":21,"left_children":[1,3,5,7,9,11,13,15,17,19,-1,21,23,25,-1,27,29,31,-1,-1,33,35,37,39,41,43,-1,45,47,49,-1,-1,51,53,-1,55,57,59,61,63,-1,65,-1,67,-1,-1,-1,-1,-1,-1,-1,-1,-1,-1,-1,-1,-1,-1,-1,-1,-1,-1,-1,-1,-1,-1,-1,-1,-1],"loss_changes":[4.6160555E0,6.050552E0,5.0321255E0,6.458314E0,2.6202555E0,4.838751E0,4.4060917E0,4.0127707E0,4.896277E0,1.9048185E0,0E0,6.5357733E0,6.210593E0,2.5768352E0,0E0,4.340796E0,3.0632463E0,3.1697817E0,0E0,0E0,1.9958763E0,5.839303E0,3.9528904E0,5.9215145E0,1.2771622E0,9.172611E-1,0E0,4.003495E0,4.4065866E0,3.1164188E0,0E0,0E0,2.8193326E0,5.7595354E-1,0E0,4.1466217E0,1.0936806E1,3.7770598E0,2.194685E0,7.64773E0,0E0,1.4774734E-1,0E0,1.143148E0,0E0,0E0,0E0,0E0,0E0,0E0,0E0,0E0,0E0,0E0,0E0,0E0,0E0,0E0,0E0,0E0,0E0,0E0,0E0,0E0,0E0,0E0,0E0,0E0,0E0],"parents":[2147483647,0,0,1,1,2,2,3,3,4,4,5,5,6,6,7,7,8,8,9,9,11,11,12,12,13,13,15,15,16,16,17,17,20,20,21,21,22,22,23,23,24,24,25,25,27,27,28,28,29,29,32,32,33,33,35,35,36,36,37,37,38,38,39,39,41,41,43,43],"right_children":[2,4,6,8,10,12,14,16,18,20,-1,22,24,26,-1,28,30,32,-1,-1,34,36,38,40,42,44,-1,46,48,50,-1,-1,52,54,-1,56,58,60,62,64,-1,66,-1,68,-1,-1,-1,-1,-1,-1,-1,-1,-1,-1,-1,-1,-1,-1,-1,-1,-1,-1,-1,-1,-1,-1,-1,-1,-1],"split_conditions":[-9.536743E-7,-9.536743E-7,-9.536743E-7,1.5E-1,-9.536743E-7,-9.536743E-7,-9.536743E-7,-9.536743E-7,-9.536743E-7,-9.536743E-7,-2.192084E-2,-9.536743E-7,-9.536743E-7,-9.536743E-7,9.745835E-2,-9.536743E-7,-9.536743E-7,-9.536743E-7,-5.8725715E-2,-3.394336E-3,-9.536743E-7,-9.536743E-7,-9.536743E-7,-9.536743E-7,-9.536743E-7,-9.536743E-7,5.7131767E-2,-9.536743E-7,-9.536743E-7,-9.536743E-7,-6.804594E-2,2.3143129E-1,-9.536743E-7,-9.536743E-7,2.1727803E-1,-9.536743E-7,-9.536743E-7,-9.536743E-7,-9.536743E-7,-9.536743E-7,-5.2841604E-2,-9.536743E-7,-6.51236E-2,-9.536743E-7,-8.644451E-2,-3.4400504E-2,3.0336289E-2,4.361568E-2,-7.510931E-2,1.455611E-2,1.11077525E-1,-5.6932773E-2,1.0285969E-1,-5.2118893E-3,7.9571865E-2,-1.1538724E-2,1.1152653E-1,-1.3671552E-2,2.5412685E-1,1.9595573E-2,1.1822559E-1,2.3308098E-2,1.9458151E-1,4.6964977E-2,2.6483282E-1,4.5217667E-2,-8.4417436E-4,-4.487459E-2,3.9399132E-2],"split_indices":[20,716,1254,1,1215,841,1172,4,1898,954,0,4321,2107,3610,0,5,2572,3086,0,0,1085,735,1019,3462,1230,3432,0,6,4382,2108,0,0,4199,996,0,4033,1151,2573,4381,4374,0,4379,0,4363,0,0,0,0,0,0,0,0,0,0,0,0,0,0,0,0,0,0,0,0,0,0,0,0,0],"split_type":[0,0,0,0,0,0,0,0,0,0,0,0,0,0,0,0,0,0,0,0,0,0,0,0,0,0,0,0,0,0,0,0,0,0,0,0,0,0,0,0,0,0,0,0,0,0,0,0,0,0,0,0,0,0,0,0,0,0,0,0,0,0,0,0,0,0,0,0,0],"sum_hessian":[3.033252E2,1.6909407E2,1.3423112E2,1.6308383E2,6.0102363E0,1.1452992E2,1.9701202E1,1.58022E2,5.0618258E0,4.5105557E0,1.4996803E0,1.031691E2,1.1360826E1,1.818652E1,1.514682E0,1.3939655E2,1.8625462E1,3.9299552E0,1.1318705E0,1.0472647E0,3.4632912E0,7.524225E1,2.7926855E1,7.556373E0,3.8044522E0,1.6734783E1,1.4517365E0,1.2090003E2,1.849652E1,1.6552118E1,2.0733445E0,1.1150465E0,2.8149087E0,2.2719765E0,1.1913149E0,7.011873E1,5.1235194E0,2.44899E1,3.4369538E0,6.525393E0,1.0309798E0,2.0500925E0,1.7543597E0,1.0804036E1,5.9307475E0,1.11219765E2,9.680265E0,1.5594548E1,2.9019709E0,1.2833212E1,3.7189057E0,1.0024937E0,1.812415E0,1.0809625E0,1.1910138E0,6.826488E1,1.8538468E0,3.5873873E0,1.536132E0,2.0519463E1,3.970438E0,1.3974215E0,2.0395324E0,3.7309918E0,2.7944014E0,1.049992E0,1.0001006E0,9.702267E0,1.1017696E0],"tree_param":{"num_deleted":"0","num_feature":"4848","num_nodes":"69","size_leaf_vector":"0"}},{"base_weights":[2.4428725E-2,1.4007566E-2,1.3587532E0,1.5798844E-3,1.253065E0,-1.4831788E-2,9.1702104E-1,-1.7559822E-1,7.728019E-2,1.4992445E0,3.081959E-2,-1.1245094E-1,-8.936893E-1,1.1333848E-1,-6.0007346E-1,-4.2636928E-1,4.4752222E-1,-1.485789E-1,8.597409E-1,-3.9916743E-2,2.4415672E-1,-7.4971473E-1,-2.10205E-2],"categories":[],"categories_nodes":[],"categories_segments":[],"categories_sizes":[],"default_left":[1,1,0,1,0,1,1,1,1,0,1,1,0,1,1,0,0,0,0,0,0,0,0],"id":22,"left_children":[1,3,-1,5,-1,7,9,11,13,-1,15,17,-1,19,21,-1,-1,-1,-1,-1,-1,-1,-1],"loss_changes":[4.199433E0,4.6489015E0,0E0,4.521295E0,0E0,4.392957E0,2.6884642E0,4.798089E0,4.677016E0,0E0,7.8567266E-1,3.6555278E0,0E0,3.6186829E0,8.244648E-1,0E0,0E0,0E0,0E0,0E0,0E0,0E0,0E0],"parents":[2147483647,0,0,1,1,3,3,5,5,6,6,7,7,8,8,10,10,11,11,13,13,14,14],"right_children":[2,4,-1,6,-1,8,10,12,14,-1,16,18,-1,20,22,-1,-1,-1,-1,-1,-1,-1,-1],"split_conditions":[-9.536743E-7,-9.536743E-7,1.3587533E-1,-9.536743E-7,1.253065E-1,-9.536743E-7,-9.536743E-7,-9.536743E-7,-9.536743E-7,1.4992444E-1,-9.536743E-7,-9.536743E-7,-8.936893E-2,-9.536743E-7,-9.536743E-7,-4.2636927E-2,4.475222E-2,-1.485789E-2,8.597409E-2,-3.991674E-3,2.4415672E-2,-7.4971475E-2,-2.10205E-3],"split_indices":[858,1994,0,2035,0,953,401,1236,921,0,3817,9,0,20,1525,0,0,0,0,0,0,0,0],"split_type":[0,0,0,0,0,0,0,0,0,0,0,0,0,0,0,0,0,0,0,0,0,0,0],"sum_hessian":[3.0237308E2,3.010325E2,1.3405852E0,2.990345E2,1.9980253E0,2.947344E2,4.3000855E0,1.07028046E2,1.8770634E2,2.1776388E0,2.1224468E0,9.94401E1,7.5879383E0,1.7900961E2,8.696735E0,1.0009967E0,1.12145E0,9.6694E1,2.7461076E0,8.275544E1,9.625417E1,6.676612E0,2.0201235E0],"tree_param":{"num_deleted":"0","num_feature":"4848","num_nodes":"23","size_leaf_vector":"0"}},{"base_weights":[2.2672432E-2,-1.4540387E-2,3.634293E-1,-3.8048115E-2,7.328358E-1,5.055494E-1,-7.5815606E-1,-5.4747865E-2,8.427487E-1,2.224437E-1,1.4532028E0,6.403356E-1,-7.000184E-1,-6.5636516E-2,1.3050357E0,1.2281141E0,-2.1940342E-1,7.986514E-1,-4.9830645E-1,2.0993407E-1,1.9266691E0,3.4990367E-1,1.4404012E0,-7.659855E-2,1.2628102E0,1.3032429E-1,1.709766E0,1.1989558E0,-1.0025392E-1,-5.9689873E-1,-1.438658E-1,4.6190825E-1,-6.0737014E-1,1.9611346E0,2.690179E-1,-8.7053135E-2,1.2580794E0,5.581699E-1,-5.521144E-1,5.941251E-1,2.3697622E0,-5.4062564E-2,4.7228685E-1],"categories":[],"categories_nodes":[],"categories_segments":[],"categories_sizes":[],"default_left":[1,1,1,1,1,1,0,1,1,1,1,1,0,1,0,1,0,1,1,0,0,1,1,1,0,0,0,0,0,0,0,1,0,1,1,0,0,0,0,0,0,0,0],"id":23,"left_children":[1,3,5,7,9,11,-1,13,15,17,19,21,-1,23,-1,25,-1,27,29,-1,-1,31,33,35,-1,-1,-1,-1,-1,-1,-1,37,-1,39,41,-1,-1,-1,-1,-1,-1,-1,-1],"loss_changes":[3.85379E0,4.851979E0,5.1523914E0,3.9757552E0,2.7734356E0,4.860656E0,0E0,3.981522E0,2.3291252E0,2.9356503E0,1.5451465E0,5.292547E0,0E0,3.9118876E0,0E0,1.8096528E0,0E0,1.4803534E0,3.0511916E-2,0E0,0E0,2.384503E0,3.329297E0,3.7483764E0,0E0,0E0,0E0,0E0,0E0,0E0,0E0,2.0784075E0,0E0,9.483185E-1,2.2943354E-1,0E0,0E0,0E0,0E0,0E0,0E0,0E0,0E0],"parents":[2147483647,0,0,1,1,2,2,3,3,4,4,5,5,7,7,8,8,9,9,10,10,11,11,13,13,15,15,17,17,18,18,21,21,22,22,23,23,31,31,33,33,34,34],"right_children":[2,4,6,8,10,12,-1,14,16,18,20,22,-1,24,-1,26,-1,28,30,-1,-1,32,34,36,-1,-1,-1,-1,-1,-1,-1,38,-1,40,42,-1,-1,-1,-1,-1,-1,-1,-1],"split_conditions":[-9.536743E-7,-9.536743E-7,-9.536743E-7,-9.536743E-7,-9.536743E-7,-9.536743E-7,-7.581561E-2,-9.536743E-7,-9.536743E-7,-9.536743E-7,-9.536743E-7,-9.536743E-7,-7.000184E-2,-9.536743E-7,1.3050358E-1,-9.536743E-7,-2.1940341E-2,-9.536743E-7,-9.536743E-7,2.0993408E-2,1.9266692E-1,-9.536743E-7,-9.536743E-7,-9.536743E-7,1.2628102E-1,1.3032429E-2,1.7097661E-1,1.1989558E-1,-1.0025392E-2,-5.9689876E-2,-1.4386579E-2,-9.536743E-7,-6.0737014E-2,-9.536743E-7,-9.536743E-7,-8.705313E-3,1.2580794E-1,5.581699E-2,-5.5211443E-2,5.941251E-2,2.3697622E-1,-5.4062563E-3,4.7228687E-2],"split_indices":[841,521,734,2034,2245,1237,0,209,15,20,760,1231,0,1181,0,4382,0,4379,1215,0,0,417,2107,858,0,0,0,0,0,0,0,1188,0,20,996,0,0,0,0,0,0,0,0],"split_type":[0,0,0,0,0,0,0,0,0,0,0,0,0,0,0,0,0,0,0,0,0,0,0,0,0,0,0,0,0,0,0,0,0,0,0,0,0,0,0,0,0,0,0],"sum_hessian":[3.0249734E2,2.735782E2,2.8919147E1,2.661557E2,7.4224825E0,2.6154299E1,2.7648494E0,2.6212372E2,4.031976E0,5.110441E0,2.3120415E0,2.394592E1,2.2083776E0,2.6098557E2,1.1381466E0,2.8439102E0,1.1880661E0,2.7799284E0,2.3305128E0,1.03573E0,1.2763115E0,1.8622946E1,5.322976E0,2.5978424E2,1.201339E0,1.2547158E0,1.5891943E0,1.6924459E0,1.0874827E0,1.2881411E0,1.0423716E0,1.7135504E1,1.487442E0,3.218155E0,2.104821E0,2.5869266E2,1.0915751E0,1.6060429E1,1.0750754E0,1.305323E0,1.912832E0,1.096327E0,1.008494E0],"tree_param":{"num_deleted":"0","num_feature":"4848","num_nodes":"43","size_leaf_vector":"0"}},{"base_weights":[2.2942744E-2,3.938001E-2,-7.0900935E-1,2.8167257E-2,1.1605213E0,-8.280936E-1,-5.3784687E-2,1.8788725E-2,1.2980641E0,-2.7130027E-3,5.5822575E-1,-1.692102E-2,8.664848E-1,2.094002E-1,1.6510291E0,-1.2141388E-1,1.0641203E-1,1.2282528E0,-1.859183E-1,-8.45308E-2,1.248322E0],"categories":[],"categories_nodes":[],"categories_segments":[],"categories_sizes":[],"default_left":[1,1,1,1,0,0,0,1,0,1,1,1,1,1,0,0,0,0,0,0,0],"id":24,"left_children":[1,3,5,7,-1,-1,-1,9,-1,11,13,15,17,19,-1,-1,-1,-1,-1,-1,-1],"loss_changes":[3.672811E0,3.7039943E0,4.7874832E-1,3.4928737E0,0E0,0E0,0E0,3.4136062E0,0E0,3.5206385E0,3.9545963E0,3.6253853E0,1.9740176E0,3.0666134E0,0E0,0E0,0E0,0E0,0E0,0E0,0E0],"parents":[2147483647,0,0,1,1,2,2,3,3,7,7,9,9,10,10,11,11,12,12,13,13],"right_children":[2,4,6,8,-1,-1,-1,10,-1,12,14,16,18,20,-1,-1,-1,-1,-1,-1,-1],"split_conditions":[-9.536743E-7,-9.536743E-7,-9.536743E-7,-9.536743E-7,1.1605213E-1,-8.280936E-2,-5.378469E-3,-9.536743E-7,1.2980641E-1,-9.536743E-7,-9.536743E-7,-9.536743E-7,-9.536743E-7,-9.536743E-7,1.6510291E-1,-1.2141388E-2,1.0641203E-2,1.2282528E-1,-1.859183E-2,-8.45308E-3,1.24832205E-1],"split_indices":[566,609,843,189,0,0,0,716,0,3544,2245,20,1292,1115,0,0,0,0,0,0,0],"split_type":[0,0,0,0,0,0,0,0,0,0,0,0,0,0,0,0,0,0,0,0,0],"sum_hessian":[3.019509E2,2.9624442E2,5.706488E0,2.9432593E2,1.9184872E0,4.605607E0,1.100881E0,2.9317554E2,1.1503848E0,2.8289444E2,1.028108E1,2.7930936E2,3.5850933E0,8.696692E0,1.5843885E0,1.5121193E2,1.2809743E2,2.5436199E0,1.0414734E0,7.4948816E0,1.2018104E0],"tree_param":{"num_deleted":"0","num_feature":"4848","num_nodes":"21","size_leaf_vector":"0"}},{"base_weights":[2.220238E-2,4.6498487E-3,6.626852E-1,2.2627518E-2,-8.438164E-1,2.0816822E-1,1.8865724E0,9.904734E-3,9.8993695E-1,-5.099473E-1,7.772356E-1,-3.219194E-4,1.026536E0,-6.3611495E-1,-8.686999E-2,1.1822921E0,-1.8757147E-1,-3.73453E-2,2.7110422E-1,3.6102057E-1,1.4808729E0,-9.047652E-2,3.811513E-1,4.1966277E-1,-7.946084E-1],"categories":[],"categories_nodes":[],"categories_segments":[],"categories_sizes":[],"default_left":[1,1,1,1,0,1,0,1,0,1,1,1,0,0,0,1,0,1,1,0,0,0,0,0,0],"id":25,"left_children":[1,3,5,7,-1,9,-1,11,-1,13,15,17,-1,-1,-1,19,-1,21,23,-1,-1,-1,-1,-1,-1],"loss_changes":[3.3996947E0,4.5282407E0,4.0946054E0,3.5647893E0,0E0,3.2594953E0,0E0,2.9914153E0,0E0,1.4231169E-1,1.9041398E0,2.8824537E0,0E0,0E0,0E0,2.4244738E-1,0E0,5.646654E0,5.7843423E0,0E0,0E0,0E0,0E0,0E0,0E0],"parents":[2147483647,0,0,1,1,2,2,3,3,5,5,7,7,9,9,10,10,11,11,15,15,17,17,18,18],"right_children":[2,4,6,8,-1,10,-1,12,-1,14,16,18,-1,-1,-1,20,-1,22,24,-1,-1,-1,-1,-1,-1],"split_conditions":[-9.536743E-7,-9.536743E-7,-9.536743E-7,-9.536743E-7,-8.438164E-2,-9.536743E-7,1.8865724E-1,-9.536743E-7,9.8993696E-2,-9.536743E-7,-9.536743E-7,-9.536743E-7,1.026536E-1,-6.36115E-2,-8.687E-3,-9.536743E-7,-1.8757148E-2,-9.536743E-7,-9.536743E-7,3.6102057E-2,1.480873E-1,-9.047653E-3,3.811513E-2,4.1966278E-2,-7.9460844E-2],"split_indices":[1182,566,843,13,0,4321,0,209,0,1149,3008,2688,0,0,0,758,0,2573,2097,0,0,0,0,0,0],"split_type":[0,0,0,0,0,0,0,0,0,0,0,0,0,0,0,0,0,0,0,0,0,0,0,0,0],"sum_hessian":[3.016817E2,2.94615E2,7.0667095E0,2.8945523E2,5.159771E0,6.0062475E0,1.0604621E0,2.8669464E2,2.7605848E0,2.70131E0,3.3049376E0,2.8482913E2,1.8655134E0,1.6929153E0,1.0083946E0,2.168933E0,1.1360047E0,2.513998E2,3.3429317E1,1.1672994E0,1.0016335E0,2.2377386E2,2.7625935E1,2.9871494E1,3.5578222E0],"tree_param":{"num_deleted":"0","num_feature":"4848","num_nodes":"25","size_leaf_vector":"0"}},{"base_weights":[2.083339E-2,1.0722665E-2,1.0182053E0,-2.0229831E-4,9.7537744E-1,1.8941844E-2,-5.8934885E-1,1.2568852E0,2.4884944E-1,-2.9387517E-2,2.9732546E-1,-7.381341E-1,-4.2887554E-2,-7.730958E-2,2.7162522E-1,1.5775405E-1,9.335053E-1,-1.1284705E-2,-8.5227686E-1,-5.270024E-1,4.8052382E-1,-9.858654E-2,8.9830285E-1,4.2741388E-1,-6.4144963E-1,3.9297905E-2,1.2820288E0,1.5193293E0,-3.900733E-1],"categories":[],"categories_nodes":[],"categories_segments":[],"categories_sizes":[],"default_left":[1,1,0,1,1,1,1,0,0,1,1,1,1,1,1,1,1,0,0,0,0,0,0,0,0,0,0,0,0],"id":26,"left_children":[1,3,-1,5,7,9,11,-1,-1,13,15,17,19,21,23,25,27,-1,-1,-1,-1,-1,-1,-1,-1,-1,-1,-1,-1],"loss_changes":[3.043137E0,3.1705709E0,0E0,3.377396E0,3.7626576E-1,3.9108973E0,7.34586E-1,0E0,0E0,3.5990317E0,3.670252E0,5.998187E-1,1.0333048E0,4.5464406E0,5.15139E0,4.805487E0,6.4328184E0,0E0,0E0,0E0,0E0,0E0,0E0,0E0,0E0,0E0,0E0,0E0,0E0],"parents":[2147483647,0,0,1,1,3,3,4,4,5,5,6,6,9,9,10,10,11,11,12,12,13,13,14,14,15,15,16,16],"right_children":[2,4,-1,6,8,10,12,-1,-1,14,16,18,20,22,24,26,28,-1,-1,-1,-1,-1,-1,-1,-1,-1,-1,-1,-1],"split_conditions":[-9.536743E-7,-9.536743E-7,1.0182053E-1,-9.536743E-7,-9.536743E-7,-9.536743E-7,-9.536743E-7,1.2568852E-1,2.4884945E-2,-9.536743E-7,-9.536743E-7,-9.536743E-7,-9.536743E-7,-9.536743E-7,-9.536743E-7,-9.536743E-7,-9.536743E-7,-1.1284705E-3,-8.522769E-2,-5.270024E-2,4.805238E-2,-9.858654E-3,8.983029E-2,4.2741388E-2,-6.414496E-2,3.9297906E-3,1.2820289E-1,1.5193294E-1,-3.9007332E-2],"split_indices":[609,1994,0,921,3326,4384,759,0,0,5,1232,4373,1237,1182,1232,715,3432,0,0,0,0,0,0,0,0,0,0,0,0],"split_type":[0,0,0,0,0,0,0,0,0,0,0,0,0,0,0,0,0,0,0,0,0,0,0,0,0,0,0,0,0],"sum_hessian":[3.0185687E2,2.9982816E2,2.0287173E0,2.9745917E2,2.3690112E0,2.890349E2,8.424254E0,1.1813033E0,1.1877079E0,2.4704124E2,4.1993664E1,6.3457437E0,2.0785112E0,2.1375415E2,3.3287086E1,3.5461697E1,6.5319676E0,1.0104117E0,5.335332E0,1.0762255E0,1.0022857E0,2.1007169E2,3.6824663E0,2.8889809E1,4.397278E0,3.301782E1,2.4438782E0,4.4253745E0,2.1065931E0],"tree_param":{"num_deleted":"0","num_feature":"4848","num_nodes":"29","size_leaf_vector":"0"}},{"base_weights":[1.9759087E-2,3.3405527E-2,-6.694822E-1,2.428092E-2,1.0846114E0,-8.014875E-1,-1.464217E-2,1.3451267E-2,9.562109E-1,3.1159924E-2,-5.608924E-1,1.8560928E-1,1.3552516E0,1.681275E-2,7.6887244E-1,-7.1889085E-1,-5.6743314E-3,-2.7183482E-2,2.6168126E-1,1.0237103E0,-1.678022E-1,-8.388008E-1,-1.0230613E-2],"categories":[],"categories_nodes":[],"categories_segments":[],"categories_sizes":[],"default_left":[1,1,1,1,0,0,0,1,1,1,1,0,0,1,1,1,0,0,0,0,0,0,0],"id":27,"left_children":[1,3,5,7,-1,-1,-1,9,11,13,15,-1,-1,17,19,21,-1,-1,-1,-1,-1,-1,-1],"loss_changes":[2.8713E0,2.831714E0,5.0071025E-1,2.978806E0,0E0,0E0,0E0,3.0080616E0,7.911365E-1,3.0161057E0,7.7204585E-1,0E0,0E0,3.0424883E0,1.4696624E0,5.7600546E-1,0E0,0E0,0E0,0E0,0E0,0E0,0E0],"parents":[2147483647,0,0,1,1,2,2,3,3,7,7,8,8,9,9,10,10,13,13,14,14,15,15],"right_children":[2,4,6,8,-1,-1,-1,10,12,14,16,-1,-1,18,20,22,-1,-1,-1,-1,-1,-1,-1],"split_conditions":[-9.536743E-7,-9.536743E-7,-9.536743E-7,-9.536743E-7,1.0846114E-1,-8.014875E-2,-1.464217E-3,-9.536743E-7,-9.536743E-7,-9.536743E-7,-9.536743E-7,1.856093E-2,1.3552515E-1,-9.536743E-7,-9.536743E-7,-9.536743E-7,-5.6743313E-4,-2.7183483E-3,2.6168127E-2,1.0237103E-1,-1.678022E-2,-8.388008E-2,-1.0230613E-3],"split_indices":[566,858,3,1994,0,0,0,921,20,10,1525,0,0,4384,1427,4738,0,0,0,0,0,0,0],"split_type":[0,0,0,0,0,0,0,0,0,0,0,0,0,0,0,0,0,0,0,0,0,0,0],"sum_hessian":[3.0189493E2,2.9696677E2,4.9281774E0,2.9542554E2,1.5412346E0,3.9150264E0,1.0131509E0,2.930347E2,2.3908262E0,2.8518732E2,7.847393E0,1.3155191E0,1.0753071E0,2.8075E2,4.43729E0,5.8794794E0,1.9679134E0,2.387433E2,4.200671E1,3.415207E0,1.0220834E0,4.8715396E0,1.0079397E0],"tree_param":{"num_deleted":"0","num_feature":"4848","num_nodes":"23","size_leaf_vector":"0"}},{"base_weights":[1.8202856E-2,-1.4642323E-2,3.0730698E-1,-6.3967876E-2,2.5460404E-1,1.8886434E-1,1.8892468E0,-9.369949E-2,5.027839E-1,1.0024326E0,1.2897669E-1,4.2062697E-1,-5.64838E-1,-6.1485685E-2,-7.2449446E-1,1.4133391E0,1.1811788E-1,4.435118E-1,1.7920064E0,3.3148546E-3,9.8723644E-1,5.0627935E-1,-5.8340603E-1,-8.1487894E-1,-2.2778796E-2,-1.1988912E-1,4.2074683E-1,-7.93249E-1,-1.137904E-1,1.8085387E0,2.3727894E-1,-1.8622479E-1,7.0017254E-1,9.499617E-1,-5.601867E-1,1.873063E-1,-6.337837E-1,1.4433153E0,4.0638234E-2,2.857088E-1,1.128187E0,5.590833E-1,-6.0757667E-1,-1.347083E-1,1.1770042E0,-2.3010692E-1,7.811799E-1,-8.776266E-1,-2.3900758E-1,-6.4226574E-1,4.2522508E-1,-2.215504E-1,1.2382494E0,1.5561646E0,-1.1092932E-1,-2.6722002E-1,5.791868E-1,-8.4889156E-1,3.0000402E-2,1.882509E0,3.4488234E-1,4.673763E-1,-4.977189E-1,2.8555018E-1,1.8767927E0],"categories":[],"categories_nodes":[],"categories_segments":[],"categories_sizes":[],"default_left":[1,1,1,1,1,1,0,1,1,1,1,1,1,1,1,1,1,1,0,1,1,1,0,0,1,1,1,1,0,0,0,1,1,1,0,1,1,1,0,1,1,0,0,0,0,0,0,0,0,0,0,0,0,0,0,0,0,0,0,0,0,0,0,0,0],"id":28,"left_children":[1,3,5,7,9,11,-1,13,15,17,19,21,23,25,27,29,31,33,-1,35,37,39,-1,-1,41,43,45,47,-1,-1,-1,49,51,53,-1,55,57,59,-1,61,63,-1,-1,-1,-1,-1,-1,-1,-1,-1,-1,-1,-1,-1,-1,-1,-1,-1,-1,-1,-1,-1,-1,-1,-1],"loss_changes":[2.8829362E0,3.6440554E0,5.44617E0,3.950774E0,3.8630314E0,5.464816E0,0E0,4.445447E0,3.93264E0,1.8373351E0,4.0444446E0,2.312881E0,9.9315786E-1,6.0020027E0,3.5662842E-1,1.1440911E0,1.781288E0,2.982852E0,0E0,4.073846E0,2.0092535E0,2.716279E0,0E0,0E0,1.4915305E0,3.7960746E0,5.5869966E0,2.297759E-1,0E0,0E0,0E0,2.1998212E0,1.9655166E0,2.4719217E0,0E0,4.9554734E0,1.1375992E0,8.961997E-1,0E0,2.750473E0,2.9084992E0,0E0,0E0,0E0,0E0,0E0,0E0,0E0,0E0,0E0,0E0,0E0,0E0,0E0,0E0,0E0,0E0,0E0,0E0,0E0,0E0,0E0,0E0,0E0,0E0],"parents":[2147483647,0,0,1,1,2,2,3,3,4,4,5,5,7,7,8,8,9,9,10,10,11,11,12,12,13,13,14,14,15,15,16,16,17,17,19,19,20,20,21,21,24,24,25,25,26,26,27,27,31,31,32,32,33,33,35,35,36,36,37,37,39,39,40,40],"right_children":[2,4,6,8,10,12,-1,14,16,18,20,22,24,26,28,30,32,34,-1,36,38,40,-1,-1,42,44,46,48,-1,-1,-1,50,52,54,-1,56,58,60,-1,62,64,-1,-1,-1,-1,-1,-1,-1,-1,-1,-1,-1,-1,-1,-1,-1,-1,-1,-1,-1,-1,-1,-1,-1,-1],"split_conditions":[-9.536743E-7,-9.536743E-7,-9.536743E-7,-9.536743E-7,-9.536743E-7,-9.536743E-7,1.8892469E-1,-9.536743E-7,-9.536743E-7,-9.536743E-7,-9.536743E-7,-9.536743E-7,-9.536743E-7,-9.536743E-7,-9.536743E-7,-9.536743E-7,-9.536743E-7,-9.536743E-7,1.7920063E-1,-9.536743E-7,-9.536743E-7,-9.536743E-7,-5.8340605E-2,-8.1487894E-2,-9.536743E-7,-9.536743E-7,-9.536743E-7,-9.536743E-7,-1.137904E-2,1.8085387E-1,2.3727894E-2,-9.536743E-7,-9.536743E-7,-9.536743E-7,-5.601867E-2,-9.536743E-7,-9.536743E-7,-9.536743E-7,4.0638237E-3,-9.536743E-7,-9.536743E-7,5.590833E-2,-6.0757667E-2,-1.347083E-2,1.1770042E-1,-2.3010692E-2,7.811799E-2,-8.776266E-2,-2.3900758E-2,-6.4226575E-2,4.252251E-2,-2.215504E-2,1.2382495E-1,1.5561646E-1,-1.1092932E-2,-2.6722003E-2,5.791868E-2,-8.488916E-2,3.0000403E-3,1.882509E-1,3.4488235E-2,4.673763E-2,-4.977189E-2,2.8555019E-2,1.8767928E-1],"split_indices":[841,760,1182,4060,4397,4319,0,3062,3694,5,1726,4271,4333,2573,2688,4379,4341,4271,0,788,1265,1231,0,0,4271,4406,20,4,0,0,0,3536,1292,20,0,997,4363,3010,0,4262,952,0,0,0,0,0,0,0,0,0,0,0,0,0,0,0,0,0,0,0,0,0,0,0,0],"split_type":[0,0,0,0,0,0,0,0,0,0,0,0,0,0,0,0,0,0,0,0,0,0,0,0,0,0,0,0,0,0,0,0,0,0,0,0,0,0,0,0,0,0,0,0,0,0,0,0,0,0,0,0,0,0,0,0,0,0,0,0,0,0,0,0,0],"sum_hessian":[3.021313E2,2.7216043E2,2.9970848E1,2.3066528E2,4.1495136E1,2.89246E1,1.0462484E0,2.1996088E2,1.0704405E1,4.964325E0,3.653081E1,2.2460072E1,6.464528E0,2.1031773E2,9.643156E0,2.38488E0,8.319525E0,3.8211396E0,1.1431853E0,3.2740925E1,3.7898898E0,2.1151434E1,1.308639E0,4.0794554E0,2.385073E0,1.882679E2,2.2049833E1,8.398701E0,1.2444557E0,1.382511E0,1.0023689E0,5.9095936E0,2.4099307E0,2.5752494E0,1.2458901E0,2.5952072E1,6.7888513E0,2.2034907E0,1.586399E0,1.6691061E1,4.4603724E0,1.2175786E0,1.1674943E0,1.8702693E2,1.2409674E0,7.98766E0,1.4062174E1,6.78264E0,1.6160606E0,3.3560984E0,2.5534952E0,1.1051203E0,1.3048104E0,1.3417273E0,1.233522E0,1.2162911E1,1.3789161E1,4.9166727E0,1.8721787E0,1.0641795E0,1.1393112E0,1.3876653E1,2.8144078E0,2.7483027E0,1.7120696E0],"tree_param":{"num_deleted":"0","num_feature":"4848","num_nodes":"65","size_leaf_vector":"0"}},{"base_weights":[1.8811122E-2,3.137419E-2,-6.5093404E-1,2.303047E-2,1.054235E0,-7.8682804E-1,-2.0267198E-2,1.3551602E-2,9.3373525E-1,1.9176949E-3,7.343759E-1,-1.7392874E-2,4.514652E-1,1.073935E0,-2.2214112E-1,1.7371561E-2,-3.2700115E-1,1.566155E-1,1.3164413E0],"categories":[],"categories_nodes":[],"categories_segments":[],"categories_sizes":[],"default_left":[1,1,1,1,0,0,0,1,0,1,1,1,1,0,0,0,0,0,0],"id":29,"left_children":[1,3,5,7,-1,-1,-1,9,-1,11,13,15,17,-1,-1,-1,-1,-1,-1],"loss_changes":[2.5657573E0,2.5180855E0,4.6536398E-1,2.5469189E0,0E0,0E0,0E0,2.4679868E0,0E0,2.5322213E0,1.7568159E0,3.0170317E0,2.8577898E0,0E0,0E0,0E0,0E0,0E0,0E0],"parents":[2147483647,0,0,1,1,2,2,3,3,7,7,9,9,10,10,11,11,12,12],"right_children":[2,4,6,8,-1,-1,-1,10,-1,12,14,16,18,-1,-1,-1,-1,-1,-1],"split_conditions":[-9.536743E-7,-9.536743E-7,-9.536743E-7,-9.536743E-7,1.054235E-1,-7.86828E-2,-2.0267197E-3,-9.536743E-7,9.337353E-2,-9.536743E-7,-9.536743E-7,-9.536743E-7,-9.536743E-7,1.073935E-1,-2.2214113E-2,1.7371562E-3,-3.2700118E-2,1.566155E-2,1.3164413E-1],"split_indices":[566,189,3,609,0,0,0,3544,0,716,3910,3008,2245,0,0,0,0,0,0],"split_type":[0,0,0,0,0,0,0,0,0,0,0,0,0,0,0,0,0,0,0],"sum_hessian":[3.015099E2,2.9689392E2,4.615976E0,2.9550592E2,1.3879968E0,3.5939505E0,1.0220253E0,2.9346634E2,2.0395982E0,2.8979184E2,3.6745005E0,2.7877808E2,1.1013761E1,2.6212225E0,1.053278E0,2.5148402E2,2.7294048E1,9.094668E0,1.9190919E0],"tree_param":{"num_deleted":"0","num_feature":"4848","num_nodes":"19","size_leaf_vector":"0"}},{"base_weights":[1.7827338E-2,7.5259185E-3,7.8881705E-1,-4.3505915E-3,6.388475E-1,-1.274483E-2,1.0461887E0,1.1047837E0,-5.6396204E-1,-2.6429682E-3,-8.4565085E-1,1.481881E0,8.1307285E-2,-1.4541941E-2,9.7356164E-1,-2.3095064E-2,9.759452E-1,1.2807112E0,2.6913336E-1],"categories":[],"categories_nodes":[],"categories_segments":[],"categories_sizes":[],"default_left":[1,1,0,1,1,1,0,1,0,1,0,0,0,1,1,0,0,0,0],"id":30,"left_children":[1,3,-1,5,7,9,-1,11,-1,13,-1,-1,-1,15,17,-1,-1,-1,-1],"loss_changes":[2.396222E0,2.2482004E0,0E0,2.6142287E0,3.725877E0,2.4679768E0,0E0,1.5501261E0,0E0,3.3952012E0,0E0,0E0,0E0,2.4670835E0,4.1689467E-1,0E0,0E0,0E0,0E0],"parents":[2147483647,0,0,1,1,3,3,4,4,5,5,7,7,9,9,13,13,14,14],"right_children":[2,4,-1,6,8,10,-1,12,-1,14,-1,-1,-1,16,18,-1,-1,-1,-1],"split_conditions":[-9.536743E-7,-9.536743E-7,7.88817E-2,-9.536743E-7,-9.536743E-7,-9.536743E-7,1.0461887E-1,-9.536743E-7,-5.6396205E-2,-9.536743E-7,-8.456509E-2,1.481881E-1,8.130728E-3,-9.536743E-7,-9.536743E-7,-2.3095065E-3,9.759452E-2,1.2807111E-1,2.6913336E-2],"split_indices":[13,579,0,469,470,4598,0,1427,0,411,0,0,0,15,4139,0,0,0,0],"split_type":[0,0,0,0,0,0,0,0,0,0,0,0,0,0,0,0,0,0,0],"sum_hessian":[3.014517E2,2.9847348E2,2.9782302E0,2.9393698E2,4.5364757E0,2.9258698E2,1.3500215E0,3.3285728E0,1.2079027E0,2.9007202E2,2.514952E0,2.105074E0,1.223499E0,2.8755215E2,2.5198739E0,2.8605862E2,1.4935105E0,1.1850672E0,1.3348066E0],"tree_param":{"num_deleted":"0","num_feature":"4848","num_nodes":"19","size_leaf_vector":"0"}},{"base_weights":[1.7389543E-2,-1.2797597E-2,2.760172E-1,-3.2971337E-2,5.905075E-1,1.6809297E-1,1.6134841E0,-4.314241E-2,1.0698715E0,1.7574014E-1,1.1563057E0,3.1781363E-1,-8.115655E-1,-5.3084288E-2,1.0380142E0,6.833178E-1,-4.9493545E-1,8.551816E-2,1.557704E0,1.9890505E-1,1.5591577E0,-4.011214E-2,-7.824447E-1,1.0440179E0,-1.3506632E-1,-5.848713E-1,-1.5455301E-1,4.8915103E-1,-4.796977E-1,-5.313701E-2,8.508904E-1,2.652173E-1,1.0860873E0,-7.365334E-1,5.582486E-1],"categories":[],"categories_nodes":[],"categories_segments":[],"categories_sizes":[],"default_left":[1,1,1,1,1,1,0,1,0,1,1,1,0,1,0,1,1,0,0,1,0,1,0,0,0,0,0,1,1,0,0,0,0,0,0],"id":31,"left_children":[1,3,5,7,9,11,-1,13,-1,15,17,19,-1,21,-1,23,25,-1,-1,27,-1,29,-1,-1,-1,-1,-1,31,33,-1,-1,-1,-1,-1,-1],"loss_changes":[2.3632624E0,3.325259E0,4.2952337E0,3.0049167E0,1.8716464E0,4.71535E0,0E0,2.874741E0,0E0,2.4763172E0,1.3971734E0,3.6870039E0,0E0,2.4369366E0,0E0,1.3203536E0,1.018858E-2,0E0,0E0,5.327807E0,0E0,3.03215E0,0E0,0E0,0E0,0E0,0E0,2.1992364E0,2.6108851E0,0E0,0E0,0E0,0E0,0E0,0E0],"parents":[2147483647,0,0,1,1,2,2,3,3,4,4,5,5,7,7,9,9,10,10,11,11,13,13,15,15,16,16,19,19,21,21,27,27,28,28],"right_children":[2,4,6,8,10,12,-1,14,-1,16,18,20,-1,22,-1,24,26,-1,-1,28,-1,30,-1,-1,-1,-1,-1,32,34,-1,-1,-1,-1,-1,-1],"split_conditions":[-9.536743E-7,-9.536743E-7,-9.536743E-7,-9.536743E-7,-9.536743E-7,-9.536743E-7,1.6134842E-1,-9.536743E-7,1.06987156E-1,-9.536743E-7,-9.536743E-7,-9.536743E-7,-8.115655E-2,-9.536743E-7,1.0380142E-1,-9.536743E-7,-9.536743E-7,8.551816E-3,1.557704E-1,-9.536743E-7,1.5591578E-1,-9.536743E-7,-7.824447E-2,1.0440179E-1,-1.3506631E-2,-5.848713E-2,-1.5455301E-2,-9.536743E-7,-9.536743E-7,-5.3137015E-3,8.508904E-2,2.6521731E-2,1.0860874E-1,-7.365334E-2,5.5824857E-2],"split_indices":[841,521,1182,14,2245,4271,0,1181,0,20,760,2807,0,566,0,4379,1215,0,0,4262,0,4677,0,0,0,0,0,952,4333,0,0,0,0,0,0],"split_type":[0,0,0,0,0,0,0,0,0,0,0,0,0,0,0,0,0,0,0,0,0,0,0,0,0,0,0,0,0,0,0,0,0,0,0],"sum_hessian":[3.0124936E2,2.706137E2,3.063564E1,2.627723E2,7.8414164E0,2.938977E1,1.2458692E0,2.613231E2,1.4491969E0,5.280827E0,2.560589E0,2.6079624E1,3.3101473E0,2.5988422E2,1.4388891E0,2.9951792E0,2.2856479E0,1.0289006E0,1.5316886E0,2.4858643E1,1.2209806E0,2.5637933E2,3.5048761E0,1.8875438E0,1.1076354E0,1.239793E0,1.045855E0,1.7607079E1,7.251565E0,2.5361234E2,2.7669978E0,1.3854151E1,3.7529268E0,6.0459194E0,1.2056454E0],"tree_param":{"num_deleted":"0","num_feature":"4848","num_nodes":"35","size_leaf_vector":"0"}},{"base_weights":[1.7712612E-2,4.6204958E-2,-2.4509767E-1,6.4528465E-2,-7.026624E-1,-3.6819136E-1,1.09062E0,-4.9112114E-1,8.4870785E-2,-8.0403304E-1,-2.3568682E-1,-4.786789E-1,8.318297E-1,-7.652013E-1,6.412486E-1,9.744258E-2,-7.554435E-1,-5.369082E-1,4.8879102E-1,-8.619628E-1,-1.7109601E-1,1.3691454E-1,-1.8397251E-1,-5.901153E-1,3.7094077E-1,1.0699194E-1,6.727228E-1,-2.730859E-1,1.0243753E0,-1.3765177E-1,-6.350924E-1],"categories":[],"categories_nodes":[],"categories_segments":[],"categories_sizes":[],"default_left":[1,1,1,1,1,1,0,1,1,0,0,1,0,1,0,1,0,1,0,0,0,1,1,1,0,0,0,0,0,0,0],"id":32,"left_children":[1,3,5,7,9,11,-1,13,15,-1,-1,17,-1,19,-1,21,-1,23,-1,-1,-1,25,27,29,-1,-1,-1,-1,-1,-1,-1],"loss_changes":[2.2713714E0,3.7933288E0,5.2814283E0,3.065649E0,1.2329483E-1,4.1003966E0,0E0,3.4688296E0,2.8090801E0,0E0,0E0,1.7386093E0,0E0,3.2286215E-1,0E0,2.8688939E0,0E0,1.4357929E0,0E0,0E0,0E0,3.5368009E0,3.7166252E0,4.0472794E-1,0E0,0E0,0E0,0E0,0E0,0E0,0E0],"parents":[2147483647,0,0,1,1,2,2,3,3,4,4,5,5,7,7,8,8,11,11,13,13,15,15,17,17,21,21,22,22,23,23],"right_children":[2,4,6,8,10,12,-1,14,16,-1,-1,18,-1,20,-1,22,-1,24,-1,-1,-1,26,28,30,-1,-1,-1,-1,-1,-1,-1],"split_conditions":[-9.536743E-7,-9.536743E-7,-9.536743E-7,-9.536743E-7,-9.536743E-7,-9.536743E-7,1.0906201E-1,-9.536743E-7,-9.536743E-7,-8.0403306E-2,-2.3568682E-2,-9.536743E-7,8.3182976E-2,-9.536743E-7,6.412486E-2,-9.536743E-7,-7.554435E-2,-9.536743E-7,4.8879102E-2,-8.619628E-2,-1.71096E-2,-9.536743E-7,-9.536743E-7,-9.536743E-7,3.709408E-2,1.0699194E-2,6.727228E-2,-2.7308589E-2,1.0243753E-1,-1.3765178E-2,-6.350924E-2],"split_indices":[2,905,1425,1125,4375,1931,0,1238,1081,0,0,777,0,952,0,1254,0,470,0,0,0,1196,1118,1741,0,0,0,0,0,0,0],"split_type":[0,0,0,0,0,0,0,0,0,0,0,0,0,0,0,0,0,0,0,0,0,0,0,0,0,0,0,0,0,0,0],"sum_hessian":[3.0081918E2,2.721396E2,2.8679588E1,2.6653186E2,5.607746E0,2.692285E1,1.7567385E0,8.595777E0,2.5793607E2,4.014495E0,1.5932516E0,2.5203444E1,1.7194065E0,7.181746E0,1.4140307E0,2.5500502E2,2.9310453E0,2.419241E1,1.011034E0,5.7881722E0,1.3935738E0,2.2408746E2,3.091757E1,2.318365E1,1.0087606E0,2.1337126E2,1.0716188E1,2.9514902E1,1.4026681E0,2.4633307E0,2.0720318E1],"tree_param":{"num_deleted":"0","num_feature":"4848","num_nodes":"31","size_leaf_vector":"0"}},{"base_weights":[1.586293E-2,-3.5154144E-3,3.74893E-1,-4.183622E-2,2.615108E-1,6.336001E-1,-2.5960815E-1,-5.4983642E-2,7.8544044E-1,1.5280268E-1,1.3182337E0,9.602267E-1,-1.5390497E-1,-7.660483E-1,6.344248E-1,-9.4692856E-2,2.3547873E-1,1.6208341E0,-3.938157E-1,1.9440662E-2,9.375107E-1,3.2974216E-1,1.7085252E0,1.5889581E0,3.1199932E-1,-6.106078E-1,3.3331326E-1,-1.17656596E-1,7.312748E-1,3.9516467E-1,-7.8635544E-1,3.6032605E-1,-2.4710907E-1,1.5779823E0,-3.1977916E-1,7.5289273E-1,-5.90946E-1,-1.5225588E-1,4.244955E-1,-3.3867204E-1,1.3337171E0,5.3795624E-1,-5.61638E-1,4.9000764E-1,-5.507392E-1,-3.656202E-1,6.551799E-1],"categories":[],"categories_nodes":[],"categories_segments":[],"categories_sizes":[],"default_left":[1,1,1,1,1,1,1,1,1,1,1,1,1,0,0,1,1,0,0,1,1,0,0,0,1,0,0,1,1,1,0,1,1,0,0,0,0,0,0,0,0,0,0,0,0,0,0],"id":33,"left_children":[1,3,5,7,9,11,13,15,17,19,21,23,25,-1,-1,27,29,-1,-1,31,33,-1,-1,-1,35,-1,-1,37,39,41,-1,43,45,-1,-1,-1,-1,-1,-1,-1,-1,-1,-1,-1,-1,-1,-1],"loss_changes":[2.1036603E0,2.9327214E0,2.7061234E0,2.7863493E0,3.9892757E0,3.0517015E0,2.8377085E0,2.8965552E0,4.5896463E0,3.5617614E0,6.9885254E-1,2.8128324E0,1.1317638E0,0E0,0E0,4.2577167E0,5.247923E0,0E0,0E0,2.8386345E0,4.4891453E0,0E0,0E0,0E0,2.5315213E0,0E0,0E0,4.0948496E0,4.3759165E0,3.9682336E0,0E0,1.8868042E0,2.1188917E0,0E0,0E0,0E0,0E0,0E0,0E0,0E0,0E0,0E0,0E0,0E0,0E0,0E0,0E0],"parents":[2147483647,0,0,1,1,2,2,3,3,4,4,5,5,6,6,7,7,8,8,9,9,10,10,11,11,12,12,15,15,16,16,19,19,20,20,24,24,27,27,28,28,29,29,31,31,32,32],"right_children":[2,4,6,8,10,12,14,16,18,20,22,24,26,-1,-1,28,30,-1,-1,32,34,-1,-1,-1,36,-1,-1,38,40,42,-1,44,46,-1,-1,-1,-1,-1,-1,-1,-1,-1,-1,-1,-1,-1,-1],"split_conditions":[-9.536743E-7,-9.536743E-7,-9.536743E-7,-9.536743E-7,-9.536743E-7,-9.536743E-7,-9.536743E-7,-9.536743E-7,-9.536743E-7,-9.536743E-7,-9.536743E-7,-9.536743E-7,-9.536743E-7,-7.6604836E-2,6.344248E-2,-9.536743E-7,-9.536743E-7,1.6208342E-1,-3.938157E-2,-9.536743E-7,-9.536743E-7,3.2974217E-2,1.7085253E-1,1.5889582E-1,-9.536743E-7,-6.1060783E-2,3.3331327E-2,-9.536743E-7,-9.536743E-7,-9.536743E-7,-7.863554E-2,-9.536743E-7,-9.536743E-7,1.5779823E-1,-3.1977918E-2,7.528927E-2,-5.9094604E-2,-1.5225588E-2,4.244955E-2,-3.3867206E-2,1.3337171E-1,5.3795625E-2,-5.61638E-2,4.9000766E-2,-5.5073924E-2,-3.656202E-2,6.551799E-2],"split_indices":[1213,2688,1149,15,2807,1253,1255,2573,4494,759,789,711,1246,0,0,1182,1277,0,0,4375,4343,0,0,0,3432,0,0,630,4321,3008,0,1085,735,0,0,0,0,0,0,0,0,0,0,0,0,0,0],"split_type":[0,0,0,0,0,0,0,0,0,0,0,0,0,0,0,0,0,0,0,0,0,0,0,0,0,0,0,0,0,0,0,0,0,0,0,0,0,0,0,0,0,0,0,0,0,0,0],"sum_hessian":[3.0117322E2,2.866896E2,1.448362E1,2.5120883E2,3.5480774E1,1.0289621E1,4.193999E0,2.481979E2,3.0109262E0,3.3209064E1,2.2717109E0,7.1180162E0,3.171605E0,2.7687485E0,1.4252502E0,2.1894046E2,2.9257439E1,1.5432336E0,1.4676925E0,2.9260912E1,3.9481504E0,1.1652763E0,1.1064347E0,2.8766494E0,4.241367E0,1.5063487E0,1.6652564E0,2.1385243E2,5.088021E0,2.5833603E1,3.423837E0,1.2685654E1,1.6575258E1,2.4467127E0,1.5014375E0,2.9614978E0,1.2798693E0,2.0169946E2,1.2152974E1,1.9905709E0,3.0974498E0,2.28598E1,2.9738011E0,1.1509539E1,1.176115E0,1.5176665E1,1.3985927E0],"tree_param":{"num_deleted":"0","num_feature":"4848","num_nodes":"47","size_leaf_vector":"0"}},{"base_weights":[1.5677193E-2,2.6311869E-2,-6.12799E-1,1.7860087E-2,8.3981687E-1,-7.584108E-1,-1.2909561E-2,8.646892E-3,7.3623633E-1,1.0888071E0,1.7847762E-1,2.5081491E-2,-5.441268E-1,1.1309193E0,-1.5622616E-1,2.7102672E-3,3.9472672E-1,-7.0016503E-1,-3.286746E-2,-1.9138247E-2,5.384255E-1,9.898139E-1,-2.2154857E-1,-8.260741E-1,-8.91944E-3,-5.114165E-1,4.586457E-1],"categories":[],"categories_nodes":[],"categories_segments":[],"categories_sizes":[],"default_left":[1,1,1,1,1,0,0,1,1,0,0,1,1,0,0,1,1,1,1,0,0,0,0,0,0,0,0],"id":34,"left_children":[1,3,5,7,9,-1,-1,11,13,-1,-1,15,17,-1,-1,19,21,23,25,-1,-1,-1,-1,-1,-1,-1,-1],"loss_changes":[2.0340033E0,2.0328767E0,4.326371E-1,1.9514467E0,3.064084E-1,0E0,0E0,2.6761076E0,1.4918771E0,0E0,0E0,2.3604078E0,6.555538E-1,0E0,0E0,3.1737964E0,6.1932964E0,5.5553865E-1,9.4919294E-1,0E0,0E0,0E0,0E0,0E0,0E0,0E0,0E0],"parents":[2147483647,0,0,1,1,2,2,3,3,4,4,7,7,8,8,11,11,12,12,15,15,16,16,17,17,18,18],"right_children":[2,4,6,8,10,-1,-1,12,14,-1,-1,16,18,-1,-1,20,22,24,26,-1,-1,-1,-1,-1,-1,-1,-1],"split_conditions":[-9.536743E-7,-9.536743E-7,-9.536743E-7,-9.536743E-7,-9.536743E-7,-7.5841084E-2,-1.2909562E-3,-9.536743E-7,-9.536743E-7,1.0888071E-1,1.7847762E-2,-9.536743E-7,-9.536743E-7,1.1309194E-1,-1.5622616E-2,-9.536743E-7,-9.536743E-7,-9.536743E-7,-9.536743E-7,-1.9138247E-3,5.3842552E-2,9.8981395E-2,-2.2154858E-2,-8.260741E-2,-8.9194404E-4,-5.114165E-2,4.586457E-2],"split_indices":[566,609,842,1994,3697,0,0,921,3026,0,0,7,759,0,0,716,3124,2633,1238,0,0,0,0,0,0,0,0],"split_type":[0,0,0,0,0,0,0,0,0,0,0,0,0,0,0,0,0,0,0,0,0,0,0,0,0,0,0],"sum_hessian":[3.009132E2,2.9684827E2,4.064944E0,2.9480737E2,2.0409005E0,3.058339E0,1.0066047E0,2.9207355E2,2.733814E0,1.0131054E0,1.0277951E0,2.8456766E2,7.5058975E0,1.7102724E0,1.0235416E0,2.6927808E2,1.5289591E1,5.4676576E0,2.03824E0,2.596527E2,9.625355E0,7.470149E0,7.8194423E0,4.4601903E0,1.0074669E0,1.0122222E0,1.0260178E0],"tree_param":{"num_deleted":"0","num_feature":"4848","num_nodes":"27","size_leaf_vector":"0"}},{"base_weights":[1.443117E-2,4.9767545E-3,7.022195E-1,-2.7497666E-2,2.0156711E-1,3.2761055E-1,9.111069E-1,-1.0089595E-2,-7.066326E-1,1.1957024E-1,9.963248E-1,-4.8308715E-2,2.970201E-1,-8.312083E-1,-2.3983093E-2,5.198355E-1,-1.9329543E-1,-2.1560797E-1,1.8226213E0,-7.062035E-2,6.2625587E-1,4.542166E-1,-7.620905E-1,8.141906E-1,-1.8031296E-1,-3.3605263E-1,3.9129722E-1,-8.996894E-2,7.704327E-1,8.863888E-1,-2.4376309E-1,5.873627E-1,-5.045265E-1,9.054861E-1,1.2794963E-1,-7.8618973E-1,9.875261E-1,-5.868146E-1,3.1389096E-1,8.530264E-1,-5.6327945E-1],"categories":[],"categories_nodes":[],"categories_segments":[],"categories_sizes":[],"default_left":[1,1,1,1,1,0,0,1,1,1,1,1,1,0,0,1,1,0,0,1,1,1,0,1,1,1,1,0,0,0,0,0,0,0,0,0,0,0,0,0,0],"id":35,"left_children":[1,3,5,7,9,-1,-1,11,13,15,17,19,21,-1,-1,23,25,-1,-1,27,29,31,-1,33,35,37,39,-1,-1,-1,-1,-1,-1,-1,-1,-1,-1,-1,-1,-1,-1],"loss_changes":[1.9609506E0,1.914473E0,2.150011E-2,3.037145E0,2.6511874E0,0E0,0E0,2.9731154E0,5.2611494E-1,5.068488E0,4.2377605E0,3.431227E0,5.0142603E0,0E0,0E0,3.7896328E0,2.05059E0,0E0,0E0,3.6288135E0,1.8696513E0,3.4929538E0,0E0,6.75128E-1,5.0574274E0,3.2841327E0,2.67342E0,0E0,0E0,0E0,0E0,0E0,0E0,0E0,0E0,0E0,0E0,0E0,0E0,0E0,0E0],"parents":[2147483647,0,0,1,1,2,2,3,3,4,4,7,7,8,8,9,9,10,10,11,11,12,12,15,15,16,16,19,19,20,20,21,21,23,23,24,24,25,25,26,26],"right_children":[2,4,6,8,10,-1,-1,12,14,16,18,20,22,-1,-1,24,26,-1,-1,28,30,32,-1,34,36,38,40,-1,-1,-1,-1,-1,-1,-1,-1,-1,-1,-1,-1,-1,-1],"split_conditions":[-9.536743E-7,-9.536743E-7,-9.536743E-7,-9.536743E-7,-9.536743E-7,3.2761056E-2,9.111069E-2,-9.536743E-7,-9.536743E-7,-9.536743E-7,-9.536743E-7,-9.536743E-7,-9.536743E-7,-8.312083E-2,-2.3983093E-3,-9.536743E-7,-9.536743E-7,-2.1560797E-2,1.8226214E-1,-9.536743E-7,-9.536743E-7,-9.536743E-7,-7.620905E-2,-9.536743E-7,-9.536743E-7,-9.536743E-7,-9.536743E-7,-8.996895E-3,7.704327E-2,8.863888E-2,-2.4376309E-2,5.8736272E-2,-5.045265E-2,9.054861E-2,1.2794963E-2,-7.861897E-2,9.875261E-2,-5.868146E-2,3.13891E-2,8.530264E-2,-5.6327946E-2],"split_indices":[13,4,2323,1757,366,0,0,2573,951,4397,4346,1220,1277,0,0,2107,2683,0,0,579,5,3008,0,1149,1151,759,4340,0,0,0,0,0,0,0,0,0,0,0,0,0,0],"split_type":[0,0,0,0,0,0,0,0,0,0,0,0,0,0,0,0,0,0,0,0,0,0,0,0,0,0,0,0,0,0,0,0,0,0,0,0,0,0,0,0,0],"sum_hessian":[3.010998E2,2.9801053E2,3.0892503E0,2.5649988E2,4.1510647E1,2.0253825E0,1.0638677E0,2.510789E2,5.4209776E0,3.8671295E1,2.8393524E0,2.240403E2,2.7038618E1,4.4003444E0,1.0206331E0,1.6675692E1,2.1995602E1,1.4506885E0,1.3886639E0,2.1773392E2,6.3063726E0,2.4041447E1,2.997172E0,1.1625315E1,5.050377E0,1.8020224E1,3.975378E0,2.137105E2,4.0234227E0,4.8403177E0,1.466055E0,2.1449934E1,2.5915127E0,9.978338E0,1.6469759E0,3.5404074E0,1.5099694E0,1.3073372E1,4.946852E0,2.7510676E0,1.2243103E0],"tree_param":{"num_deleted":"0","num_feature":"4848","num_nodes":"41","size_leaf_vector":"0"}},{"base_weights":[1.3587717E-2,5.4468336E-3,1.2274773E0,2.0226056E-2,-5.258172E-1,8.157595E-3,6.074496E-1,-6.8605286E-1,-1.7124023E-2,6.275524E-5,9.023827E-1,9.455249E-1,-5.165729E-1,-1.8878603E-2,-8.1494796E-1,-8.286343E-3,9.2301965E-1,9.8992094E-2,1.2599598E0,-1.7415782E-2,8.3274066E-1],"categories":[],"categories_nodes":[],"categories_segments":[],"categories_sizes":[],"default_left":[1,1,0,1,1,1,1,1,0,1,0,1,0,0,0,1,0,0,0,0,0],"id":36,"left_children":[1,3,-1,5,7,9,11,13,-1,15,-1,17,-1,-1,-1,19,-1,-1,-1,-1,-1],"loss_changes":[2.9780989E0,2.3742297E0,0E0,2.0774977E0,6.5539765E-1,2.0914834E0,2.7319093E0,5.1766396E-1,0E0,2.221928E0,0E0,1.1774273E0,0E0,0E0,0E0,2.2086384E0,0E0,0E0,0E0,0E0,0E0],"parents":[2147483647,0,0,1,1,3,3,4,4,5,5,6,6,7,7,9,9,11,11,15,15],"right_children":[2,4,-1,6,8,10,12,14,-1,16,-1,18,-1,-1,-1,20,-1,-1,-1,-1,-1],"split_conditions":[-9.536743E-7,-9.536743E-7,1.22747734E-1,-9.536743E-7,-9.536743E-7,-9.536743E-7,-9.536743E-7,-9.536743E-7,-1.7124023E-3,-9.536743E-7,9.0238266E-2,-9.536743E-7,-5.165729E-2,-1.8878604E-3,-8.14948E-2,-9.536743E-7,9.2301965E-2,9.899209E-3,1.2599598E-1,-1.7415782E-3,8.327407E-2],"split_indices":[1874,921,0,10,1525,858,951,4373,0,14,0,4399,0,0,0,209,0,0,0,0,0],"split_type":[0,0,0,0,0,0,0,0,0,0,0,0,0,0,0,0,0,0,0,0,0],"sum_hessian":[3.0103848E2,3.0003082E2,1.0076531E0,2.9284607E2,7.18475E0,2.8794226E2,4.9038205E0,5.1985703E0,1.98618E0,2.863502E2,1.5920722E0,3.8920121E0,1.0118084E0,1.0273523E0,4.171218E0,2.847652E2,1.5849732E0,1.4102131E0,2.481799E0,2.8267603E2,2.089187E0],"tree_param":{"num_deleted":"0","num_feature":"4848","num_nodes":"21","size_leaf_vector":"0"}},{"base_weights":[1.3361407E-2,5.6370157E-3,1.1322514E0,1.928334E-2,-5.05342E-1,4.5467883E-2,-2.3134676E-1,-6.6883785E-1,-1.0487148E-2,6.2316258E-2,-6.7968136E-1,-3.7092546E-1,6.266326E-1,-8.03122E-1,-9.655796E-3,-4.5387748E-1,8.02479E-2,-7.873531E-1,-2.1055293E-1,-4.9004063E-1,9.997914E-1,8.391987E-1,-2.1193322E-2,-7.422255E-1,6.086856E-1,9.193233E-2,-7.3768693E-1,1.3555981E-1,-5.717136E-1],"categories":[],"categories_nodes":[],"categories_segments":[],"categories_sizes":[],"default_left":[1,1,0,1,1,1,1,1,0,1,1,1,1,0,0,1,1,0,0,1,0,0,0,0,0,0,0,0,0],"id":37,"left_children":[1,3,-1,5,7,9,11,13,-1,15,17,19,21,-1,-1,23,25,-1,-1,27,-1,-1,-1,-1,-1,-1,-1,-1,-1],"loss_changes":[2.6019785E0,2.1067557E0,0E0,1.9391084E0,6.288564E-1,3.3033726E0,3.5811021E0,5.1375484E-1,0E0,2.459391E0,1.4460039E-1,4.519218E0,6.077666E-1,0E0,0E0,3.1903634E0,2.4936852E0,0E0,0E0,1.2718987E0,0E0,0E0,0E0,0E0,0E0,0E0,