{"learner":{"attributes":{"best_iteration":"22","best_msg":"[23]\ttrain-auc:0.795955\ttest-auc:0.824916","best_ntreelimit":"23","best_score":"0.82491550257238477","niter":"47"},"feature_names":[],"feature_types":[],"gradient_booster":{"model":{"gbtree_model_param":{"num_parallel_tree":"1","num_trees":"48","size_leaf_vector":"0"},"tree_info":[0,0,0,0,0,0,0,0,0,0,0,0,0,0,0,0,0,0,0,0,0,0,0,0,0,0,0,0,0,0,0,0,0,0,0,0,0,0,0,0,0,0,0,0,0,0,0,0],"trees":[{"base_weights":[2.1124648E-2,-2.4371204E-1,1.37895E0,-3.8220954E-1,3.692746E-1,6.5736276E-1,3.871403E0,-4.2674157E-1,1.6093886E0,-1.274587E-1,1.7360827E0,3.5150293E-1,3.1175086E0,4.5953255E0,3.4197515E-1,-5.5592185E-1,2.2171256E-1,4.8806652E-1,1.9260374E0,8.558608E-3,-5.065627E-1,1.0349584E0,2.76807E0,1.2873981E0,-3.1709734E-1],"categories":[],"categories_nodes":[],"categories_segments":[],"categories_sizes":[],"default_left":[1,1,1,1,1,1,1,1,1,1,1,1,0,0,0,0,0,0,0,0,0,0,0,0,0],"id":0,"left_children":[1,3,5,7,9,11,13,15,17,19,21,23,-1,-1,-1,-1,-1,-1,-1,-1,-1,-1,-1,-1,-1],"loss_changes":[6.8458275E1,1.3671127E1,5.3332607E1,1.2259859E1,2.0508076E1,1.7939814E1,1.5727875E1,1.08811455E1,1.4770842E-1,1.182439E0,2.947485E0,1.5192931E1,0E0,0E0,0E0,0E0,0E0,0E0,0E0,0E0,0E0,0E0,0E0,0E0,0E0],"parents":[2147483647,0,0,1,1,2,2,3,3,4,4,5,5,6,6,7,7,8,8,9,9,10,10,11,11],"right_children":[2,4,6,8,10,12,14,16,18,20,22,24,-1,-1,-1,-1,-1,-1,-1,-1,-1,-1,-1,-1,-1],"split_conditions":[-9.536743E-7,-9.536743E-7,-9.536743E-7,-9.536743E-7,-9.536743E-7,-9.536743E-7,-9.536743E-7,-9.536743E-7,-9.536743E-7,-9.536743E-7,-9.536743E-7,-9.536743E-7,3.1175086E-1,4.5953256E-1,3.4197517E-2,-5.5592187E-2,2.2171257E-2,4.8806652E-2,1.9260375E-1,8.5586077E-4,-5.065627E-2,1.03495836E-1,2.76807E-1,1.2873982E-1,-3.1709734E-2],"split_indices":[4563,2,3,955,1127,1263,1276,3,4640,1822,1823,1282,0,0,0,0,0,0,0,0,0,0,0,0,0],"split_type":[0,0,0,0,0,0,0,0,0,0,0,0,0,0,0,0,0,0,0,0,0,0,0,0,0],"sum_hessian":[1.884378E2,1.5836923E2,3.0068573E1,1.2948909E2,2.8880138E1,2.4297867E1,5.770706E0,1.2742559E2,2.0635004E0,2.184709E1,7.033048E0,2.2627554E1,1.670312E0,4.537927E0,1.2327789E0,1.063767E2,2.1048887E1,1.0140125E0,1.0494881E0,1.6797722E1,5.049368E0,5.380474E0,1.6525742E0,9.043335E0,1.3584219E1],"tree_param":{"num_deleted":"0","num_feature":"5134","num_nodes":"25","size_leaf_vector":"0"}},{"base_weights":[2.1212714E-2,-2.2355932E-1,1.1017308E0,-3.5747227E-1,3.3025333E-1,5.6899446E-1,2.493379E0,-4.0293038E-1,1.5315028E0,-1.1838104E-1,1.4042339E0,1.3308837E-1,1.8795508E0,1.5679489E0,4.7234144E0,-4.4154966E-1,1.1849235E0,4.6252975E-1,1.8440511E0,7.7442173E-3,-4.8521978E-1,8.496857E-1,2.914796E0,-2.3660712E-1,1.3225719E0,7.1215E-1,2.702287E0,1.9648279E0,-5.2357E-1],"categories":[],"categories_nodes":[],"categories_segments":[],"categories_sizes":[],"default_left":[1,1,1,1,1,1,1,1,1,1,1,1,1,1,0,0,0,0,0,0,0,0,0,0,0,0,0,0,0],"id":1,"left_children":[1,3,5,7,9,11,13,15,17,19,21,23,25,27,-1,-1,-1,-1,-1,-1,-1,-1,-1,-1,-1,-1,-1,-1,-1],"loss_changes":[5.034267E1,1.1632701E1,2.464246E1,1.1394512E1,1.4983391E1,1.5012452E1,1.2066711E1,8.087372E0,2.0207834E-1,1.0500251E0,5.1787186E0,9.602334E0,4.4070053E0,7.806566E0,0E0,0E0,0E0,0E0,0E0,0E0,0E0,0E0,0E0,0E0,0E0,0E0,0E0,0E0,0E0],"parents":[2147483647,0,0,1,1,2,2,3,3,4,4,5,5,6,6,7,7,8,8,9,9,10,10,11,11,12,12,13,13],"right_children":[2,4,6,8,10,12,14,16,18,20,22,24,26,28,-1,-1,-1,-1,-1,-1,-1,-1,-1,-1,-1,-1,-1,-1,-1],"split_conditions":[-9.536743E-7,-9.536743E-7,-9.536743E-7,-9.536743E-7,-9.536743E-7,-9.536743E-7,-9.536743E-7,-9.536743E-7,-9.536743E-7,-9.536743E-7,-9.536743E-7,-9.536743E-7,-9.536743E-7,-9.536743E-7,4.7234145E-1,-4.4154968E-2,1.1849236E-1,4.6252977E-2,1.8440512E-1,7.7442173E-4,-4.8521977E-2,8.4968574E-2,2.9147962E-1,-2.3660712E-2,1.322572E-1,7.1215E-2,2.702287E-1,1.9648279E-1,-5.2357E-2],"split_indices":[4563,2,3,796,1127,2,4575,955,4619,1822,2219,4577,1232,1276,0,0,0,0,0,0,0,0,0,0,0,0,0,0,0],"split_type":[0,0,0,0,0,0,0,0,0,0,0,0,0,0,0,0,0,0,0,0,0,0,0,0,0,0,0,0,0],"sum_hessian":[1.8841412E2,1.5426195E2,3.4152184E1,1.2450977E2,2.9752174E1,2.5716516E1,8.435666E0,1.22352066E2,2.1577032E0,2.161338E1,8.138794E0,2.0124445E1,5.592071E0,7.1652875E0,1.2703785E0,1.20151695E2,2.2003708E0,1.0491799E0,1.1085231E0,1.681202E1,4.801362E0,7.0961833E0,1.0426104E0,1.5963896E1,4.1605487E0,3.0830467E0,2.5090246E0,6.0733957E0,1.0918915E0],"tree_param":{"num_deleted":"0","num_feature":"5134","num_nodes":"29","size_leaf_vector":"0"}},{"base_weights":[2.4602482E-2,-2.036715E-1,9.24806E-1,-2.5720137E-1,1.0867516E0,5.0065356E-1,1.8793925E0,-2.9249635E-1,1.2266442E0,2.3867273E-1,2.3488758E0,2.531914E-1,2.1794004E0,1.2260224E0,3.2906537E0,-4.0513903E-1,1.6398177E-1,6.091081E-1,-5.2780974E-1,-1.2686242E-1,1.2609063E0,2.7011254E0,7.394885E-1,1.5070382E0,-5.155729E-1],"categories":[],"categories_nodes":[],"categories_segments":[],"categories_sizes":[],"default_left":[1,1,1,1,1,1,1,1,0,1,0,1,1,1,0,0,0,0,0,0,0,0,0,0,0],"id":2,"left_children":[1,3,5,7,9,11,13,15,-1,17,-1,19,21,23,-1,-1,-1,-1,-1,-1,-1,-1,-1,-1,-1],"loss_changes":[3.8980312E1,1.0738218E1,1.4593426E1,8.0148945E0,6.09929E0,1.10497465E1,6.5141068E0,7.4500494E0,0E0,1.6941673E0,0E0,9.914809E0,5.9908867E-1,5.3841124E0,0E0,0E0,0E0,0E0,0E0,0E0,0E0,0E0,0E0,0E0,0E0],"parents":[2147483647,0,0,1,1,2,2,3,3,4,4,5,5,6,6,7,7,9,9,11,11,12,12,13,13],"right_children":[2,4,6,8,10,12,14,16,-1,18,-1,20,22,24,-1,-1,-1,-1,-1,-1,-1,-1,-1,-1,-1],"split_conditions":[-9.536743E-7,-9.536743E-7,-9.536743E-7,-9.536743E-7,-9.536743E-7,-9.536743E-7,-9.536743E-7,-9.536743E-7,1.22664414E-1,-9.536743E-7,2.3488759E-1,-9.536743E-7,-9.536743E-7,-9.536743E-7,3.2906538E-1,-4.0513903E-2,1.6398177E-2,6.091081E-2,-5.2780975E-2,-1.2686242E-2,1.2609063E-1,2.7011254E-1,7.394885E-2,1.5070383E-1,-5.155729E-2],"split_indices":[4563,832,3,796,20,1263,4575,2,0,666,0,2,795,2717,0,0,0,0,0,0,0,0,0,0,0],"split_type":[0,0,0,0,0,0,0,0,0,0,0,0,0,0,0,0,0,0,0,0,0,0,0,0,0],"sum_hessian":[1.8777504E2,1.5040822E2,3.736683E1,1.4518622E2,5.221993E0,2.6926859E1,1.0439969E1,1.4259726E2,2.5889592E0,3.834513E0,1.3874803E0,2.4470512E1,2.4563477E0,8.413515E0,2.0264537E0,1.1446405E2,2.8133215E1,2.7235577E0,1.1109552E0,1.8403751E1,6.0667596E0,1.1601084E0,1.2962393E0,7.3605323E0,1.0529823E0],"tree_param":{"num_deleted":"0","num_feature":"5134","num_nodes":"25","size_leaf_vector":"0"}},{"base_weights":[2.6177293E-2,-4.813311E-2,2.209846E0,-2.2958106E-1,6.800575E-1,3.386707E0,1.9062512E-1,-3.2886213E-1,5.093806E-1,2.7882934E-1,1.4792548E0,4.0348697E0,1.1792033E0,9.18839E-1,-5.615256E-1,-4.3789706E-1,7.026029E-2,-1.640919E-1,1.1445651E0,-1.4821805E-1,1.2406929E0,1.6955602E0,-1.4674146E-1],"categories":[],"categories_nodes":[],"categories_segments":[],"categories_sizes":[],"default_left":[1,1,1,1,1,1,1,1,1,1,1,0,0,0,0,0,0,0,0,0,0,0,0],"id":3,"left_children":[1,3,5,7,9,11,13,15,17,19,21,-1,-1,-1,-1,-1,-1,-1,-1,-1,-1,-1,-1],"loss_changes":[3.0688457E1,2.4367567E1,1.4144117E1,1.098424E1,1.1389132E1,7.827568E-1,2.3515716E0,5.713498E0,7.825698E0,1.0754824E1,4.4936314E0,0E0,0E0,0E0,0E0,0E0,0E0,0E0,0E0,0E0,0E0,0E0,0E0],"parents":[2147483647,0,0,1,1,2,2,3,3,4,4,5,5,6,6,7,7,8,8,9,9,10,10],"right_children":[2,4,6,8,10,12,14,16,18,20,22,-1,-1,-1,-1,-1,-1,-1,-1,-1,-1,-1,-1],"split_conditions":[-9.536743E-7,-9.536743E-7,-9.536743E-7,-9.536743E-7,-9.536743E-7,-9.536743E-7,-9.536743E-7,-9.536743E-7,-9.536743E-7,-9.536743E-7,-9.536743E-7,4.0348697E-1,1.1792033E-1,9.18839E-2,-5.615256E-2,-4.3789707E-2,7.026029E-3,-1.640919E-2,1.1445651E-1,-1.4821805E-2,1.2406929E-1,1.6955602E-1,-1.4674147E-2],"split_indices":[770,4563,4623,1195,3,1282,1282,2,2229,2,1276,0,0,0,0,0,0,0,0,0,0,0,0],"split_type":[0,0,0,0,0,0,0,0,0,0,0,0,0,0,0,0,0,0,0,0,0,0,0],"sum_hessian":[1.8746504E2,1.8224132E2,5.223727E0,1.4643732E2,3.5804005E1,2.8723836E0,2.3513436E0,1.2958258E2,1.6854729E1,2.4734972E1,1.1069034E1,1.580518E0,1.2918655E0,1.0820824E0,1.2692612E0,1.0170184E2,2.7880741E1,8.540783E0,8.313945E0,1.7715544E1,7.0194273E0,9.731654E0,1.3373793E0],"tree_param":{"num_deleted":"0","num_feature":"5134","num_nodes":"23","size_leaf_vector":"0"}},{"base_weights":[2.5474627E-2,-1.6886707E-1,6.5916485E-1,-2.011306E-1,1.646019E0,8.216043E-1,-6.4041185E-1,-2.4048689E-1,1.2009997E0,6.54547E-1,2.3251681E0,-7.7641505E-1,-5.0739713E-2,-3.461815E-1,1.3304761E-1,1.4874989E0,3.180334E-1,7.398162E-1,-6.4975095E-1],"categories":[],"categories_nodes":[],"categories_segments":[],"categories_sizes":[],"default_left":[1,1,1,1,0,1,1,1,1,1,0,0,0,0,0,0,0,0,0],"id":4,"left_children":[1,3,5,7,-1,9,11,13,15,17,-1,-1,-1,-1,-1,-1,-1,-1,-1],"loss_changes":[2.3333414E1,8.82754E0,9.911882E0,8.205331E0,0E0,8.514938E0,4.0183544E-1,5.5882025E0,5.599656E-1,4.6351585E0,0E0,0E0,0E0,0E0,0E0,0E0,0E0,0E0,0E0],"parents":[2147483647,0,0,1,1,2,2,3,3,5,5,6,6,7,7,8,8,9,9],"right_children":[2,4,6,8,-1,10,12,14,16,18,-1,-1,-1,-1,-1,-1,-1,-1,-1],"split_conditions":[-9.536743E-7,-9.536743E-7,-9.536743E-7,-9.536743E-7,1.646019E-1,-9.536743E-7,-9.536743E-7,-9.536743E-7,-9.536743E-7,-9.536743E-7,2.3251681E-1,-7.764151E-2,-5.0739716E-3,-3.461815E-2,1.3304762E-2,1.4874989E-1,3.180334E-2,7.398162E-2,-6.49751E-2],"split_indices":[4563,1095,585,796,0,396,1029,2,1028,1264,0,0,0,0,0,0,0,0,0],"split_type":[0,0,0,0,0,0,0,0,0,0,0,0,0,0,0,0,0,0,0],"sum_hessian":[1.875639E2,1.4410342E2,4.346048E1,1.4246007E2,1.6433583E0,3.8958664E1,4.501813E0,1.393764E2,3.083661E0,3.635471E1,2.6039538E0,3.4007642E0,1.1010487E0,1.08693825E2,3.0682577E1,1.8112861E0,1.2723751E0,3.453007E1,1.8246382E0],"tree_param":{"num_deleted":"0","num_feature":"5134","num_nodes":"19","size_leaf_vector":"0"}},{"base_weights":[2.3882031E-2,-4.2667672E-2,1.5996357E0,-1.9732544E-1,6.320806E-1,2.1420362E0,-5.721982E-1,-4.1260248E-1,3.7033972E-1,2.960635E-1,1.4345127E0,2.7741015E0,3.9698023E-1,-4.5465606E-1,9.309663E-1,1.7878668E-1,3.0182312E0,6.520138E-2,2.0029233E0,1.7757488E0,-5.503215E-1],"categories":[],"categories_nodes":[],"categories_segments":[],"categories_sizes":[],"default_left":[1,1,1,1,1,1,0,1,1,1,1,0,0,0,0,0,0,0,0,0,0],"id":5,"left_children":[1,3,5,7,9,11,-1,13,15,17,19,-1,-1,-1,-1,-1,-1,-1,-1,-1,-1],"loss_changes":[1.9870485E1,1.913361E1,1.0270306E1,1.8355484E1,8.797795E0,5.9076023E0,0E0,6.5519753E0,2.0500837E1,9.865944E0,7.638731E0,0E0,0E0,0E0,0E0,0E0,0E0,0E0,0E0,0E0,0E0],"parents":[2147483647,0,0,1,1,2,2,3,3,4,4,5,5,7,7,8,8,9,9,10,10],"right_children":[2,4,6,8,10,12,-1,14,16,18,20,-1,-1,-1,-1,-1,-1,-1,-1,-1,-1],"split_conditions":[-9.536743E-7,-9.536743E-7,-9.536743E-7,-9.536743E-7,-9.536743E-7,-9.536743E-7,-5.7219822E-2,-9.536743E-7,-9.536743E-7,-9.536743E-7,-9.536743E-7,2.7741015E-1,3.9698023E-2,-4.5465607E-2,9.3096636E-2,1.7878668E-2,3.018231E-1,6.520138E-3,2.0029233E-1,1.7757489E-1,-5.5032153E-2],"split_indices":[770,3,2651,2,1193,4623,0,955,4589,4577,3598,0,0,0,0,0,0,0,0,0,0],"split_type":[0,0,0,0,0,0,0,0,0,0,0,0,0,0,0,0,0,0,0,0,0],"sum_hessian":[1.8783379E2,1.8115584E2,6.6779356E0,1.4795168E2,3.3204166E1,5.3544254E0,1.3235104E0,1.0746908E2,4.04826E1,2.436875E1,8.835416E0,3.497813E0,1.8566122E0,1.0484892E2,2.6201558E0,3.874709E1,1.7355111E0,2.237994E1,1.98881E0,7.629142E0,1.2062739E0],"tree_param":{"num_deleted":"0","num_feature":"5134","num_nodes":"21","size_leaf_vector":"0"}},{"base_weights":[2.3758328E-2,-1.912109E-1,4.2122924E-1,-2.756023E-1,5.572493E-1,3.4339568E-1,2.4051182E0,-3.1524506E-1,1.1190928E0,-1.10715814E-1,1.1124738E0,2.6241058E-1,2.3967881E0,-3.7193567E-1,8.2868856E-1,-4.3107495E-1,6.138024E-1,1.3938763E0,-1.1279104E-1,5.4733854E-2,8.006938E-1],"categories":[],"categories_nodes":[],"categories_segments":[],"categories_sizes":[],"default_left":[1,1,1,1,1,1,0,1,0,1,1,1,0,0,0,0,0,0,0,0,0],"id":6,"left_children":[1,3,5,7,9,11,-1,13,-1,15,17,19,-1,-1,-1,-1,-1,-1,-1,-1,-1],"loss_changes":[1.62138E1,7.9371667E0,9.45611E0,6.512682E0,4.8768005E0,1.0220172E1,0E0,7.3841934E0,0E0,1.826098E0,2.601779E0,7.098143E0,0E0,0E0,0E0,0E0,0E0,0E0,0E0,0E0,0E0],"parents":[2147483647,0,0,1,1,2,2,3,3,4,4,5,5,7,7,9,9,10,10,11,11],"right_children":[2,4,6,8,10,12,-1,14,-1,16,18,20,-1,-1,-1,-1,-1,-1,-1,-1,-1],"split_conditions":[-9.536743E-7,-9.536743E-7,-9.536743E-7,-9.536743E-7,-9.536743E-7,-9.536743E-7,2.4051182E-1,-9.536743E-7,1.11909285E-1,-9.536743E-7,-9.536743E-7,-9.536743E-7,2.3967882E-1,-3.7193567E-2,8.286886E-2,-4.3107495E-2,6.1380237E-2,1.3938764E-1,-1.1279104E-2,5.4733856E-3,8.0069385E-2],"split_indices":[3220,1195,3817,798,2229,659,0,1049,0,2,1028,1823,0,0,0,0,0,0,0,0,0],"split_type":[0,0,0,0,0,0,0,0,0,0,0,0,0,0,0,0,0,0,0,0,0],"sum_hessian":[1.8781671E2,1.2222899E2,6.558772E1,1.104115E2,1.1817493E1,6.424048E1,1.3472425E0,1.0811248E2,2.2990165E0,5.7275424E0,6.089951E0,6.288799E1,1.3524878E0,1.03650665E2,4.4618154E0,4.252319E0,1.4752232E0,4.8406115E0,1.2493396E0,4.6174824E1,1.671317E1],"tree_param":{"num_deleted":"0","num_feature":"5134","num_nodes":"21","size_leaf_vector":"0"}},{"base_weights":[2.4446236E-2,-1.15571074E-1,5.7012945E-1,-3.0128497E-1,3.483131E-1,4.5380402E-1,2.4548593E0,-3.8307995E-1,1.1489227E0,2.0635971E-1,2.610265E0,1.8473852E-1,1.0288317E0,-4.246175E-1,7.698776E-1,2.3291783E0,-1.2976704E-2,5.512559E-2,1.8731165E0,-1.3005083E-2,1.4369388E0,1.2731869E0,-5.6182754E-1],"categories":[],"categories_nodes":[],"categories_segments":[],"categories_sizes":[],"default_left":[1,1,1,1,1,1,0,1,1,1,0,1,1,0,0,0,0,0,0,0,0,0,0],"id":7,"left_children":[1,3,5,7,9,11,-1,13,15,17,-1,19,21,-1,-1,-1,-1,-1,-1,-1,-1,-1,-1],"loss_changes":[1.4481197E1,1.3111426E1,7.3693447E0,1.329247E1,1.346936E1,5.6384745E0,0E0,5.2747307E0,8.306126E0,1.0517956E1,0E0,6.675085E0,5.2976904E0,0E0,0E0,0E0,0E0,0E0,0E0,0E0,0E0,0E0,0E0],"parents":[2147483647,0,0,1,1,2,2,3,3,4,4,5,5,7,7,8,8,9,9,11,11,12,12],"right_children":[2,4,6,8,10,12,-1,14,16,18,-1,20,22,-1,-1,-1,-1,-1,-1,-1,-1,-1,-1],"split_conditions":[-9.536743E-7,-9.536743E-7,-9.536743E-7,-9.536743E-7,-9.536743E-7,-9.536743E-7,2.4548593E-1,-9.536743E-7,-9.536743E-7,-9.536743E-7,2.610265E-1,-9.536743E-7,-9.536743E-7,-4.246175E-2,7.6987766E-2,2.3291783E-1,-1.2976704E-3,5.5125593E-3,1.8731165E-1,-1.3005084E-3,1.4369388E-1,1.273187E-1,-5.6182753E-2],"split_indices":[3,2,426,770,1095,1193,0,955,985,4589,0,4577,3598,0,0,0,0,0,0,0,0,0,0],"split_type":[0,0,0,0,0,0,0,0,0,0,0,0,0,0,0,0,0,0,0,0,0,0,0],"sum_hessian":[1.8766943E2,1.4997534E2,3.7694088E1,1.0734913E2,4.2626213E1,3.6671505E1,1.0225844E0,1.02314224E2,5.0349083E0,4.1135876E1,1.4903344E0,2.588209E1,1.0789414E1,9.936608E1,2.9481444E0,1.9993457E0,3.0355625E0,3.8661022E1,2.4748561E0,2.3206936E1,2.6751537E0,9.525676E0,1.263738E0],"tree_param":{"num_deleted":"0","num_feature":"5134","num_nodes":"23","size_leaf_vector":"0"}},{"base_weights":[2.6197271E-2,-4.182839E-2,1.0693545E0,-1.2924802E-1,7.1297634E-1,1.4933137E0,-6.662197E-1,-1.6307846E-1,1.7764853E0,2.1125619E-1,1.826012E0,1.8502575E0,-5.4781896E-1,-2.496885E-1,3.0371416E-1,7.641581E-1,-2.7285367E-1,2.1376505E0,3.6251685E-1,2.2317283E0,-1.3281906E-1],"categories":[],"categories_nodes":[],"categories_segments":[],"categories_sizes":[],"default_left":[1,1,1,1,1,1,0,1,0,1,1,1,0,0,0,0,0,0,0,0,0],"id":8,"left_children":[1,3,5,7,9,11,-1,13,-1,15,17,19,-1,-1,-1,-1,-1,-1,-1,-1,-1],"loss_changes":[1.34068775E1,1.1820027E1,9.504767E0,1.0613857E1,1.0002087E1,8.010281E0,0E0,6.474003E0,0E0,3.9432003E0,1.8014336E0,6.6526604E0,0E0,0E0,0E0,0E0,0E0,0E0,0E0,0E0,0E0],"parents":[2147483647,0,0,1,1,2,2,3,3,4,4,5,5,7,7,9,9,10,10,11,11],"right_children":[2,4,6,8,10,12,-1,14,-1,16,18,20,-1,-1,-1,-1,-1,-1,-1,-1,-1],"split_conditions":[-9.536743E-7,-9.536743E-7,-9.536743E-7,-9.536743E-7,-9.536743E-7,-9.536743E-7,-6.6621974E-2,-9.536743E-7,1.7764853E-1,-9.536743E-7,-9.536743E-7,-9.536743E-7,-5.4781895E-2,-2.4968851E-2,3.0371416E-2,7.6415814E-2,-2.7285367E-2,2.1376505E-1,3.6251687E-2,2.2317283E-1,-1.3281906E-2],"split_indices":[1312,798,2207,657,984,1276,0,1193,0,985,4589,5,0,0,0,0,0,0,0,0,0],"split_type":[0,0,0,0,0,0,0,0,0,0,0,0,0,0,0,0,0,0,0,0,0],"sum_hessian":[1.8730148E2,1.7673619E2,1.0565298E1,1.591344E2,1.7601788E1,8.603302E0,1.9619955E0,1.572572E2,1.8771908E0,1.2952863E1,4.648926E0,7.4023314E0,1.2009709E0,1.3303804E2,2.4219166E1,5.7767525E0,7.1761103E0,3.4529936E0,1.195932E0,6.1029596E0,1.2993717E0],"tree_param":{"num_deleted":"0","num_feature":"5134","num_nodes":"21","size_leaf_vector":"0"}},{"base_weights":[2.4696428E-2,-8.7488943E-4,2.2271955E0,-7.182133E-2,8.4403163E-1,-1.25311E-1,9.7250646E-1,1.0299829E0,-5.7468885E-1,-1.52032E-1,1.4738401E0,1.2835358E0,-5.4252094E-1,1.171519E0,-1.4214534E-1],"categories":[],"categories_nodes":[],"categories_segments":[],"categories_sizes":[],"default_left":[1,1,0,1,1,1,1,1,0,0,0,0,0,0,0],"id":9,"left_children":[1,3,-1,5,7,9,11,13,-1,-1,-1,-1,-1,-1,-1],"loss_changes":[1.0620891E1,1.1292733E1,0E0,9.829671E0,4.4419403E0,7.326131E0,4.740161E0,2.3664646E0,0E0,0E0,0E0,0E0,0E0,0E0,0E0],"parents":[2147483647,0,0,1,1,3,3,4,4,5,5,6,6,7,7],"right_children":[2,4,-1,6,8,10,12,14,-1,-1,-1,-1,-1,-1,-1],"split_conditions":[-9.536743E-7,-9.536743E-7,2.2271955E-1,-9.536743E-7,-9.536743E-7,-9.536743E-7,-9.536743E-7,-9.536743E-7,-5.7468887E-2,-1.52032E-2,1.4738402E-1,1.2835358E-1,-5.4252096E-2,1.1715191E-1,-1.4214533E-2],"split_indices":[1303,832,0,1263,879,657,1323,2852,0,0,0,0,0,0,0],"split_type":[0,0,0,0,0,0,0,0,0,0,0,0,0,0,0],"sum_hessian":[1.8754387E2,1.8637958E2,1.1642896E0,1.7278581E2,1.3593757E1,1.652042E2,7.5816236E0,1.226075E1,1.3330072E0,1.6337914E2,1.8250532E0,6.417029E0,1.1645945E0,1.0940222E1,1.320528E0],"tree_param":{"num_deleted":"0","num_feature":"5134","num_nodes":"15","size_leaf_vector":"0"}},{"base_weights":[2.363833E-2,-9.789355E-2,4.5415762E-1,-2.7399933E-1,3.1499428E-1,3.4826812E-1,2.2335124E0,-3.5215473E-1,8.857153E-1,-8.560541E-2,8.8835114E-1,2.264221E-1,1.9954906E0,-3.9310384E-1,6.5451187E-1,1.717646E0,-5.219243E-2,-1.6172038E-1,5.194004E-1,4.9097285E-1,1.7491212E0,1.777005E-4,6.726969E-1],"categories":[],"categories_nodes":[],"categories_segments":[],"categories_sizes":[],"default_left":[1,1,1,1,1,1,0,1,1,1,1,1,0,0,0,0,0,0,0,0,0,0,0],"id":10,"left_children":[1,3,5,7,9,11,-1,13,15,17,19,21,-1,-1,-1,-1,-1,-1,-1,-1,-1,-1,-1],"loss_changes":[9.918143E0,1.0846904E1,7.083042E0,9.763295E0,1.0346071E1,7.6893935E0,0E0,4.313877E0,5.448707E0,1.3381348E0,5.461981E0,3.9271803E0,0E0,0E0,0E0,0E0,0E0,0E0,0E0,0E0,0E0,0E0,0E0],"parents":[2147483647,0,0,1,1,2,2,3,3,4,4,5,5,7,7,8,8,9,9,10,10,11,11],"right_children":[2,4,6,8,10,12,-1,14,16,18,20,22,-1,-1,-1,-1,-1,-1,-1,-1,-1,-1,-1],"split_conditions":[-9.536743E-7,-9.536743E-7,-9.536743E-7,-9.536743E-7,-9.536743E-7,-9.536743E-7,2.2335124E-1,-9.536743E-7,-9.536743E-7,-9.536743E-7,-9.536743E-7,-9.536743E-7,1.9954906E-1,-3.9310385E-2,6.545119E-2,1.717646E-1,-5.219243E-3,-1.6172038E-2,5.1940043E-2,4.9097285E-2,1.7491212E-1,1.777005E-5,6.726969E-2],"split_indices":[3,2,2417,770,1127,814,0,955,985,1097,1029,1193,0,0,0,0,0,0,0,0,0,0,0],"split_type":[0,0,0,0,0,0,0,0,0,0,0,0,0,0,0,0,0,0,0,0,0,0,0],"sum_hessian":[1.8771065E2,1.4698943E2,4.0721233E1,1.03276215E2,4.3713203E1,3.9562588E1,1.1586441E0,9.740804E1,5.868173E0,2.6234247E1,1.7478956E1,3.7896797E1,1.665792E0,9.418624E1,3.2218008E0,2.669208E0,3.1989653E0,2.3953398E1,2.2808492E0,1.3032727E1,4.446228E0,2.581166E1,1.20851345E1],"tree_param":{"num_deleted":"0","num_feature":"5134","num_nodes":"23","size_leaf_vector":"0"}},{"base_weights":[2.4687357E-2,2.0794726E-4,1.94564E0,-6.195794E-2,6.600897E-1,-1.0932178E-1,7.406898E-1,8.040383E-1,-5.662114E-1,-1.6310531E-1,6.692484E-1,9.863888E-1,-5.493225E-1,5.5255216E-1,1.5899733E0],"categories":[],"categories_nodes":[],"categories_segments":[],"categories_sizes":[],"default_left":[1,1,0,1,1,1,1,1,0,0,0,0,0,0,0],"id":11,"left_children":[1,3,-1,5,7,9,11,13,-1,-1,-1,-1,-1,-1,-1],"loss_changes":[8.862186E0,7.716097E0,0E0,6.6161804E0,3.313962E0,6.942917E0,3.6186452E0,2.0677242E0,0E0,0E0,0E0,0E0,0E0,0E0,0E0],"parents":[2147483647,0,0,1,1,3,3,4,4,5,5,6,6,7,7],"right_children":[2,4,-1,6,8,10,12,14,-1,-1,-1,-1,-1,-1,-1],"split_conditions":[-9.536743E-7,-9.536743E-7,1.94564E-1,-9.536743E-7,-9.536743E-7,-9.536743E-7,-9.536743E-7,-9.536743E-7,-5.662114E-2,-1.6310532E-2,6.692484E-2,9.8638885E-2,-5.4932248E-2,5.5255216E-2,1.5899734E-1],"split_indices":[3195,832,0,1263,879,1312,1301,984,0,0,0,0,0,0,0],"split_type":[0,0,0,0,0,0,0,0,0,0,0,0,0,0,0],"sum_hessian":[1.874704E2,1.8609897E2,1.37142E0,1.7090457E2,1.5194406E1,1.6219719E2,8.7073765E0,1.3906355E1,1.2880504E0,1.5245605E2,9.741137E0,7.511989E0,1.1953876E0,1.1825458E1,2.0808978E0],"tree_param":{"num_deleted":"0","num_feature":"5134","num_nodes":"15","size_leaf_vector":"0"}},{"base_weights":[2.3748493E-2,-8.6536504E-2,3.9370748E-1,-2.514217E-1,2.7790067E-1,3.0067927E-1,1.8128848E0,-3.2590583E-1,7.177357E-1,1.6827433E-1,1.9953666E0,1.9287878E-1,1.61399E0,-3.6595705E-1,5.655952E-1,1.0951545E0,-5.787903E-1,2.352677E-2,1.4545029E0,1.607484E-2,6.7630917E-1,4.8076162E-1,1.9486932E0],"categories":[],"categories_nodes":[],"categories_segments":[],"categories_sizes":[],"default_left":[1,1,1,1,1,1,0,1,1,1,0,1,1,0,0,0,0,0,0,0,0,0,0],"id":12,"left_children":[1,3,5,7,9,11,-1,13,15,17,-1,19,21,-1,-1,-1,-1,-1,-1,-1,-1,-1,-1],"loss_changes":[7.7295384E0,8.850071E0,5.197046E0,7.53389E0,8.323343E0,5.637206E0,0E0,3.5846186E0,4.318346E0,8.217834E0,0E0,3.4050343E0,2.2056246E-1,0E0,0E0,0E0,0E0,0E0,0E0,0E0,0E0,0E0,0E0],"parents":[2147483647,0,0,1,1,2,2,3,3,4,4,5,5,7,7,8,8,9,9,11,11,12,12],"right_children":[2,4,6,8,10,12,-1,14,16,18,-1,20,22,-1,-1,-1,-1,-1,-1,-1,-1,-1,-1],"split_conditions":[-9.536743E-7,-9.536743E-7,-9.536743E-7,-9.536743E-7,-9.536743E-7,-9.536743E-7,1.8128848E-1,-9.536743E-7,-9.536743E-7,-9.536743E-7,1.9953667E-1,-9.536743E-7,-9.536743E-7,-3.6595706E-2,5.655952E-2,1.0951545E-1,-5.787903E-2,2.352677E-3,1.454503E-1,1.6074841E-3,6.763092E-2,4.8076164E-2,1.9486932E-1],"split_indices":[3,2,2417,770,3171,814,0,955,4626,4589,0,1823,4564,0,0,0,0,0,0,0,0,0,0],"split_type":[0,0,0,0,0,0,0,0,0,0,0,0,0,0,0,0,0,0,0,0,0,0,0],"sum_hessian":[1.8761014E2,1.4511682E2,4.2493317E1,1.0012609E2,4.4990726E1,4.101652E1,1.4767976E0,9.35965E1,6.5295935E0,4.332336E1,1.6673642E0,3.896502E1,2.0515013E0,9.0136566E1,3.4599347E0,5.177685E0,1.3519084E0,3.985636E1,3.4670005E0,2.9287146E1,9.677873E0,1.0232826E0,1.0282187E0],"tree_param":{"num_deleted":"0","num_feature":"5134","num_nodes":"23","size_leaf_vector":"0"}},{"base_weights":[2.4979766E-2,1.8005786E-3,1.6803292E0,-3.1882513E-2,1.0597744E0,-5.5479284E-2,1.502249E0,1.5264943E0,-5.246404E-1,-1.2911098E-1,2.5496376E-1,7.0476896E-1,2.1317015E0],"categories":[],"categories_nodes":[],"categories_segments":[],"categories_sizes":[],"default_left":[1,1,0,1,1,1,0,1,0,0,0,0,0],"id":13,"left_children":[1,3,-1,5,7,9,-1,11,-1,-1,-1,-1,-1],"loss_changes":[7.223106E0,6.6880565E0,0E0,6.6696334E0,5.0829945E0,4.1508064E0,0E0,8.493881E-1,0E0,0E0,0E0,0E0,0E0],"parents":[2147483647,0,0,1,1,3,3,4,4,5,5,7,7],"right_children":[2,4,-1,6,8,10,-1,12,-1,-1,-1,-1,-1],"split_conditions":[-9.536743E-7,-9.536743E-7,1.6803293E-1,-9.536743E-7,-9.536743E-7,-9.536743E-7,1.5022491E-1,-9.536743E-7,-5.2464038E-2,-1.2911098E-2,2.5496377E-2,7.04769E-2,2.1317016E-1],"split_indices":[1303,1206,0,1297,939,1193,0,4592,0,0,0,0,0],"split_type":[0,0,0,0,0,0,0,0,0,0,0,0,0],"sum_hessian":[1.8732933E2,1.8572972E2,1.5996102E0,1.8093896E2,4.7907543E0,1.7914731E2,1.7916621E0,3.7288935E0,1.0618608E0,1.4527477E2,3.3872543E1,2.4995785E0,1.229315E0],"tree_param":{"num_deleted":"0","num_feature":"5134","num_nodes":"13","size_leaf_vector":"0"}},{"base_weights":[2.4920085E-2,2.5980033E-3,1.5225848E0,-9.341377E-2,3.0892995E-1,-2.6132712E-1,2.574491E-1,1.9610138E-1,1.3338299E0,-3.1657243E-1,4.1752398E-1,1.5623775E-1,1.7054629E0,4.598418E-2,8.788154E-1,2.1044278E0,-1.6506067E-1],"categories":[],"categories_nodes":[],"categories_segments":[],"categories_sizes":[],"default_left":[1,1,0,1,1,1,1,1,1,0,0,0,0,0,0,0,0],"id":14,"left_children":[1,3,-1,5,7,9,11,13,15,-1,-1,-1,-1,-1,-1,-1,-1],"loss_changes":[6.2915726E0,5.515578E0,0E0,8.48036E0,4.913107E0,3.7728825E0,6.581279E0,4.211114E0,5.2740593E0,0E0,0E0,0E0,0E0,0E0,0E0,0E0,0E0],"parents":[2147483647,0,0,1,1,3,3,4,4,5,5,6,6,7,7,8,8],"right_children":[2,4,-1,6,8,10,12,14,16,-1,-1,-1,-1,-1,-1,-1,-1],"split_conditions":[-9.536743E-7,-9.536743E-7,1.5225849E-1,-9.536743E-7,-9.536743E-7,-9.536743E-7,-9.536743E-7,-9.536743E-7,-9.536743E-7,-3.1657245E-2,4.1752398E-2,1.5623775E-2,1.705463E-1,4.598418E-3,8.788154E-2,2.1044278E-1,-1.6506067E-2],"split_indices":[3195,3,0,2,772,4599,3171,2208,4587,0,0,0,0,0,0,0,0],"split_type":[0,0,0,0,0,0,0,0,0,0,0,0,0,0,0,0,0],"sum_hessian":[1.8731412E2,1.8555031E2,1.7638171E0,1.418014E2,4.37489E1,9.607684E1,4.5724556E1,4.0483513E1,3.2653875E0,8.933997E1,6.736875E0,4.3772873E1,1.9516803E0,3.4061356E1,6.4221582E0,1.8898184E0,1.375569E0],"tree_param":{"num_deleted":"0","num_feature":"5134","num_nodes":"17","size_leaf_vector":"0"}},{"base_weights":[2.4876008E-2,-2.5209194E-2,6.1532736E-1,-1.323873E-1,2.8829435E-1,8.829557E-1,-6.8140316E-1,-2.1255612E-1,2.2690508E-1,1.537451E-1,1.4854753E0,1.1610179E0,-3.5752738E-1,-2.4592182E-1,6.6982603E-1,4.665899E-1,-6.498757E-1,-1.8839844E-2,1.1976601E0,1.9661814E0,-3.1128129E-2,1.465038E0,-4.4108253E-2,-1.25335045E-2,-5.212947E-1],"categories":[],"categories_nodes":[],"categories_segments":[],"categories_sizes":[],"default_left":[1,1,1,1,1,1,0,1,1,1,1,1,1,0,0,0,0,0,0,0,0,0,0,0,0],"id":15,"left_children":[1,3,5,7,9,11,-1,13,15,17,19,21,23,-1,-1,-1,-1,-1,-1,-1,-1,-1,-1,-1,-1],"loss_changes":[5.5836697E0,5.9023E0,5.7246523E0,3.8142278E0,6.9845467E0,4.786086E0,0E0,3.3270283E0,5.41724E0,7.475937E0,3.2753172E0,3.94355E0,1.6776213E-1,0E0,0E0,0E0,0E0,0E0,0E0,0E0,0E0,0E0,0E0,0E0,0E0],"parents":[2147483647,0,0,1,1,2,2,3,3,4,4,5,5,7,7,8,8,9,9,10,10,11,11,12,12],"right_children":[2,4,6,8,10,12,-1,14,16,18,20,22,24,-1,-1,-1,-1,-1,-1,-1,-1,-1,-1,-1,-1],"split_conditions":[-9.536743E-7,-9.536743E-7,-9.536743E-7,-9.536743E-7,-9.536743E-7,-9.536743E-7,-6.814032E-2,-9.536743E-7,-9.536743E-7,-9.536743E-7,-9.536743E-7,-9.536743E-7,-9.536743E-7,-2.4592182E-2,6.6982605E-2,4.665899E-2,-6.498757E-2,-1.8839844E-3,1.1976601E-1,1.9661814E-1,-3.112813E-3,1.4650379E-1,-4.410825E-3,-1.2533505E-3,-5.2129474E-2],"split_indices":[1312,1823,2207,983,4589,771,0,814,4592,798,831,795,4515,0,0,0,0,0,0,0,0,0,0,0,0],"split_type":[0,0,0,0,0,0,0,0,0,0,0,0,0,0,0,0,0,0,0,0,0,0,0,0,0],"sum_hessian":[1.8728598E2,1.7352406E2,1.3761922E1,1.2974544E2,4.377862E1,1.1672052E1,2.0898688E0,1.0641049E2,2.3334946E1,4.0369934E1,3.4086895E0,9.587103E0,2.0849502E0,1.0322839E2,3.1820974E0,1.869276E1,4.6421866E0,3.548529E1,4.884643E0,2.3632052E0,1.0454843E0,7.4835396E0,2.1035626E0,1.0176631E0,1.0672871E0],"tree_param":{"num_deleted":"0","num_feature":"5134","num_nodes":"25","size_leaf_vector":"0"}},{"base_weights":[2.2970593E-2,2.0327405E-3,1.3211293E0,-2.792643E-2,8.413757E-1,-4.9683962E-2,1.2203796E0,1.2096351E0,-5.264559E-1,-3.8182694E-3,-4.81638E-1,4.8625553E-1,1.6047914E0],"categories":[],"categories_nodes":[],"categories_segments":[],"categories_sizes":[],"default_left":[1,1,0,1,1,1,0,1,0,0,0,0,0],"id":16,"left_children":[1,3,-1,5,7,9,-1,11,-1,-1,-1,-1,-1],"loss_changes":[5.1233735E0,4.7157493E0,0E0,4.9803295E0,3.8923497E0,3.5443866E0,0E0,7.6190424E-1,0E0,0E0,0E0,0E0,0E0],"parents":[2147483647,0,0,1,1,3,3,4,4,5,5,7,7],"right_children":[2,4,-1,6,8,10,-1,12,-1,-1,-1,-1,-1],"split_conditions":[-9.536743E-7,-9.536743E-7,1.3211294E-1,-9.536743E-7,-9.536743E-7,-9.536743E-7,1.2203796E-1,-9.536743E-7,-5.264559E-2,-3.8182695E-4,-4.81638E-2,4.8625555E-2,1.6047914E-1],"split_indices":[1303,1206,0,1297,939,3598,0,2182,0,0,0,0,0],"split_type":[0,0,0,0,0,0,0,0,0,0,0,0,0],"sum_hessian":[1.8759216E2,1.856002E2,1.9919584E0,1.8013719E2,5.4630165E0,1.77995E2,2.1421905E0,4.395324E0,1.0676922E0,1.6182135E2,1.6173655E1,2.3407853E0,2.0545392E0],"tree_param":{"num_deleted":"0","num_feature":"5134","num_nodes":"13","size_leaf_vector":"0"}},{"base_weights":[2.2141973E-2,1.9725307E-3,1.2130315E0,-4.9215738E-2,4.8054367E-1,-7.731839E-2,1.0059425E0,5.912847E-1,-5.602571E-1,-1.2361603E-1,4.485539E-1,1.5703648E0,8.3584204E-2,3.484528E-1,1.0498922E0],"categories":[],"categories_nodes":[],"categories_segments":[],"categories_sizes":[],"default_left":[1,1,0,1,1,1,1,1,0,0,0,0,0,0,0],"id":17,"left_children":[1,3,-1,5,7,9,11,13,-1,-1,-1,-1,-1,-1,-1],"loss_changes":[4.53048E0,4.5942073E0,0E0,5.102546E0,2.419857E0,4.0966563E0,2.194497E0,1.5122857E0,0E0,0E0,0E0,0E0,0E0,0E0,0E0],"parents":[2147483647,0,0,1,1,3,3,4,4,5,5,6,6,7,7],"right_children":[2,4,-1,6,8,10,12,14,-1,-1,-1,-1,-1,-1,-1],"split_conditions":[-9.536743E-7,-9.536743E-7,1.21303156E-1,-9.536743E-7,-9.536743E-7,-9.536743E-7,-9.536743E-7,-9.536743E-7,-5.602571E-2,-1.2361604E-2,4.485539E-2,1.5703648E-1,8.358421E-3,3.484528E-2,1.0498922E-1],"split_indices":[3195,832,0,659,879,4575,985,20,0,0,0,0,0,0,0],"split_type":[0,0,0,0,0,0,0,0,0,0,0,0,0,0,0],"sum_hessian":[1.8771576E2,1.8557445E2,2.1413162E0,1.684537E2,1.712075E1,1.6498625E2,3.4674537E0,1.586465E1,1.2561013E0,1.5233928E2,1.2646973E1,1.7152685E0,1.7521853E0,1.1523031E1,4.341618E0],"tree_param":{"num_deleted":"0","num_feature":"5134","num_nodes":"15","size_leaf_vector":"0"}},{"base_weights":[2.1555606E-2,5.2137766E-2,-7.355807E-1,-3.492562E-2,3.1757873E-1,-8.482714E-1,-1.5072289E-2,-1.8920885E-1,2.7955067E-1,2.3843825E-1,1.3854727E0,-2.5654134E-1,5.100521E-1,1.0966207E-1,1.0319664E0,1.4475578E-1,1.2499881E0],"categories":[],"categories_nodes":[],"categories_segments":[],"categories_sizes":[],"default_left":[1,1,1,1,1,0,0,1,1,1,0,0,0,0,0,0,0],"id":18,"left_children":[1,3,5,7,9,-1,-1,11,13,15,-1,-1,-1,-1,-1,-1,-1],"loss_changes":[4.4095263E0,4.2260356E0,5.8767605E-1,6.760044E0,3.4850535E0,0E0,0E0,4.5254254E0,5.7543983E0,3.916525E0,0E0,0E0,0E0,0E0,0E0,0E0,0E0],"parents":[2147483647,0,0,1,1,2,2,3,3,4,4,7,7,8,8,9,9],"right_children":[2,4,6,8,10,-1,-1,12,14,16,-1,-1,-1,-1,-1,-1,-1],"split_conditions":[-9.536743E-7,-9.536743E-7,-9.536743E-7,-9.536743E-7,-9.536743E-7,-8.482715E-2,-1.5072289E-3,-9.536743E-7,-9.536743E-7,-9.536743E-7,1.3854727E-1,-2.5654135E-2,5.100521E-2,1.0966207E-2,1.0319664E-1,1.4475578E-2,1.2499881E-1],"split_indices":[585,3,1233,2,2417,0,0,770,1029,814,0,0,0,0,0,0,0],"split_type":[0,0,0,0,0,0,0,0,0,0,0,0,0,0,0,0,0],"sum_hessian":[1.8778E2,1.8138467E2,6.3953295E0,1.3723926E2,4.4145405E1,5.3770165E0,1.0183129E0,9.2336815E1,4.4902447E1,4.2238438E1,1.9069672E0,8.480408E1,7.53274E0,3.756611E1,7.3363376E0,3.9704407E1,2.534033E0],"tree_param":{"num_deleted":"0","num_feature":"5134","num_nodes":"17","size_leaf_vector":"0"}},{"base_weights":[2.0398792E-2,4.839402E-2,-7.183708E-1,4.4002105E-3,5.1755315E-1,-8.364543E-1,-1.2626537E-2,-2.783654E-2,7.891309E-1,7.276805E-1,-6.5988404E-1,-5.469905E-2,8.679163E-1,-9.265896E-2,1.722538E0,9.088235E-1,-5.6903553E-1],"categories":[],"categories_nodes":[],"categories_segments":[],"categories_sizes":[],"default_left":[1,1,1,1,1,0,0,1,1,1,0,0,0,0,0,0,0],"id":19,"left_children":[1,3,5,7,9,-1,-1,11,13,15,-1,-1,-1,-1,-1,-1,-1],"loss_changes":[3.9423401E0,3.7743347E0,5.695722E-1,4.279385E0,4.3591714E0,0E0,0E0,3.960497E0,5.6534963E0,3.7538514E0,0E0,0E0,0E0,0E0,0E0,0E0,0E0],"parents":[2147483647,0,0,1,1,2,2,3,3,4,4,7,7,8,8,9,9],"right_children":[2,4,6,8,10,-1,-1,12,14,16,-1,-1,-1,-1,-1,-1,-1],"split_conditions":[-9.536743E-7,-9.536743E-7,-9.536743E-7,-9.536743E-7,-9.536743E-7,-8.3645426E-2,-1.2626537E-3,-9.536743E-7,-9.536743E-7,-9.536743E-7,-6.598841E-2,-5.4699047E-3,8.679163E-2,-9.265896E-3,1.722538E-1,9.088235E-2,-5.6903552E-2],"split_indices":[585,1312,798,814,2207,0,0,659,20,1276,0,0,0,0,0,0,0],"split_type":[0,0,0,0,0,0,0,0,0,0,0,0,0,0,0,0,0],"sum_hessian":[1.8793584E2,1.8197452E2,5.961321E0,1.6729625E2,1.4678262E1,4.948192E0,1.0131288E0,1.6162137E2,5.6748815E0,1.2779577E1,1.898685E0,1.5782726E2,3.7941074E0,3.3812983E0,2.2935832E0,1.1475637E1,1.3039393E0],"tree_param":{"num_deleted":"0","num_feature":"5134","num_nodes":"17","size_leaf_vector":"0"}},{"base_weights":[1.8355865E-2,3.4112164E-3,1.3205371E0,-8.501911E-2,2.5628382E-1,-1.3943113E-1,4.6869346E-1,1.2132212E-1,9.894318E-1,-1.6336182E-1,1.3748485E0,5.8723446E-3,1.4758018E0,-2.6657829E-2,9.0823823E-1,1.3262949E0,-5.236149E-1],"categories":[],"categories_nodes":[],"categories_segments":[],"categories_sizes":[],"default_left":[1,1,0,1,1,1,1,1,1,0,0,0,0,0,0,0,0],"id":20,"left_children":[1,3,-1,5,7,9,11,13,15,-1,-1,-1,-1,-1,-1,-1,-1],"loss_changes":[3.6789098E0,4.2286797E0,0E0,4.28749E0,4.7276564E0,4.8764043E0,5.9426723E0,4.975097E0,4.505409E0,0E0,0E0,0E0,0E0,0E0,0E0,0E0,0E0],"parents":[2147483647,0,0,1,1,3,3,4,4,5,5,6,6,7,7,8,8],"right_children":[2,4,-1,6,8,10,12,14,16,-1,-1,-1,-1,-1,-1,-1,-1],"split_conditions":[-9.536743E-7,-9.536743E-7,1.3205372E-1,-9.536743E-7,-9.536743E-7,-9.536743E-7,-9.536743E-7,-9.536743E-7,-9.536743E-7,-1.6336182E-2,1.3748485E-1,5.8723445E-4,1.4758019E-1,-2.665783E-3,9.082382E-2,1.326295E-1,-5.236149E-2],"split_indices":[636,1823,0,4575,4589,1703,4626,798,1278,0,0,0,0,0,0,0,0],"split_type":[0,0,0,0,0,0,0,0,0,0,0,0,0,0,0,0,0],"sum_hessian":[1.8827507E2,1.8713007E2,1.1450025E0,1.3913716E2,4.799291E1,1.2736909E2,1.1768068E1,4.1515923E1,6.4769864E0,1.26265785E2,1.1033027E0,8.751917E0,3.0161514E0,3.575778E1,5.7581434E0,5.398498E0,1.0784881E0],"tree_param":{"num_deleted":"0","num_feature":"5134","num_nodes":"17","size_leaf_vector":"0"}},{"base_weights":[1.8788032E-2,4.4462E-2,-7.0123917E-1,-6.501915E-2,2.0741688E-1,-8.2394683E-1,-1.9234065E-2,-1.1943054E-1,1.0175312E0,1.2534021E-1,8.736343E-1,-1.7125772E-1,7.184298E-1,1.9337187E0,3.557391E-1,2.613367E-1,-4.2302766E-1,4.2249423E-1,1.3625926E0],"categories":[],"categories_nodes":[],"categories_segments":[],"categories_sizes":[],"default_left":[1,1,1,1,1,0,0,1,1,1,1,0,0,0,0,0,0,0,0],"id":21,"left_children":[1,3,5,7,9,-1,-1,11,13,15,17,-1,-1,-1,-1,-1,-1,-1,-1],"loss_changes":[3.5275164E0,3.2883468E0,5.3409505E-1,6.6337276E0,3.9371839E0,0E0,0E0,4.7330065E0,2.5838323E0,5.111304E0,1.1779461E0,0E0,0E0,0E0,0E0,0E0,0E0,0E0,0E0],"parents":[2147483647,0,0,1,1,2,2,3,3,4,4,7,7,8,8,9,9,10,10],"right_children":[2,4,6,8,10,-1,-1,12,14,16,18,-1,-1,-1,-1,-1,-1,-1,-1],"split_conditions":[-9.536743E-7,-9.536743E-7,-9.536743E-7,-9.536743E-7,-9.536743E-7,-8.239468E-2,-1.9234065E-3,-9.536743E-7,-9.536743E-7,-9.536743E-7,-9.536743E-7,-1.7125772E-2,7.184298E-2,1.9337188E-1,3.557391E-2,2.6133671E-2,-4.230277E-2,4.2249423E-2,1.3625926E-1],"split_indices":[585,4617,1232,754,1232,0,0,1049,751,1301,4592,0,0,0,0,0,0,0,0],"split_type":[0,0,0,0,0,0,0,0,0,0,0,0,0,0,0,0,0,0,0],"sum_hessian":[1.8813481E2,1.8256342E2,5.5714035E0,1.0955795E2,7.3005455E1,4.5454526E0,1.025951E0,1.0516196E2,4.3959975E0,6.6055664E1,6.9497905E0,9.978519E1,5.3767695E0,1.0375988E0,3.3583984E0,5.3348534E1,1.2707132E1,4.5842123E0,2.3655784E0],"tree_param":{"num_deleted":"0","num_feature":"5134","num_nodes":"19","size_leaf_vector":"0"}},{"base_weights":[1.8178724E-2,4.1773096E-2,-6.834428E-1,6.2007662E-2,-7.8153425E-1,-8.1202555E-1,-8.114185E-3,1.0368406E-1,-3.7552008E-1,5.7279374E-2,5.903638E-1,-6.6069543E-1,-2.4546929E-2],"categories":[],"categories_nodes":[],"categories_segments":[],"categories_sizes":[],"default_left":[1,1,1,1,0,0,0,1,1,0,0,0,0],"id":22,"left_children":[1,3,5,7,-1,-1,-1,9,11,-1,-1,-1,-1],"loss_changes":[3.1607842E0,3.1137018E0,5.3295493E-1,3.3304415E0,0E0,0E0,0E0,3.7059903E0,1.5767207E0,0E0,0E0,0E0,0E0],"parents":[2147483647,0,0,1,1,2,2,3,3,7,7,8,8],"right_children":[2,4,6,8,-1,-1,-1,10,12,-1,-1,-1,-1],"split_conditions":[-9.536743E-7,-9.536743E-7,-9.536743E-7,-9.536743E-7,-7.8153424E-2,-8.120256E-2,-8.114185E-4,-9.536743E-7,-9.536743E-7,5.7279374E-3,5.903638E-2,-6.606954E-2,-2.454693E-3],"split_indices":[585,8,797,5,0,0,0,1312,4619,0,0,0,0],"split_type":[0,0,0,0,0,0,0,0,0,0,0,0,0],"sum_hessian":[1.8820953E2,1.8299614E2,5.213396E0,1.79509E2,3.4871385E0,4.2094917E0,1.0039041E0,1.6459375E2,1.491524E1,1.5128636E2,1.3307389E1,7.7421017E0,7.173138E0],"tree_param":{"num_deleted":"0","num_feature":"5134","num_nodes":"13","size_leaf_vector":"0"}},{"base_weights":[1.5106118E-2,3.4105547E-2,-7.823378E-1,-3.918259E-2,2.8252336E-1,-1.319288E-1,3.987103E-1,6.303694E-1,-2.6066673E-1,-1.7462516E-1,7.831766E-1,-3.6766358E-2,8.1009394E-1,2.3479077E-1,1.3989261E0,-4.4725E-1,1.118483E0],"categories":[],"categories_nodes":[],"categories_segments":[],"categories_sizes":[],"default_left":[1,1,0,1,1,1,1,1,1,0,0,0,0,0,0,0,0],"id":23,"left_children":[1,3,-1,5,7,9,11,13,15,-1,-1,-1,-1,-1,-1,-1,-1],"loss_changes":[2.9016123E0,3.402765E0,0E0,5.9306245E0,8.206212E0,4.8326902E0,4.606179E0,7.6488094E0,4.9578724E0,0E0,0E0,0E0,0E0,0E0,0E0,0E0,0E0],"parents":[2147483647,0,0,1,1,3,3,4,4,5,5,6,6,7,7,8,8],"right_children":[2,4,-1,6,8,10,12,14,16,-1,-1,-1,-1,-1,-1,-1,-1],"split_conditions":[-9.536743E-7,-9.536743E-7,-7.823378E-2,-9.536743E-7,-9.536743E-7,-9.536743E-7,-9.536743E-7,-9.536743E-7,-9.536743E-7,-1.7462516E-2,7.8317665E-2,-3.676636E-3,8.1009395E-2,2.3479078E-2,1.3989262E-1,-4.4725E-2,1.11848295E-1],"split_indices":[685,1029,0,1193,4592,1206,20,984,4607,0,0,0,0,0,0,0,0],"split_type":[0,0,0,0,0,0,0,0,0,0,0,0,0,0,0,0,0],"sum_hessian":[1.8875212E2,1.8529463E2,3.457489E0,1.4373288E2,4.1561752E1,1.19187546E2,2.4545338E1,2.5238878E1,1.6322874E1,1.14647575E2,4.539973E0,1.2365873E1,1.2179464E1,1.7524471E1,7.714407E0,1.4972915E1,1.3499591E0],"tree_param":{"num_deleted":"0","num_feature":"5134","num_nodes":"17","size_leaf_vector":"0"}},{"base_weights":[1.4136696E-2,-5.903631E-2,2.1740001E-1,-7.837569E-2,1.108282E0,2.980042E-1,-5.993045E-1,-1.2632158E-1,3.7209436E-1,5.858206E-2,6.580428E-1,-6.614356E-3,-7.529855E-1,-1.4923295E-1,1.1815807E0,-2.5213633E-2,1.1599344E0,-1.621418E-1,7.1010536E-1,3.827176E-1,1.9143834E0],"categories":[],"categories_nodes":[],"categories_segments":[],"categories_sizes":[],"default_left":[1,1,1,1,0,1,1,1,1,1,1,0,0,0,0,0,0,0,0,0,0],"id":24,"left_children":[1,3,5,7,-1,9,11,13,15,17,19,-1,-1,-1,-1,-1,-1,-1,-1,-1,-1],"loss_changes":[2.8371112E0,3.2566662E0,3.501494E0,3.0503716E0,0E0,3.9793491E0,4.3827748E-1,3.9647958E0,4.2957044E0,4.2988067E0,5.672886E0,0E0,0E0,0E0,0E0,0E0,0E0,0E0,0E0,0E0,0E0],"parents":[2147483647,0,0,1,1,2,2,3,3,5,5,6,6,7,7,8,8,9,9,10,10],"right_children":[2,4,6,8,-1,10,12,14,16,18,20,-1,-1,-1,-1,-1,-1,-1,-1,-1,-1],"split_conditions":[-9.536743E-7,-9.536743E-7,-9.536743E-7,-9.536743E-7,1.108282E-1,-9.536743E-7,-9.536743E-7,-9.536743E-7,-9.536743E-7,-9.536743E-7,-9.536743E-7,-6.614356E-4,-7.529855E-2,-1.4923296E-2,1.18158065E-1,-2.5213633E-3,1.1599344E-1,-1.621418E-2,7.101054E-2,3.8271762E-2,1.9143835E-1],"split_indices":[1823,636,707,4575,0,4585,4640,1703,4626,3,666,0,0,0,0,0,0,0,0,0,0],"split_type":[0,0,0,0,0,0,0,0,0,0,0,0,0,0,0,0,0,0,0,0,0],"sum_hessian":[1.8888792E2,1.3941081E2,4.9477108E1,1.3805644E2,1.3543723E0,4.56107E1,3.8664093E0,1.2542625E2,1.2630198E1,2.8092302E1,1.7518398E1,1.0108765E0,2.8555326E0,1.2413755E2,1.2886976E0,9.039547E0,3.5906506E0,2.154455E1,6.5477543E0,1.5439486E1,2.0789113E0],"tree_param":{"num_deleted":"0","num_feature":"5134","num_nodes":"21","size_leaf_vector":"0"}},{"base_weights":[1.4863297E-2,3.6708247E-2,-6.681645E-1,-3.5101797E-2,2.4777699E-1,-8.0092305E-1,-7.266863E-3,-1.691785E-1,2.1596359E-1,1.4536041E-1,1.3899602E0,-1.07217565E-1,-6.8779397E-1,8.866463E-2,7.690179E-1,4.79594E-2,1.2560233E0,1.8669277E0,2.875184E-1],"categories":[],"categories_nodes":[],"categories_segments":[],"categories_sizes":[],"default_left":[1,1,1,1,1,0,0,1,1,1,1,0,0,0,0,0,0,0,0],"id":25,"left_children":[1,3,5,7,9,-1,-1,11,13,15,17,-1,-1,-1,-1,-1,-1,-1,-1],"loss_changes":[2.8550174E0,2.8092442E0,5.1458216E-1,4.70687E0,5.2993393E0,0E0,0E0,2.850552E0,3.3631623E0,4.7295103E0,1.4367476E0,0E0,0E0,0E0,0E0,0E0,0E0,0E0,0E0],"parents":[2147483647,0,0,1,1,2,2,3,3,4,4,7,7,8,8,9,9,10,10],"right_children":[2,4,6,8,10,-1,-1,12,14,16,18,-1,-1,-1,-1,-1,-1,-1,-1],"split_conditions":[-9.536743E-7,-9.536743E-7,-9.536743E-7,-9.536743E-7,-9.536743E-7,-8.00923E-2,-7.2668627E-4,-9.536743E-7,-9.536743E-7,-9.536743E-7,-9.536743E-7,-1.0721757E-2,-6.87794E-2,8.866463E-3,7.6901786E-2,4.79594E-3,1.2560233E-1,1.8669277E-1,2.875184E-2],"split_indices":[585,2,1232,3,2718,0,0,2207,2208,1095,3284,0,0,0,0,0,0,0,0],"split_type":[0,0,0,0,0,0,0,0,0,0,0,0,0,0,0,0,0,0,0],"sum_hessian":[1.8870216E2,1.8377097E2,4.9312015E0,1.3774194E2,4.6029022E1,3.929906E0,1.0012954E0,9.0003456E1,4.7738483E1,4.3275856E1,2.753167E0,8.147596E1,8.527501E0,3.974949E1,7.9889965E0,4.074578E1,2.530073E0,1.4377024E0,1.3154646E0],"tree_param":{"num_deleted":"0","num_feature":"5134","num_nodes":"19","size_leaf_vector":"0"}},{"base_weights":[1.422614E-2,3.178304E-2,-7.667833E-1,5.2493844E-2,-6.476584E-1,7.022538E-2,-7.5615335E-1,-7.8500354E-1,-1.4751755E-2,3.1698372E-3,2.9289094E-1],"categories":[],"categories_nodes":[],"categories_segments":[],"categories_sizes":[],"default_left":[1,1,0,1,1,1,0,0,0,0,0],"id":26,"left_children":[1,3,-1,5,7,9,-1,-1,-1,-1,-1],"loss_changes":[2.6267903E0,2.6594758E0,0E0,2.662482E0,4.74689E-1,2.6716194E0,0E0,0E0,0E0,0E0,0E0],"parents":[2147483647,0,0,1,1,3,3,4,4,5,5],"right_children":[2,4,-1,6,8,10,-1,-1,-1,-1,-1],"split_conditions":[-9.536743E-7,-9.536743E-7,-7.667833E-2,-9.536743E-7,-9.536743E-7,-9.536743E-7,-7.561534E-2,-7.850035E-2,-1.4751755E-3,3.1698373E-4,2.9289095E-2],"split_indices":[8,585,0,685,984,1029,0,0,0,0,0],"split_type":[0,0,0,0,0,0,0,0,0,0,0],"sum_hessian":[1.8878995E2,1.8557751E2,3.2124317E0,1.8098349E2,4.594018E0,1.7799371E2,2.9897835E0,3.5773857E0,1.0166323E0,1.3757681E2,4.0416904E1],"tree_param":{"num_deleted":"0","num_feature":"5134","num_nodes":"11","size_leaf_vector":"0"}},{"base_weights":[1.1467856E-2,-1.482936E-2,2.4937894E0,-3.0120267E-2,9.2212915E-1,-5.2307002E-2,6.460589E-1,-1.0233256E-1,2.2456881E-1,1.0252246E0,-5.3516954E-1],"categories":[],"categories_nodes":[],"categories_segments":[],"categories_sizes":[],"default_left":[1,1,0,1,0,1,1,0,0,0,0],"id":27,"left_children":[1,3,-1,5,-1,7,9,-1,-1,-1,-1],"loss_changes":[1.2458711E1,2.7397022E0,0E0,2.8424683E0,0E0,2.546536E0,3.2461252E0,0E0,0E0,0E0,0E0],"parents":[2147483647,0,0,1,1,3,3,5,5,6,6],"right_children":[2,4,-1,6,-1,8,10,-1,-1,-1,-1],"split_conditions":[-9.536743E-7,-9.536743E-7,2.4937895E-1,-9.536743E-7,9.2212915E-2,-9.536743E-7,-9.536743E-7,-1.0233256E-2,2.2456883E-2,1.02522455E-1,-5.3516954E-2],"split_indices":[593,81,0,659,0,798,2228,0,0,0,0],"split_type":[0,0,0,0,0,0,0,0,0,0,0],"sum_hessian":[1.8928926E2,1.8828859E2,1.0006655E0,1.8621742E2,2.0711644E0,1.8119472E2,5.022703E0,1.5400052E2,2.719421E1,3.902196E0,1.1205072E0],"tree_param":{"num_deleted":"0","num_feature":"5134","num_nodes":"11","size_leaf_vector":"0"}},{"base_weights":[1.2037831E-2,-1.2928162E-2,2.0998962E0,-2.9488735E-2,7.9697603E-1,-4.3587524E-2,1.0689555E0,-4.5015637E-2,1.1243733E0,-6.137245E-2,8.140593E-1],"categories":[],"categories_nodes":[],"categories_segments":[],"categories_sizes":[],"default_left":[1,1,0,1,1,1,0,0,0,0,0],"id":28,"left_children":[1,3,-1,5,7,9,-1,-1,-1,-1,-1],"loss_changes":[9.938326E0,2.5569572E0,0E0,2.9281683E0,1.1038198E0,2.8667705E0,0E0,0E0,0E0,0E0,0E0],"parents":[2147483647,0,0,1,1,3,3,4,4,5,5],"right_children":[2,4,-1,6,8,10,-1,-1,-1,-1,-1],"split_conditions":[-9.536743E-7,-9.536743E-7,2.0998962E-1,-9.536743E-7,-9.536743E-7,-9.536743E-7,1.0689556E-1,-4.501564E-3,1.1243733E-1,-6.1372453E-3,8.140593E-2],"split_indices":[594,1303,0,636,985,1297,0,0,0,0,0],"split_type":[0,0,0,0,0,0,0,0,0,0,0],"sum_hessian":[1.8914084E2,1.8788794E2,1.2529005E0,1.8506735E2,2.820588E0,1.8367021E2,1.397131E0,1.0311663E0,1.7894218E0,1.8084842E2,2.8217933E0],"tree_param":{"num_deleted":"0","num_feature":"5134","num_nodes":"11","size_leaf_vector":"0"}},{"base_weights":[1.316583E-2,-1.029259E-2,1.7498732E0,-7.926309E-2,1.7622924E-1,-1.1496945E-1,7.990589E-1,6.736742E-2,6.331001E-1,-1.3773188E-1,1.3803972E0,-1.0746958E-1,1.0851463E0,1.3457113E-3,1.3252084E0,2.5922877E-1,1.8923757E0],"categories":[],"categories_nodes":[],"categories_segments":[],"categories_sizes":[],"default_left":[1,1,0,1,1,1,1,1,1,0,0,0,0,0,0,0,0],"id":29,"left_children":[1,3,-1,5,7,9,11,13,15,-1,-1,-1,-1,-1,-1,-1,-1],"loss_changes":[7.7546325E0,2.4371743E0,0E0,4.42619E0,2.5017967E0,4.7403398E0,1.5494354E0,3.5221379E0,4.0881853E0,0E0,0E0,0E0,0E0,0E0,0E0,0E0,0E0],"parents":[2147483647,0,0,1,1,3,3,4,4,5,5,6,6,7,7,8,8],"right_children":[2,4,-1,6,8,10,12,14,16,-1,-1,-1,-1,-1,-1,-1,-1],"split_conditions":[-9.536743E-7,-9.536743E-7,1.7498732E-1,-9.536743E-7,-9.536743E-7,-9.536743E-7,-9.536743E-7,-9.536743E-7,-9.536743E-7,-1.3773188E-2,1.3803972E-1,-1.0746959E-2,1.0851463E-1,1.3457114E-4,1.3252084E-1,2.5922878E-2,1.8923758E-1],"split_indices":[594,3,0,1095,2208,810,2,1302,1301,0,0,0,0,0,0,0,0],"split_type":[0,0,0,0,0,0,0,0,0,0,0,0,0,0,0,0,0],"sum_hessian":[1.8890044E2,1.8736371E2,1.5367252E0,1.3720444E2,5.0159275E1,1.3267972E2,4.524715E0,4.1433968E1,8.725308E0,1.3158464E2,1.0950837E0,1.2351688E0,3.2895463E0,4.0318783E1,1.1151872E0,7.657653E0,1.0676552E0],"tree_param":{"num_deleted":"0","num_feature":"5134","num_nodes":"17","size_leaf_vector":"0"}},{"base_weights":[1.5294263E-2,-6.6526956E-3,1.4701339E0,-4.774072E-2,2.90658E-1,-7.781994E-2,6.07764E-1,1.4993973E-1,1.378817E0,-1.20945506E-1,5.0698847E-1,-1.3144852E-1,1.324833E0,-5.5659073E-3,1.2539096E0],"categories":[],"categories_nodes":[],"categories_segments":[],"categories_sizes":[],"default_left":[1,1,0,1,1,1,1,1,0,0,0,0,0,0,0],"id":30,"left_children":[1,3,-1,5,7,9,11,13,-1,-1,-1,-1,-1,-1,-1],"loss_changes":[6.0590496E0,2.3060465E0,0E0,3.314696E0,3.303457E0,4.079655E0,4.0881763E0,3.6843832E0,0E0,0E0,0E0,0E0,0E0,0E0,0E0],"parents":[2147483647,0,0,1,1,3,3,4,4,5,5,6,6,7,7],"right_children":[2,4,-1,6,8,10,12,14,-1,-1,-1,-1,-1,-1,-1],"split_conditions":[-9.536743E-7,-9.536743E-7,1.470134E-1,-9.536743E-7,-9.536743E-7,-9.536743E-7,-9.536743E-7,-9.536743E-7,1.378817E-1,-1.2094551E-2,5.0698847E-2,-1.3144853E-2,1.324833E-1,-5.5659073E-4,1.2539096E-1],"split_indices":[594,1232,0,814,658,770,20,667,0,0,0,0,0,0,0],"split_type":[0,0,0,0,0,0,0,0,0,0,0,0,0,0,0],"sum_hessian":[1.8845824E2,1.8663814E2,1.8200992E0,1.6471422E2,2.1923908E1,1.5833018E2,6.384035E0,2.0420914E1,1.5029944E0,1.4819502E2,1.0135166E1,3.5456154E0,2.8384194E0,1.8771685E1,1.6492288E0],"tree_param":{"num_deleted":"0","num_feature":"5134","num_nodes":"15","size_leaf_vector":"0"}},{"base_weights":[1.6278615E-2,-4.1587753E-3,1.246027E0,1.17930565E-2,-7.4988455E-1,3.0525388E-2,-6.2728727E-1,4.6619233E-2,-7.3955905E-1,-7.698619E-1,-1.0584006E-2],"categories":[],"categories_nodes":[],"categories_segments":[],"categories_sizes":[],"default_left":[1,1,0,1,0,1,1,0,0,0,0],"id":31,"left_children":[1,3,-1,5,-1,7,9,-1,-1,-1,-1],"loss_changes":[4.760864E0,2.2348268E0,0E0,2.2241805E0,0E0,2.264079E0,4.5711756E-1,0E0,0E0,0E0,0E0],"parents":[2147483647,0,0,1,1,3,3,5,5,6,6],"right_children":[2,4,-1,6,-1,8,10,-1,-1,-1,-1],"split_conditions":[-9.536743E-7,-9.536743E-7,1.246027E-1,-9.536743E-7,-7.4988455E-2,-9.536743E-7,-9.536743E-7,4.6619233E-3,-7.395591E-2,-7.6986186E-2,-1.0584006E-3],"split_indices":[594,8,0,585,0,685,1231,0,0,0,0],"split_type":[0,0,0,0,0,0,0,0,0,0,0],"sum_hessian":[1.8822177E2,1.8612515E2,2.0966263E0,1.831907E2,2.9344492E0,1.7889915E2,4.2915473E0,1.7615714E2,2.7420113E0,3.283979E0,1.0075682E0],"tree_param":{"num_deleted":"0","num_feature":"5134","num_nodes":"11","size_leaf_vector":"0"}},{"base_weights":[1.387707E-2,-5.068052E-3,1.0650637E0,-7.0609406E-2,1.6846347E-1,-8.8217266E-2,8.416192E-1,6.1624795E-2,6.8289226E-1,-1.3130666E-1,2.7683517E-1,1.9482324E-1,-5.2885944E-1,9.2274344E-1,-5.269389E-1],"categories":[],"categories_nodes":[],"categories_segments":[],"categories_sizes":[],"default_left":[1,1,0,1,1,1,0,1,1,0,0,0,0,0,0],"id":32,"left_children":[1,3,-1,5,7,9,-1,11,13,-1,-1,-1,-1,-1,-1],"loss_changes":[3.7822838E0,2.1420295E0,0E0,2.2691555E0,2.7961173E0,2.1593585E0,0E0,3.5526156E0,3.0343947E0,0E0,0E0,0E0,0E0,0E0,0E0],"parents":[2147483647,0,0,1,1,3,3,4,4,5,5,7,7,8,8],"right_children":[2,4,-1,6,8,10,-1,12,14,-1,-1,-1,-1,-1,-1],"split_conditions":[-9.536743E-7,-9.536743E-7,1.0650637E-1,-9.536743E-7,-9.536743E-7,-9.536743E-7,8.416192E-2,-9.536743E-7,-9.536743E-7,-1.3130667E-2,2.7683517E-2,1.9482324E-2,-5.2885946E-2,9.2274345E-2,-5.2693892E-2],"split_indices":[594,1823,0,636,4589,4575,0,939,1278,0,0,0,0,0,0],"split_type":[0,0,0,0,0,0,0,0,0,0,0,0,0,0,0],"sum_hessian":[1.8865164E2,1.862894E2,2.3622415E0,1.3564903E2,5.0640366E1,1.339665E2,1.6825293E0,4.2859024E1,7.781344E0,1.2039576E2,1.3570748E1,3.5517277E1,7.341746E0,6.691949E0,1.0893948E0],"tree_param":{"num_deleted":"0","num_feature":"5134","num_nodes":"15","size_leaf_vector":"0"}},{"base_weights":[1.3180078E-2,-4.360573E-3,9.174553E-1,1.0448226E-2,-7.355936E-1,3.4570795E-2,-4.5688418E-1,6.914499E-2,-3.4018058E-1,-8.379585E-1,2.3024131E-1],"categories":[],"categories_nodes":[],"categories_segments":[],"categories_sizes":[],"default_left":[1,1,0,1,0,1,1,0,0,0,0],"id":33,"left_children":[1,3,-1,5,-1,7,9,-1,-1,-1,-1],"loss_changes":[3.0130575E0,2.0336542E0,0E0,2.094189E0,0E0,2.3070834E0,2.580892E0,0E0,0E0,0E0,0E0],"parents":[2147483647,0,0,1,1,3,3,5,5,6,6],"right_children":[2,4,-1,6,-1,8,10,-1,-1,-1,-1],"split_conditions":[-9.536743E-7,-9.536743E-7,9.174553E-2,-9.536743E-7,-7.3559366E-2,-9.536743E-7,-9.536743E-7,6.9144988E-3,-3.401806E-2,-8.379585E-2,2.3024132E-2],"split_indices":[594,8,0,6,0,5,4589,0,0,0,0],"split_type":[0,0,0,0,0,0,0,0,0,0,0],"sum_hessian":[1.8870732E2,1.8609276E2,2.6145508E0,1.83365E2,2.7277632E0,1.7524529E2,8.119713E0,1.6118959E2,1.40557E1,5.0818477E0,3.037865E0],"tree_param":{"num_deleted":"0","num_feature":"5134","num_nodes":"11","size_leaf_vector":"0"}},{"base_weights":[1.1223049E-2,-4.9822154E-3,7.9577184E-1,9.709321E-3,-7.361133E-1,-5.4859675E-2,2.1165326E-1,-1.3838851E-1,3.1141353E-1,5.0075454E-1,-2.7047968E-1],"categories":[],"categories_nodes":[],"categories_segments":[],"categories_sizes":[],"default_left":[1,1,0,1,0,1,1,0,0,0,0],"id":34,"left_children":[1,3,-1,5,-1,7,9,-1,-1,-1,-1],"loss_changes":[2.4201949E0,2.0178933E0,0E0,2.417297E0,0E0,4.3443823E0,6.3944006E0,0E0,0E0,0E0,0E0],"parents":[2147483647,0,0,1,1,3,3,5,5,6,6],"right_children":[2,4,-1,6,-1,8,10,-1,-1,-1,-1],"split_conditions":[-9.536743E-7,-9.536743E-7,7.9577185E-2,-9.536743E-7,-7.3611334E-2,-9.536743E-7,-9.536743E-7,-1.3838852E-2,3.1141354E-2,5.0075453E-2,-2.7047968E-2],"split_indices":[594,685,0,1029,0,1193,4592,0,0,0,0],"split_type":[0,0,0,0,0,0,0,0,0,0,0],"sum_hessian":[1.8904753E2,1.8619522E2,2.8523097E0,1.8349475E2,2.7004707E0,1.3959073E2,4.3904015E1,1.1417518E2,2.5415554E1,2.7422213E1,1.64818E1],"tree_param":{"num_deleted":"0","num_feature":"5134","num_nodes":"11","size_leaf_vector":"0"}},{"base_weights":[9.91997E-3,2.7054876E-2,-6.148404E-1,-3.560433E-2,2.0501177E-1,-7.6017195E-1,-1.09283505E-2,-5.670847E-2,8.9743716E-1,1.13101065E-1,1.1662732E0,-8.8120535E-2,5.2292186E-1,3.1693157E-2,1.1785711E0,1.550041E0,2.415804E-1],"categories":[],"categories_nodes":[],"categories_segments":[],"categories_sizes":[],"default_left":[1,1,1,1,1,0,0,1,0,1,1,0,0,0,0,0,0],"id":35,"left_children":[1,3,5,7,9,-1,-1,11,-1,13,15,-1,-1,-1,-1,-1,-1],"loss_changes":[2.0534027E0,2.0828626E0,4.4114828E-1,2.778454E0,4.1637335E0,0E0,0E0,2.5294712E0,0E0,3.9078975E0,1.0931811E0,0E0,0E0,0E0,0E0,0E0,0E0],"parents":[2147483647,0,0,1,1,2,2,3,3,4,4,7,7,9,9,10,10],"right_children":[2,4,6,8,10,-1,-1,12,-1,14,16,-1,-1,-1,-1,-1,-1],"split_conditions":[-9.536743E-7,-9.536743E-7,-9.536743E-7,-9.536743E-7,-9.536743E-7,-7.601719E-2,-1.0928351E-3,-9.536743E-7,8.974372E-2,-9.536743E-7,-9.536743E-7,-8.812054E-3,5.2292187E-2,3.1693156E-3,1.1785711E-1,1.550041E-1,2.415804E-2],"split_indices":[585,2,983,1297,2718,0,0,955,0,3171,3284,0,0,0,0,0,0],"split_type":[0,0,0,0,0,0,0,0,0,0,0,0,0,0,0,0,0],"sum_hessian":[1.892595E2,1.8513853E2,4.120981E0,1.3751794E2,4.7620594E1,3.1130733E0,1.0079079E0,1.3539471E2,2.1232235E0,4.4484848E1,3.1357458E0,1.2923882E2,6.155903E0,4.2283867E1,2.2009797E0,1.7381138E0,1.397632E0],"tree_param":{"num_deleted":"0","num_feature":"5134","num_nodes":"17","size_leaf_vector":"0"}},{"base_weights":[1.0450714E-2,-4.5006876E-3,6.943996E-1,-2.0955982E-2,6.156733E-1,-8.495968E-2,1.4363828E-1,1.5768065E0,-1.8029846E-1,-1.0634293E-1,1.1768041E0,4.189605E-2,5.522953E-1,-6.013758E-1,3.8732302E-1],"categories":[],"categories_nodes":[],"categories_segments":[],"categories_sizes":[],"default_left":[1,1,0,1,1,1,1,0,1,0,0,0,0,0,0],"id":36,"left_children":[1,3,-1,5,7,9,11,-1,13,-1,-1,-1,-1,-1,-1],"loss_changes":[1.9475281E0,1.9219687E0,0E0,1.9421588E0,4.0086308E0,3.701044E0,2.1249676E0,0E0,1.0838783E0,0E0,0E0,0E0,0E0,0E0,0E0],"parents":[2147483647,0,0,1,1,3,3,4,4,5,5,6,6,8,8],"right_children":[2,4,-1,6,8,10,12,-1,14,-1,-1,-1,-1,-1,-1],"split_conditions":[-9.536743E-7,-9.536743E-7,6.943996E-2,-9.536743E-7,-9.536743E-7,-9.536743E-7,-9.536743E-7,1.5768066E-1,-9.536743E-7,-1.0634293E-2,1.1768041E-1,4.189605E-3,5.5229533E-2,-6.013758E-2,3.87323E-2],"split_indices":[594,3685,0,3,1126,966,2208,0,81,0,0,0,0,0,0],"split_type":[0,0,0,0,0,0,0,0,0,0,0,0,0,0,0],"sum_hessian":[1.8914316E2,1.8606903E2,3.0741253E0,1.8220084E2,3.8681893E0,1.3153593E2,5.06649E1,1.3079097E0,2.5602796E0,1.3024438E2,1.291547E0,4.144818E1,9.21672E0,1.4357411E0,1.1245387E0],"tree_param":{"num_deleted":"0","num_feature":"5134","num_nodes":"15","size_leaf_vector":"0"}},{"base_weights":[1.1073858E-2,2.4698373E-2,-7.2067165E-1,4.0789843E-2,-5.916249E-1,7.230512E-3,3.5885188E-1,-7.3428357E-1,-6.27089E-2,-1.6991574E-2,6.698214E-1,5.7834756E-1,-3.6624384E-1],"categories":[],"categories_nodes":[],"categories_segments":[],"categories_sizes":[],"default_left":[1,1,0,1,1,1,1,0,0,0,0,0,0],"id":37,"left_children":[1,3,-1,5,7,9,11,-1,-1,-1,-1,-1,-1],"loss_changes":[1.911889E0,1.883466E0,0E0,1.9576161E0,3.187616E-1,2.6938283E0,2.9981115E0,0E0,0E0,0E0,0E0,0E0,0E0],"parents":[2147483647,0,0,1,1,3,3,4,4,5,5,6,6],"right_children":[2,4,-1,6,8,10,12,-1,-1,-1,-1,-1,-1],"split_conditions":[-9.536743E-7,-9.536743E-7,-7.2067164E-2,-9.536743E-7,-9.536743E-7,-9.536743E-7,-9.536743E-7,-7.3428355E-2,-6.27089E-3,-1.6991574E-3,6.698214E-2,5.7834756E-2,-3.6624383E-2],"split_indices":[685,585,0,2219,1029,659,1282,0,0,0,0,0,0],"split_type":[0,0,0,0,0,0,0,0,0,0,0,0,0],"sum_hessian":[1.8898502E2,1.8647917E2,2.5058455E0,1.8264436E2,3.83481E0,1.661376E2,1.6506762E1,2.7144039E0,1.1204062E0,1.6121837E2,4.919244E0,1.2826424E1,3.680337E0],"tree_param":{"num_deleted":"0","num_feature":"5134","num_nodes":"13","size_leaf_vector":"0"}},{"base_weights":[9.355231E-3,-9.761582E-4,9.7852033E-1,-1.1423727E-2,9.796893E-1,-2.4705386E-2,7.211587E-1,-3.559505E-2,9.9308026E-1,1.0729353E0,-4.4918537E-2],"categories":[],"categories_nodes":[],"categories_segments":[],"categories_sizes":[],"default_left":[1,1,0,1,0,1,1,0,0,0,0],"id":38,"left_children":[1,3,-1,5,-1,7,9,-1,-1,-1,-1],"loss_changes":[1.9062427E0,1.9504393E0,0E0,1.8496665E0,0E0,2.0955684E0,9.6058965E-1,0E0,0E0,0E0,0E0],"parents":[2147483647,0,0,1,1,3,3,5,5,6,6],"right_children":[2,4,-1,6,-1,8,10,-1,-1,-1,-1],"split_conditions":[-9.536743E-7,-9.536743E-7,9.785204E-2,-9.536743E-7,9.796893E-2,-9.536743E-7,-9.536743E-7,-3.5595049E-3,9.930803E-2,1.0729354E-1,-4.491854E-3],"split_indices":[1248,855,0,81,0,4962,1028,0,0,0,0],"split_type":[0,0,0,0,0,0,0,0,0,0,0],"sum_hessian":[1.8928477E2,1.8827672E2,1.0080544E0,1.8726997E2,1.006739E0,1.8488432E2,2.385661E0,1.8388193E2,1.0023934E0,1.3604127E0,1.0252483E0],"tree_param":{"num_deleted":"0","num_feature":"5134","num_nodes":"11","size_leaf_vector":"0"}},{"base_weights":[1.0385281E-2,2.397569E-2,-7.186498E-1,4.5936383E-2,-4.3174982E-1,7.6724775E-2,-3.1194562E-1,-8.255402E-1,2.2386599E-1,5.935454E-2,8.158669E-1,-6.073668E-1,1.1234972E-2,7.187385E-1,-5.416966E-1],"categories":[],"categories_nodes":[],"categories_segments":[],"categories_sizes":[],"default_left":[1,1,0,1,1,1,1,0,1,0,0,0,0,0,0],"id":39,"left_children":[1,3,-1,5,7,9,11,-1,13,-1,-1,-1,-1,-1,-1],"loss_changes":[1.9004169E0,1.8969308E0,0E0,2.0055213E0,2.4357927E0,2.0879536E0,1.3857957E0,0E0,1.9268926E0,0E0,0E0,0E0,0E0,0E0,0E0],"parents":[2147483647,0,0,1,1,3,3,4,4,5,5,6,6,8,8],"right_children":[2,4,-1,6,8,10,12,-1,14,-1,-1,-1,-1,-1,-1],"split_conditions":[-9.536743E-7,-9.536743E-7,-7.1864985E-2,-9.536743E-7,-9.536743E-7,-9.536743E-7,-9.536743E-7,-8.255402E-2,-9.536743E-7,5.9354543E-3,8.158669E-2,-6.0736682E-2,1.1234971E-3,7.187385E-2,-5.4169662E-2],"split_indices":[8,6,0,5,4589,1303,4619,0,1128,0,0,0,0,0,0],"split_type":[0,0,0,0,0,0,0,0,0,0,0,0,0,0,0],"sum_hessian":[1.8906947E2,1.8655884E2,2.5106497E0,1.7884001E2,7.7188168E0,1.6539665E2,1.3443369E1,4.660401E0,3.0584154E0,1.6265448E2,2.7421665E0,6.5639153E0,6.8794537E0,1.8947685E0,1.163647E0],"tree_param":{"num_deleted":"0","num_feature":"5134","num_nodes":"15","size_leaf_vector":"0"}},{"base_weights":[8.492763E-3,-1.7025525E-3,9.465776E-1,-1.1790885E-2,9.1674656E-1,-2.193272E-2,9.0590394E-1,-6.0108785E-2,2.4392639E-1],"categories":[],"categories_nodes":[],"categories_segments":[],"categories_sizes":[],"default_left":[1,1,0,1,0,1,0,0,0],"id":40,"left_children":[1,3,-1,5,-1,7,-1,-1,-1],"loss_changes":[1.8224207E0,1.7650828E0,0E0,1.7720416E0,0E0,1.91444E0,0E0,0E0,0E0],"parents":[2147483647,0,0,1,1,3,3,5,5],"right_children":[2,4,-1,6,-1,8,-1,-1,-1],"split_conditions":[-9.536743E-7,-9.536743E-7,9.4657764E-2,-9.536743E-7,9.1674656E-2,-9.536743E-7,9.0590395E-2,-6.0108784E-3,2.439264E-2],"split_indices":[611,856,0,1248,0,1232,0,0,0],"split_type":[0,0,0,0,0,0,0,0,0],"sum_hessian":[1.8938013E2,1.8833148E2,1.0486436E0,1.8726175E2,1.0697386E0,1.8618028E2,1.0814573E0,1.6347935E2,2.2700928E1],"tree_param":{"num_deleted":"0","num_feature":"5134","num_nodes":"9","size_leaf_vector":"0"}},{"base_weights":[9.08136E-3,-1.2234488E-3,9.65774E-1,1.1241595E-2,-7.037513E-1,7.177656E-4,9.762345E-1,-3.0835958E-2,2.8915805E-1],"categories":[],"categories_nodes":[],"categories_segments":[],"categories_sizes":[],"default_left":[1,1,0,1,0,1,0,0,0],"id":41,"left_children":[1,3,-1,5,-1,7,-1,-1,-1],"loss_changes":[1.8767301E0,1.6648972E0,0E0,1.8973784E0,0E0,1.7007464E0,0E0,0E0,0E0],"parents":[2147483647,0,0,1,1,3,3,5,5],"right_children":[2,4,-1,6,-1,8,-1,-1,-1],"split_conditions":[-9.536743E-7,-9.536743E-7,9.65774E-2,-9.536743E-7,-7.037514E-2,-9.536743E-7,9.762345E-2,-3.0835958E-3,2.8915806E-2],"split_indices":[612,685,0,2588,0,2219,0,0,0],"split_type":[0,0,0,0,0,0,0,0,0],"sum_hessian":[1.8924619E2,1.8821756E2,1.0286238E0,1.8590306E2,2.314504E0,1.848875E2,1.0155659E0,1.6746127E2,1.7426216E1],"tree_param":{"num_deleted":"0","num_feature":"5134","num_nodes":"9","size_leaf_vector":"0"}},{"base_weights":[8.8366065E-3,-1.5769306E-3,9.8726636E-1,1.0901072E-2,-7.025234E-1,2.5915211E-2,-5.786293E-1,3.839391E-2,-6.9201535E-1,-7.2006226E-1,-7.8655064E-2],"categories":[],"categories_nodes":[],"categories_segments":[],"categories_sizes":[],"default_left":[1,1,0,1,0,1,1,0,0,0,0],"id":42,"left_children":[1,3,-1,5,-1,7,9,-1,-1,-1,-1],"loss_changes":[1.9403574E0,1.6631775E0,0E0,1.6697794E0,0E0,1.6684381E0,2.7472055E-1,0E0,0E0,0E0,0E0],"parents":[2147483647,0,0,1,1,3,3,5,5,6,6],"right_children":[2,4,-1,6,-1,8,10,-1,-1,-1,-1],"split_conditions":[-9.536743E-7,-9.536743E-7,9.872664E-2,-9.536743E-7,-7.0252344E-2,-9.536743E-7,-9.536743E-7,3.839391E-3,-6.920154E-2,-7.2006226E-2,-7.865506E-3],"split_indices":[609,8,0,585,0,1855,1029,0,0,0,0],"split_type":[0,0,0,0,0,0,0,0,0,0,0],"sum_hessian":[1.8928531E2,1.8827982E2,1.0054948E0,1.8595398E2,2.3258393E0,1.8226802E2,3.6859543E0,1.8008441E2,2.1836135E0,2.530053E0,1.1559014E0],"tree_param":{"num_deleted":"0","num_feature":"5134","num_nodes":"11","size_leaf_vector":"0"}},{"base_weights":[7.2061974E-3,-2.651556E-3,8.9040637E-1,1.7266767E-2,-4.2836496E-1,-2.699631E-3,8.6354744E-1,-8.419691E-1,3.9318797E-1,-1.717138E-2,7.4549466E-1,1.6961226E0,-3.2838263E-2,-1.957108E-1,9.0877545E-1],"categories":[],"categories_nodes":[],"categories_segments":[],"categories_sizes":[],"default_left":[1,1,0,1,1,1,1,0,1,0,0,0,0,0,0],"id":43,"left_children":[1,3,-1,5,7,9,11,-1,13,-1,-1,-1,-1,-1,-1],"loss_changes":[1.6616353E0,1.6140493E0,0E0,3.0770657E0,3.2219415E0,1.9484653E0,3.1882064E0,0E0,1.2498331E0,0E0,0E0,0E0,0E0,0E0,0E0],"parents":[2147483647,0,0,1,1,3,3,4,4,5,5,6,6,8,8],"right_children":[2,4,-1,6,8,10,12,-1,14,-1,-1,-1,-1,-1,-1],"split_conditions":[-9.536743E-7,-9.536743E-7,8.904064E-2,-9.536743E-7,-9.536743E-7,-9.536743E-7,-9.536743E-7,-8.419691E-2,-9.536743E-7,-1.717138E-3,7.454947E-2,1.6961227E-1,-3.2838264E-3,-1.9571079E-2,9.087755E-2],"split_indices":[609,2344,0,3685,3225,369,1126,0,1195,0,0,0,0,0,0],"split_type":[0,0,0,0,0,0,0,0,0,0,0,0,0,0,0],"sum_hessian":[1.8958165E2,1.88475E2,1.1066477E0,1.8096733E2,7.5076776E0,1.7776999E2,3.1973379E0,4.977131E0,2.5305467E0,1.7535527E2,2.4147131E0,1.1951174E0,2.0022206E0,1.4709055E0,1.0596411E0],"tree_param":{"num_deleted":"0","num_feature":"5134","num_nodes":"15","size_leaf_vector":"0"}},{"base_weights":[7.893738E-3,-2.1643755E-3,9.2428267E-1,-1.5862605E-2,5.860162E-1,-2.5539896E-2,8.025221E-1,7.0598006E-1,1.9852223E-1,-8.444512E-2,1.2379325E-1],"categories":[],"categories_nodes":[],"categories_segments":[],"categories_sizes":[],"default_left":[1,1,0,1,1,1,0,0,0,0,0],"id":44,"left_children":[1,3,-1,5,7,9,-1,-1,-1,-1,-1],"loss_changes":[1.7571201E0,1.5348897E0,0E0,1.4936771E0,6.1397195E-2,1.6361256E0,0E0,0E0,0E0,0E0,0E0],"parents":[2147483647,0,0,1,1,3,3,4,4,5,5],"right_children":[2,4,-1,6,8,10,-1,-1,-1,-1,-1],"split_conditions":[-9.536743E-7,-9.536743E-7,9.242827E-2,-9.536743E-7,-9.536743E-7,-9.536743E-7,8.0252215E-2,7.0598006E-2,1.9852223E-2,-8.444512E-3,1.2379325E-2],"split_indices":[610,594,0,2588,4642,1823,0,0,0,0,0],"split_type":[0,0,0,0,0,0,0,0,0,0,0],"sum_hessian":[1.8941904E2,1.8834938E2,1.0696496E0,1.850136E2,3.3357794E0,1.8380888E2,1.2047234E0,1.9195848E0,1.4161946E0,1.3212573E2,5.168315E1],"tree_param":{"num_deleted":"0","num_feature":"5134","num_nodes":"11","size_leaf_vector":"0"}},{"base_weights":[8.396669E-3,2.2764537E-2,-5.768853E-1,-3.5069164E-2,1.7685783E-1,-1.06585436E-1,-7.1571743E-1,1.0125583E-2,-4.0455928E-1,2.3282501E-1,-7.097208E-1,-2.5671747E-2,7.624733E-1,-5.831892E-1,2.1557297E-1,1.20539956E-1,8.393803E-1],"categories":[],"categories_nodes":[],"categories_segments":[],"categories_sizes":[],"default_left":[1,1,1,1,1,0,0,1,1,1,0,0,0,0,0,0,0],"id":45,"left_children":[1,3,5,7,9,-1,-1,11,13,15,-1,-1,-1,-1,-1,-1,-1],"loss_changes":[1.6134874E0,1.67013E0,2.2392082E-1,2.285066E0,2.7016737E0,0E0,0E0,3.3236494E0,1.7774866E0,3.2248669E0,0E0,0E0,0E0,0E0,0E0,0E0,0E0],"parents":[2147483647,0,0,1,1,2,2,3,3,4,4,7,7,8,8,9,9],"right_children":[2,4,6,8,10,-1,-1,12,14,16,-1,-1,-1,-1,-1,-1,-1],"split_conditions":[-9.536743E-7,-9.536743E-7,-9.536743E-7,-9.536743E-7,-9.536743E-7,-1.0658544E-2,-7.1571745E-2,-9.536743E-7,-9.536743E-7,-9.536743E-7,-7.097208E-2,-2.5671746E-3,7.624733E-2,-5.831892E-2,2.1557298E-2,1.2053995E-2,8.393803E-2],"split_indices":[707,1823,4584,1301,4626,0,0,1154,4577,4592,0,0,0,0,0,0,0],"split_type":[0,0,0,0,0,0,0,0,0,0,0,0,0,0,0,0,0],"sum_hessian":[1.8930878E2,1.8571094E2,3.5978436E0,1.3559308E2,5.011786E1,1.2229105E0,2.374933E0,1.2168196E2,1.3911119E1,4.7835526E1,2.2823312E0,1.1707721E2,4.6047535E0,1.0846378E1,3.0647411E0,4.1374958E1,6.460571E0],"tree_param":{"num_deleted":"0","num_feature":"5134","num_nodes":"17","size_leaf_vector":"0"}},{"base_weights":[7.0873993E-3,1.872656E-2,-6.890132E-1,3.0314837E-2,-6.824884E-1,-4.709291E-5,3.12664E-1,-2.1362761E-2,5.481414E-1,1.023322E-1,1.0711185E0],"categories":[],"categories_nodes":[],"categories_segments":[],"categories_sizes":[],"default_left":[1,1,0,1,0,1,1,0,0,0,0],"id":46,"left_children":[1,3,-1,5,-1,7,9,-1,-1,-1,-1],"loss_changes":[1.5563608E0,1.5511435E0,0E0,1.5965779E0,0E0,1.9883018E0,2.775049E0,0E0,0E0,0E0,0E0],"parents":[2147483647,0,0,1,1,3,3,5,5,6,6],"right_children":[2,4,-1,6,-1,8,10,-1,-1,-1,-1],"split_conditions":[-9.536743E-7,-9.536743E-7,-6.890132E-2,-9.536743E-7,-6.824884E-2,-9.536743E-7,-9.536743E-7,-2.136276E-3,5.481414E-2,1.023322E-2,1.0711185E-1],"split_indices":[1855,537,0,2219,0,659,1312,0,0,0,0],"split_type":[0,0,0,0,0,0,0,0,0,0,0],"sum_hessian":[1.895027E2,1.8734332E2,2.159379E0,1.8523883E2,2.1044888E0,1.6815628E2,1.7082561E1,1.627875E2,5.368771E0,1.4262313E1,2.8202496E0],"tree_param":{"num_deleted":"0","num_feature":"5134","num_nodes":"11","size_leaf_vector":"0"}},{"base_weights":[6.3671693E-3,1.8025814E-2,-6.8797517E-1,3.7870083E-2,-4.1133776E-1,6.488258E-2,-2.8939635E-1,-8.117375E-1,1.9429445E-1,8.074913E-2,-5.5109245E-1,-5.8279085E-1,1.3228113E-2,6.318558E-1,-5.295464E-1],"categories":[],"categories_nodes":[],"categories_segments":[],"categories_sizes":[],"default_left":[1,1,0,1,1,1,1,0,1,0,0,0,0,0,0],"id":47,"left_children":[1,3,-1,5,7,9,11,-1,13,-1,-1,-1,-1,-1,-1],"loss_changes":[1.5554317E0,1.6211619E0,0E0,1.6191418E0,2.1968205E0,1.6868713E0,1.2495124E0,0E0,1.6501402E0,0E0,0E0,0E0,0E0,0E0,0E0],"parents":[2147483647,0,0,1,1,3,3,4,4,5,5,6,6,8,8],"right_children":[2,4,-1,6,8,10,12,-1,14,-1,-1,-1,-1,-1,-1],"split_conditions":[-9.536743E-7,-9.536743E-7,-6.879752E-2,-9.536743E-7,-9.536743E-7,-9.536743E-7,-9.536743E-7,-8.117375E-2,-9.536743E-7,8.074913E-3,-5.5109244E-2,-5.8279086E-2,1.3228114E-3,6.318558E-2,-5.295464E-2],"split_indices":[8,6,0,5,4589,707,4619,0,1128,0,0,0,0,0,0],"split_type":[0,0,0,0,0,0,0,0,0,0,0,0,0,0,0],"sum_hessian":[1.8961313E2,1.8743988E2,2.1732483E0,1.8003104E2,7.4088516E0,1.6704492E2,1.2986103E1,4.255266E0,3.1535852E0,1.6369725E2,3.347679E0,6.12354E0,6.8625636E0,2.0446653E0,1.1089199E0],"tree_param":{"num_deleted":"0","num_feature":"5134","num_nodes":"15","size_leaf_vector":"0"}}]},"name":"gbtree"},"learner_model_param":{"base_score":"2.9650966E-3","num_class":"0","num_feature":"5134","num_target":"1"},"objective":{"name":"binary:logistic","reg_loss_param":{"scale_pos_weight":"1"}}},"version":[1,6,0]}