{"learner":{"attributes":{"best_iteration":"1","best_msg":"[2]\ttrain-auc:0.793163\ttest-auc:0.818161","best_ntreelimit":"2","best_score":"0.81816094390278371","niter":"26"},"feature_names":[],"feature_types":[],"gradient_booster":{"model":{"gbtree_model_param":{"num_parallel_tree":"1","num_trees":"27","size_leaf_vector":"0"},"tree_info":[0,0,0,0,0,0,0,0,0,0,0,0,0,0,0,0,0,0,0,0,0,0,0,0,0,0,0],"trees":[{"base_weights":[6.7724916E-3,-1.2512459E-1,2.840892E0,-1.9529232E-1,5.5152006E0,3.928995E0,-6.564526E-1,9.91788E-1,-2.9205588E-1,4.702907E0,6.4203507E-1,2.3798783E-1,2.1656728E0,-3.8757858E-1,1.0047219E0,3.902078E-1,-2.810776E-1,3.046379E0,-5.4016393E-1,-4.3169692E-1,2.3244321E0,1.3064734E0,-6.1152273E-1,1.0444191E-1,9.4064754E-1,3.5509706E0,1.1317432E0,-5.055153E-1,7.345131E-1,2.067918E-1,1.9517779E0,-4.937626E-2,4.4263878E-1,-5.306039E-1,6.263787E-1,-3.4080043E-2,2.9567916E0,-4.6197268E-1,1.2108943E0,2.4518795E0,6.1676E-1,2.5388217E-1,-5.603361E-1,-5.462862E-1,5.649094E-1,9.728054E-1,-7.228042E-2,-3.963867E-1,8.772562E-1,-1.1626487E-2,-6.2899643E-1,-1.1626487E-2,9.32403E-1],"categories":[],"categories_nodes":[],"categories_segments":[],"categories_sizes":[],"default_left":[1,1,1,1,0,1,0,1,1,0,0,1,1,1,1,1,0,1,0,1,0,1,0,1,0,0,0,1,1,1,1,1,0,1,1,1,0,1,0,0,1,0,0,0,0,0,0,0,0,0,0,0,0],"id":0,"left_children":[1,3,5,7,-1,9,-1,11,13,-1,-1,15,17,19,21,23,-1,25,-1,27,-1,29,-1,31,-1,-1,-1,33,35,37,39,41,-1,43,45,47,-1,49,-1,-1,51,-1,-1,-1,-1,-1,-1,-1,-1,-1,-1,-1,-1],"loss_changes":[7.2173546E1,7.411131E1,3.5252243E1,2.1337261E1,0E0,1.4002785E1,0E0,1.1906479E1,2.1472122E1,0E0,0E0,8.7388855E-1,1.4432865E1,2.0056734E1,6.6295815E0,1.1440171E0,0E0,3.781891E-2,0E0,1.3933304E1,0E0,6.971735E0,0E0,3.5081118E-1,0E0,0E0,0E0,4.5565453E0,1.6815142E1,3.891408E0,2.7815742E0,9.551821E-1,0E0,2.8180656E0,9.6201944E-1,3.074925E0,0E0,2.7115822E-1,0E0,0E0,6.2347436E-1,0E0,0E0,0E0,0E0,0E0,0E0,0E0,0E0,0E0,0E0,0E0,0E0],"parents":[2147483647,0,0,1,1,2,2,3,3,5,5,7,7,8,8,11,11,12,12,13,13,14,14,15,15,17,17,19,19,21,21,23,23,27,27,28,28,29,29,30,30,31,31,33,33,34,34,35,35,37,37,40,40],"right_children":[2,4,6,8,-1,10,-1,12,14,-1,-1,16,18,20,22,24,-1,26,-1,28,-1,30,-1,32,-1,-1,-1,34,36,38,40,42,-1,44,46,48,-1,50,-1,-1,52,-1,-1,-1,-1,-1,-1,-1,-1,-1,-1,-1,-1],"split_conditions":[-9.536743E-7,-9.536743E-7,-9.536743E-7,-9.536743E-7,5.5152005E-1,-9.536743E-7,-6.564526E-2,-9.536743E-7,-9.536743E-7,4.7029072E-1,6.420351E-2,-9.536743E-7,-9.536743E-7,-9.536743E-7,-9.536743E-7,-9.536743E-7,-2.810776E-2,-9.536743E-7,-5.4016393E-2,-9.536743E-7,2.3244321E-1,-9.536743E-7,-6.1152276E-2,-9.536743E-7,9.406476E-2,3.5509706E-1,1.1317432E-1,-9.536743E-7,-9.536743E-7,-9.536743E-7,-9.536743E-7,-9.536743E-7,4.426388E-2,-9.536743E-7,-9.536743E-7,-9.536743E-7,2.9567918E-1,-9.536743E-7,1.21089436E-1,2.4518795E-1,-9.536743E-7,2.5388217E-2,-5.603361E-2,-5.462862E-2,5.649094E-2,9.728054E-2,-7.2280425E-3,-3.9638672E-2,8.7725624E-2,-1.1626487E-3,-6.289964E-2,-1.1626487E-3,9.3240306E-2],"split_indices":[2875,4817,3646,1869,0,1213,0,1146,2242,0,0,2,1212,870,3212,20,0,2251,0,812,0,20,0,4686,0,0,0,1175,3683,1214,4630,881,0,886,1147,1308,0,4685,0,0,1049,0,0,0,0,0,0,0,0,0,0,0,0],"split_type":[0,0,0,0,0,0,0,0,0,0,0,0,0,0,0,0,0,0,0,0,0,0,0,0,0,0,0,0,0,0,0,0,0,0,0,0,0,0,0,0,0,0,0,0,0,0,0,0,0,0,0,0,0],"sum_hessian":[1.9112347E2,1.8353766E2,7.5858083E0,1.8223595E2,1.3017068E0,5.6916003E0,1.8942077E0,1.3038014E1,1.6919794E2,4.258227E0,1.4333737E0,8.67206E0,4.3659544E0,1.5824266E2,1.0955284E1,6.8975496E0,1.7745106E0,3.198907E0,1.1670474E0,1.5653697E2,1.7056847E0,9.393235E0,1.5620481E0,5.3235316E0,1.5740178E0,1.8553061E0,1.3436007E0,1.4775119E2,8.785772E0,3.9619763E0,5.431259E0,4.2462573E0,1.0772746E0,1.4506699E2,2.684209E0,7.2596335E0,1.5261389E0,2.7021637E0,1.2598127E0,3.3425436E0,2.0887156E0,2.9804597E0,1.2657976E0,1.4351392E2,1.5530708E0,1.5321238E0,1.1520853E0,5.598835E0,1.6607983E0,1.0204184E0,1.6817453E0,1.0204184E0,1.0682973E0],"tree_param":{"num_deleted":"0","num_feature":"5184","num_nodes":"53","size_leaf_vector":"0"}},{"base_weights":[1.1806671E-2,-4.5176715E-2,5.03391E0,-1.6940518E-1,1.9807817E0,-4.2839098E-1,2.4789463E-1,2.6331284E0,-6.673325E-1,-4.9142417E-1,2.091619E0,1.0120253E-1,1.9917967E0,3.2396688E0,-5.6709003E-1,-5.2307874E-1,1.3652065E0,-2.9086793E-2,1.4867072E0,2.3953E0,3.4769017E-1,3.7176561E0,6.4909434E-1,-5.770453E-1,1.8834516E-1,-2.2660945E-1,8.4828323E-1,2.0847404E0,-5.2304083E-1,-6.124668E-1,2.8959766E-1,3.6617723E-1,-5.232497E-1,-3.0415276E-1,1.3235806E0,-2.0501654E-1,1.4535877E0,2.6707344E0,3.2111174E-1,-6.497436E-1,-9.52068E-2,4.2653692E-1,-6.892922E-2,5.40741E-1,-1.9330564E-1,-4.0796846E-1,8.690942E-1,-4.4378036E-1,2.3061281E-1,1.7321944E0,-5.4682594E-2],"categories":[],"categories_nodes":[],"categories_segments":[],"categories_sizes":[],"default_left":[1,1,0,1,1,1,1,1,0,1,0,1,1,1,0,1,0,1,1,0,0,0,0,1,1,1,1,1,0,1,1,1,0,1,0,1,1,0,0,0,0,0,0,0,0,0,0,0,0,0,0],"id":1,"left_children":[1,3,-1,5,7,9,11,13,-1,15,-1,17,19,21,-1,23,-1,25,27,-1,-1,-1,-1,29,31,33,35,37,-1,39,41,43,-1,45,-1,47,49,-1,-1,-1,-1,-1,-1,-1,-1,-1,-1,-1,-1,-1,-1],"loss_changes":[5.4933586E1,4.815729E1,0E0,1.9554472E1,2.0857445E1,1.8723988E1,1.758963E1,1.9449364E1,0E0,7.149313E0,0E0,1.1813653E1,2.7114906E0,7.2165375E0,0E0,4.269882E0,0E0,1.0690824E1,7.849593E0,0E0,0E0,0E0,0E0,3.277481E0,1.2540586E0,6.441431E0,7.5299826E0,3.8288631E0,0E0,1.8151016E0,2.5742796E-1,8.1802696E-1,0E0,6.281071E0,0E0,6.240711E-1,3.1736526E0,0E0,0E0,0E0,0E0,0E0,0E0,0E0,0E0,0E0,0E0,0E0,0E0,0E0,0E0],"parents":[2147483647,0,0,1,1,3,3,4,4,5,5,6,6,7,7,9,9,11,11,12,12,13,13,15,15,17,17,18,18,23,23,24,24,25,25,26,26,27,27,29,29,30,30,31,31,33,33,35,35,36,36],"right_children":[2,4,-1,6,8,10,12,14,-1,16,-1,18,20,22,-1,24,-1,26,28,-1,-1,-1,-1,30,32,34,36,38,-1,40,42,44,-1,46,-1,48,50,-1,-1,-1,-1,-1,-1,-1,-1,-1,-1,-1,-1,-1,-1],"split_conditions":[-9.536743E-7,-9.536743E-7,5.0339097E-1,-9.536743E-7,-9.536743E-7,-9.536743E-7,-9.536743E-7,-9.536743E-7,-6.673325E-2,-9.536743E-7,2.091619E-1,-9.536743E-7,-9.536743E-7,-9.536743E-7,-5.6709003E-2,-9.536743E-7,1.3652065E-1,-9.536743E-7,-9.536743E-7,2.3953E-1,3.4769017E-2,3.717656E-1,6.4909436E-2,-9.536743E-7,-9.536743E-7,-9.536743E-7,-9.536743E-7,-9.536743E-7,-5.2304085E-2,-9.536743E-7,-9.536743E-7,-9.536743E-7,-5.232497E-2,-9.536743E-7,1.3235806E-1,-9.536743E-7,-9.536743E-7,2.6707345E-1,3.2111175E-2,-6.497436E-2,-9.52068E-3,4.265369E-2,-6.892922E-3,5.4074105E-2,-1.9330565E-2,-4.0796846E-2,8.690942E-2,-4.437804E-2,2.3061281E-2,1.7321944E-1,-5.4682596E-3],"split_indices":[4787,2875,0,1146,1317,870,892,2,0,784,0,1175,4606,1213,0,892,0,2756,5,0,0,0,0,1070,4684,1277,20,1317,0,5,4660,1868,0,1260,0,1214,3646,0,0,0,0,0,0,0,0,0,0,0,0,0,0],"split_type":[0,0,0,0,0,0,0,0,0,0,0,0,0,0,0,0,0,0,0,0,0,0,0,0,0,0,0,0,0,0,0,0,0,0,0,0,0,0,0,0,0,0,0,0,0,0,0,0,0,0,0],"sum_hessian":[1.9016238E2,1.8900879E2,1.1535872E0,1.7895212E2,1.0056669E1,1.1040542E2,6.854671E1,8.073477E0,1.9831928E0,1.08496574E2,1.9088417E0,6.420408E1,4.3426323E0,6.7767463E0,1.2967303E0,1.07383995E2,1.112575E0,5.9580303E1,4.623773E0,3.1200073E0,1.2226251E0,5.3538384E0,1.4229077E0,9.9988075E1,7.3959193E0,4.9237225E1,1.0343079E1,3.5346627E0,1.0891104E0,9.6343605E1,3.6444771E0,6.3055387E0,1.0903809E0,4.7657124E1,1.5800992E0,4.016027E0,6.327051E0,2.267056E0,1.2676067E0,8.962833E1,6.7152734E0,2.4999347E0,1.1445425E0,4.831549E0,1.4739891E0,4.4382206E1,3.2749205E0,2.5820963E0,1.4339305E0,5.2152324E0,1.1118187E0],"tree_param":{"num_deleted":"0","num_feature":"5184","num_nodes":"51","size_leaf_vector":"0"}},{"base_weights":[1.46932425E-2,-3.7487823E-1,5.0417036E-1,-4.374692E-1,1.6992364E0,4.0560794E-1,4.098841E0,-4.9098828E-1,1.1261368E0,2.3696646E-1,2.1272614E0,2.0189764E-1,-5.5341244E-1,2.4136356E-1,1.5564756E0,-1.1919826E-1,7.45765E-1,7.2619134E-1,4.455368E0,-2.2752441E-2,6.7151046E-1,-5.919656E-1,2.2095717E-2,-2.1873184E-1,9.798943E-1,4.519757E-1,1.891512E0,1.1580515E0,-5.378115E-1,1.6376494E-1,-5.347846E-1,-6.3477916E-1,-1.7542748E-2,-2.5189856E-1,5.9706914E-1,-3.8557535E-1,4.8902407E-1,1.6056081E0,9.486832E-2,7.3057696E-2,1.9042686E0,2.284493E0,-2.4876872E-2,1.6426234E0,1.5000392E-1,2.864665E-1,-1.4937787E-1,-6.822961E-1,-8.5083805E-2,5.390793E-2,-1.1262176E-1,2.6457198E-3,-5.759831E-1,-4.9178615E-1,7.7567834E-1,7.616835E-1,-5.756856E-1,8.568888E-1,-6.045265E-1,4.5290866E-1,2.9083133E0,2.881706E0,2.971081E-1,-7.044272E-1,3.959397E-1,-2.2604492E-2,-1.513757E-1,-5.9071505E-1,8.3699304E-1,1.1630311E0,-3.318447E-2,3.2724535E-1,1.5483344E0,4.3365687E-1,2.481341E0,-8.012594E-1,9.754842E-2,1.1684139E0,-5.328602E-1],"categories":[],"categories_nodes":[],"categories_segments":[],"categories_sizes":[],"default_left":[1,1,1,1,0,1,0,1,1,1,1,1,1,0,0,1,1,1,0,1,0,1,1,1,1,1,1,1,0,1,0,1,1,1,0,1,1,0,0,1,1,1,0,0,0,0,0,1,1,0,0,0,0,1,1,1,0,1,1,1,0,0,0,0,0,0,0,0,0,0,0,0,0,0,0,0,0,0,0],"id":2,"left_children":[1,3,5,7,-1,9,-1,11,13,15,17,19,21,-1,-1,23,25,27,-1,29,-1,31,33,35,37,39,41,43,-1,45,-1,47,49,51,-1,53,55,-1,-1,57,59,61,-1,-1,-1,-1,-1,63,65,-1,-1,-1,-1,67,69,71,-1,73,75,77,-1,-1,-1,-1,-1,-1,-1,-1,-1,-1,-1,-1,-1,-1,-1,-1,-1,-1,-1],"loss_changes":[3.6533E1,1.4595542E1,2.841522E1,9.287039E0,0E0,2.3808516E1,0E0,4.5068264E0,1.0551233E0,1.4113661E1,2.0723595E1,9.785642E-1,2.0872517E0,0E0,0E0,5.288904E0,9.918434E0,3.7781413E0,0E0,7.698014E-1,0E0,2.1444435E0,1.226908E0,5.307808E0,2.0818427E0,1.4602146E1,4.73958E0,2.013013E0,0E0,2.7339512E-1,0E0,2.0718079E0,5.435987E-2,4.4131458E-1,0E0,4.7774005E0,2.9673264E0,0E0,0E0,1.2353634E1,6.702038E0,5.280773E0,0E0,0E0,0E0,0E0,0E0,2.0664902E0,2.8182004E-2,0E0,0E0,0E0,0E0,4.8674936E0,1.0959346E0,2.0104828E0,0E0,6.3119755E0,1.8100247E0,3.0451913E0,0E0,0E0,0E0,0E0,0E0,0E0,0E0,0E0,0E0,0E0,0E0,0E0,0E0,0E0,0E0,0E0,0E0,0E0,0E0],"parents":[2147483647,0,0,1,1,2,2,3,3,5,5,7,7,8,8,9,9,10,10,11,11,12,12,15,15,16,16,17,17,19,19,21,21,22,22,23,23,24,24,25,25,26,26,27,27,29,29,31,31,32,32,33,33,35,35,36,36,39,39,40,40,41,41,47,47,48,48,53,53,54,54,55,55,57,57,58,58,59,59],"right_children":[2,4,6,8,-1,10,-1,12,14,16,18,20,22,-1,-1,24,26,28,-1,30,-1,32,34,36,38,40,42,44,-1,46,-1,48,50,52,-1,54,56,-1,-1,58,60,62,-1,-1,-1,-1,-1,64,66,-1,-1,-1,-1,68,70,72,-1,74,76,78,-1,-1,-1,-1,-1,-1,-1,-1,-1,-1,-1,-1,-1,-1,-1,-1,-1,-1,-1],"split_conditions":[-9.536743E-7,-9.536743E-7,-9.536743E-7,-9.536743E-7,1.6992365E-1,-9.536743E-7,4.0988412E-1,-9.536743E-7,-9.536743E-7,-9.536743E-7,-9.536743E-7,-9.536743E-7,-9.536743E-7,2.4136355E-2,1.5564756E-1,-9.536743E-7,-9.536743E-7,-9.536743E-7,4.4553682E-1,-9.536743E-7,6.715105E-2,-9.536743E-7,-9.536743E-7,-9.536743E-7,-9.536743E-7,-9.536743E-7,-9.536743E-7,-9.536743E-7,-5.378115E-2,-9.536743E-7,-5.347846E-2,-9.536743E-7,-9.536743E-7,-9.536743E-7,5.9706915E-2,-9.536743E-7,-9.536743E-7,1.6056082E-1,9.486832E-3,-9.536743E-7,-9.536743E-7,-9.536743E-7,-2.4876872E-3,1.6426234E-1,1.5000393E-2,2.8646652E-2,-1.4937787E-2,-9.536743E-7,-9.536743E-7,5.390793E-3,-1.1262177E-2,2.6457198E-4,-5.759831E-2,-9.536743E-7,-9.536743E-7,-9.536743E-7,-5.756856E-2,-9.536743E-7,-9.536743E-7,-9.536743E-7,2.9083133E-1,2.881706E-1,2.9710812E-2,-7.044272E-2,3.9593972E-2,-2.260449E-3,-1.513757E-2,-5.9071507E-2,8.369931E-2,1.1630311E-1,-3.318447E-3,3.2724537E-2,1.5483344E-1,4.3365687E-2,2.4813409E-1,-8.012594E-2,9.754842E-3,1.1684139E-1,-5.3286023E-2],"split_indices":[1145,870,1524,3684,0,892,0,1868,4470,1048,1295,20,673,0,0,1175,5,1212,0,4549,0,4,20,2756,20,811,1341,3330,0,881,0,5,20,2,0,1260,1147,0,0,3330,4629,1069,0,0,0,0,0,8,20,0,0,0,0,1281,4684,4608,0,6,3,4558,0,0,0,0,0,0,0,0,0,0,0,0,0,0,0,0,0,0,0],"split_type":[0,0,0,0,0,0,0,0,0,0,0,0,0,0,0,0,0,0,0,0,0,0,0,0,0,0,0,0,0,0,0,0,0,0,0,0,0,0,0,0,0,0,0,0,0,0,0,0,0,0,0,0,0,0,0,0,0,0,0,0,0,0,0,0,0,0,0,0,0,0,0,0,0,0,0,0,0,0,0],"sum_hessian":[1.8959573E2,1.0570221E2,8.389353E1,1.0337182E2,2.3303921E0,8.273778E1,1.1557553E0,1.0061399E2,2.7578237E0,7.6392525E1,6.345253E0,8.130795E0,9.24832E1,1.4131883E0,1.3446354E0,4.53869E1,3.1005621E1,4.780338E0,1.5649153E0,6.1434736E0,1.9873209E0,8.664995E1,5.833256E0,4.235246E1,3.0344408E0,2.5787695E1,5.217927E0,3.6254766E0,1.1548612E0,5.0016828E0,1.1417906E0,8.054183E1,6.10811E0,4.3311915E0,1.5020639E0,3.464144E1,7.7110186E0,1.3006718E0,1.7337688E0,2.1284624E1,4.5030704E0,4.170606E0,1.0473204E0,2.0233405E0,1.6021363E0,3.6547847E0,1.3468984E0,7.391152E1,6.6303115E0,3.7346144E0,2.3734958E0,2.9813778E0,1.3498139E0,3.2266758E1,2.374684E0,6.3654995E0,1.3455192E0,9.745909E0,1.1538715E1,2.4347258E0,2.0683446E0,2.8609009E0,1.3097054E0,7.2764694E1,1.1468291E0,4.1036525E0,2.5266588E0,3.0547884E1,1.7188739E0,1.3096514E0,1.0650327E0,5.013002E0,1.3524973E0,8.736636E0,1.0092723E0,8.902746E0,2.6359687E0,1.3033948E0,1.1313308E0],"tree_param":{"num_deleted":"0","num_feature":"5184","num_nodes":"79","size_leaf_vector":"0"}},{"base_weights":[2.2100508E-2,-3.4994382E-1,4.5798364E-1,-4.119465E-1,1.391336E0,3.6201072E-1,3.134554E0,-4.657702E-1,9.8873824E-1,2.1231179E-1,1.6900815E0,1.8061669E-1,-5.2834284E-1,2.2387533E-1,1.3325868E0,9.98958E-2,1.252253E0,6.4026153E-1,3.0492365E0,-2.6400862E-2,5.978859E-1,-5.673254E-1,1.9466272E-2,-1.7347552E-1,4.760404E-1,5.672E-1,2.6856794E0,1.014258E0,-5.317825E-1,1.4729539E-1,-5.214078E-1,-6.109632E-1,-1.6657947E-2,-2.4123889E-1,5.402972E-1,-2.763004E-1,1.1290218E0,1.5432778E-1,1.6664268E0,1.2401795E-1,1.4431121E0,1.3624476E0,1.6269556E-1,2.5780743E-1,-1.4207074E-1,-6.598001E-1,-7.938285E-2,4.9434837E-2,-1.05569705E-1,2.4470577E-3,-5.617977E-1,-4.7401944E-1,4.8135492E-1,7.985292E-1,-3.7794277E-1,1.9698038E0,2.89986E-1,-4.5263103E-1,8.57294E-1,-6.829082E-1,3.665044E-1,-2.0826394E-2,-1.4213292E-1,-5.988417E-1,7.422722E-1,7.206615E-1,-5.5046004E-1,3.4567028E-1,2.5106118E0,-7.1927077E-1,4.4992742E-1,9.117079E-1,2.4310029E0,-6.207469E-1,-9.5656775E-3],"categories":[],"categories_nodes":[],"categories_segments":[],"categories_sizes":[],"default_left":[1,1,1,1,0,1,0,1,1,1,1,1,1,0,0,1,1,1,0,1,0,1,1,1,1,1,0,1,0,1,0,1,1,1,0,1,0,1,1,1,0,0,0,0,0,1,1,0,0,0,0,1,1,1,1,1,0,1,0,0,0,0,0,0,0,0,0,0,0,0,0,0,0,0,0],"id":3,"left_children":[1,3,5,7,-1,9,-1,11,13,15,17,19,21,-1,-1,23,25,27,-1,29,-1,31,33,35,37,39,-1,41,-1,43,-1,45,47,49,-1,51,-1,53,55,57,-1,-1,-1,-1,-1,59,61,-1,-1,-1,-1,63,65,67,69,71,-1,73,-1,-1,-1,-1,-1,-1,-1,-1,-1,-1,-1,-1,-1,-1,-1,-1,-1],"loss_changes":[3.0841022E1,1.165427E1,2.1356052E1,7.9904537E0,0E0,1.667014E1,0E0,4.01318E0,7.5792646E-1,9.007719E0,1.0223358E1,8.1865275E-1,1.9024334E0,0E0,0E0,7.44364E0,5.8751163E0,3.204571E0,0E0,6.9328505E-1,0E0,1.9775372E0,1.0605601E0,5.9624033E0,1.1383669E1,2.2920961E0,0E0,1.2470274E0,0E0,2.3129022E-1,0E0,1.9366398E0,4.6951715E-2,4.12014E-1,0E0,6.2062526E0,0E0,8.884906E0,2.0867424E0,2.6379697E0,0E0,0E0,0E0,0E0,0E0,1.91119E0,2.490431E-2,0E0,0E0,0E0,0E0,5.325733E0,2.5584693E0,8.161928E0,4.388571E0,2.4456406E-1,0E0,2.6467508E-1,0E0,0E0,0E0,0E0,0E0,0E0,0E0,0E0,0E0,0E0,0E0,0E0,0E0,0E0,0E0,0E0,0E0],"parents":[2147483647,0,0,1,1,2,2,3,3,5,5,7,7,8,8,9,9,10,10,11,11,12,12,15,15,16,16,17,17,19,19,21,21,22,22,23,23,24,24,25,25,27,27,29,29,31,31,32,32,33,33,35,35,37,37,38,38,39,39,45,45,46,46,51,51,52,52,53,53,54,54,55,55,57,57],"right_children":[2,4,6,8,-1,10,-1,12,14,16,18,20,22,-1,-1,24,26,28,-1,30,-1,32,34,36,38,40,-1,42,-1,44,-1,46,48,50,-1,52,-1,54,56,58,-1,-1,-1,-1,-1,60,62,-1,-1,-1,-1,64,66,68,70,72,-1,74,-1,-1,-1,-1,-1,-1,-1,-1,-1,-1,-1,-1,-1,-1,-1,-1,-1],"split_conditions":[-9.536743E-7,-9.536743E-7,-9.536743E-7,-9.536743E-7,1.391336E-1,-9.536743E-7,3.134554E-1,-9.536743E-7,-9.536743E-7,-9.536743E-7,-9.536743E-7,-9.536743E-7,-9.536743E-7,2.2387533E-2,1.3325869E-1,-9.536743E-7,-9.536743E-7,-9.536743E-7,3.0492365E-1,-9.536743E-7,5.9788592E-2,-9.536743E-7,-9.536743E-7,-9.536743E-7,-9.536743E-7,-9.536743E-7,2.6856795E-1,-9.536743E-7,-5.317825E-2,-9.536743E-7,-5.214078E-2,-9.536743E-7,-9.536743E-7,-9.536743E-7,5.402972E-2,-9.536743E-7,1.1290218E-1,-9.536743E-7,-9.536743E-7,-9.536743E-7,1.4431122E-1,1.3624476E-1,1.6269555E-2,2.5780743E-2,-1.4207074E-2,-9.536743E-7,-9.536743E-7,4.943484E-3,-1.0556971E-2,2.447058E-4,-5.617977E-2,-9.536743E-7,-9.536743E-7,-9.536743E-7,-9.536743E-7,-9.536743E-7,2.8998602E-2,-9.536743E-7,8.5729405E-2,-6.829082E-2,3.665044E-2,-2.0826394E-3,-1.4213293E-2,-5.9884172E-2,7.422722E-2,7.206615E-2,-5.5046003E-2,3.456703E-2,2.5106117E-1,-7.192708E-2,4.499274E-2,9.117079E-2,2.4310029E-1,-6.207469E-2,-9.5656776E-4],"split_indices":[1145,870,1284,3684,0,892,0,1868,4470,1175,1295,20,673,0,0,1048,1310,1212,0,4549,0,4,20,1281,5,1296,0,3330,0,881,0,5,20,2,0,2756,0,3330,1069,1003,0,0,0,0,0,8,20,0,0,0,0,1260,1147,6,812,4666,0,1214,0,0,0,0,0,0,0,0,0,0,0,0,0,0,0,0,0],"split_type":[0,0,0,0,0,0,0,0,0,0,0,0,0,0,0,0,0,0,0,0,0,0,0,0,0,0,0,0,0,0,0,0,0,0,0,0,0,0,0,0,0,0,0,0,0,0,0,0,0,0,0,0,0,0,0,0,0,0,0,0,0,0,0,0,0,0,0,0,0,0,0,0,0,0,0],"sum_hessian":[1.8819136E2,1.0163707E2,8.655428E1,9.887963E1,2.757438E0,8.465412E1,1.900164E0,9.586339E1,3.0162442E0,7.712098E1,7.5331426E0,8.294386E0,8.7569E1,1.4474956E0,1.5687487E0,7.058672E1,6.5342536E0,5.080221E0,2.4529216E0,6.1700172E0,2.1243684E0,8.171824E1,5.850764E0,4.1189884E1,2.9396843E1,5.3656397E0,1.1686136E0,3.9533432E0,1.1268781E0,5.087329E0,1.0826887E0,7.561649E1,6.101748E0,4.25681E0,1.5939536E0,3.8906315E1,2.2835677E0,2.4031704E1,5.365139E0,4.3209643E0,1.0446756E0,2.3801866E0,1.5731565E0,3.7602935E0,1.3270353E0,6.903314E1,6.5833507E0,3.7546906E0,2.3470576E0,2.9821627E0,1.2746475E0,3.1151363E1,7.7549524E0,1.0646331E1,1.3385373E1,4.042958E0,1.322181E0,2.633055E0,1.6879094E0,6.7840256E1,1.1928834E0,4.094439E0,2.4889116E0,2.8712395E1,2.4389682E0,6.5397596E0,1.2151927E0,9.369837E0,1.2764932E0,9.57062E0,3.8147535E0,2.1309326E0,1.9120255E0,1.6180698E0,1.0149852E0],"tree_param":{"num_deleted":"0","num_feature":"5184","num_nodes":"75","size_leaf_vector":"0"}},{"base_weights":[2.751309E-2,-2.0780154E-2,3.0836632E0,-3.518662E-1,3.4576383E-1,-4.1416925E-1,1.1567013E0,4.976633E-1,-6.6989356E-1,-4.4930038E-1,1.287016E0,3.3550188E-1,1.7454562E0,-8.870843E-1,-8.7410636E-2,-4.749825E-1,8.946042E-1,1.7156342E-1,1.0817614E0,2.1146905E0,-5.09863E-1,3.5136214E-1,-5.8790106E-1,-5.352736E-1,2.0652795E-1,2.2100403E-3,7.1387583E-1,1.4072641E0,-6.295307E-1,9.484381E-1,3.1926906E0,-5.633979E-1,7.024857E-1,2.7012363E-1,-9.198636E-2,-1.1010503E-1,1.5958147E0,9.503764E-1,-6.307928E-1,1.6805099E0,-5.2505034E-1,1.4251413E0,-5.0474554E-1,6.371579E-1,4.614514E0,-6.1623764E-1,5.1585957E-2,4.6586663E-1,-9.4073445E-2,-1.775134E-1,1.1924868E0,1.9413767E0,4.6786988E-1,4.5498174E-1,1.7434874E0,1.8711233E0,2.8015137E-1],"categories":[],"categories_nodes":[],"categories_segments":[],"categories_sizes":[],"default_left":[1,1,0,1,1,1,0,1,1,1,0,1,1,0,1,1,0,1,1,1,0,0,0,1,1,1,1,1,0,1,1,1,0,1,0,1,1,1,0,1,0,0,0,0,0,0,0,0,0,0,0,0,0,0,0,0,0],"id":4,"left_children":[1,3,-1,5,7,9,-1,11,13,15,-1,17,19,-1,21,23,-1,25,27,29,-1,-1,-1,31,33,35,37,39,-1,41,43,45,-1,47,-1,49,51,53,-1,55,-1,-1,-1,-1,-1,-1,-1,-1,-1,-1,-1,-1,-1,-1,-1,-1,-1],"loss_changes":[2.7835075E1,2.2721792E1,0E0,9.722083E0,1.4046446E1,6.266527E0,0E0,1.5176025E1,1.4393477E0,3.6690445E0,0E0,8.399582E0,8.340475E0,0E0,1.1653152E0,3.927065E0,0E0,5.3917336E0,7.821396E0,6.637802E0,0E0,0E0,0E0,3.376072E0,1.8186402E-1,8.364726E0,5.0425363E0,6.568941E0,0E0,4.263091E0,1.0041302E1,2.7700672E0,0E0,5.48006E-1,0E0,4.0466385E0,2.9094934E-1,4.0317554E0,0E0,2.0580196E0,0E0,0E0,0E0,0E0,0E0,0E0,0E0,0E0,0E0,0E0,0E0,0E0,0E0,0E0,0E0,0E0,0E0],"parents":[2147483647,0,0,1,1,3,3,4,4,5,5,7,7,8,8,9,9,11,11,12,12,14,14,15,15,17,17,18,18,19,19,23,23,24,24,25,25,26,26,27,27,29,29,30,30,31,31,33,33,35,35,36,36,37,37,39,39],"right_children":[2,4,-1,6,8,10,-1,12,14,16,-1,18,20,-1,22,24,-1,26,28,30,-1,-1,-1,32,34,36,38,40,-1,42,44,46,-1,48,-1,50,52,54,-1,56,-1,-1,-1,-1,-1,-1,-1,-1,-1,-1,-1,-1,-1,-1,-1,-1,-1],"split_conditions":[-9.536743E-7,-9.536743E-7,3.0836633E-1,-9.536743E-7,-9.536743E-7,-9.536743E-7,1.1567014E-1,-9.536743E-7,-9.536743E-7,-9.536743E-7,1.2870161E-1,-9.536743E-7,-9.536743E-7,-8.870843E-2,-9.536743E-7,-9.536743E-7,8.9460425E-2,-9.536743E-7,-9.536743E-7,-9.536743E-7,-5.09863E-2,3.5136215E-2,-5.8790106E-2,-9.536743E-7,-9.536743E-7,-9.536743E-7,-9.536743E-7,-9.536743E-7,-6.295308E-2,-9.536743E-7,-9.536743E-7,-9.536743E-7,7.024857E-2,-9.536743E-7,-9.198636E-3,-9.536743E-7,-9.536743E-7,-9.536743E-7,-6.307928E-2,-9.536743E-7,-5.2505035E-2,1.4251414E-1,-5.0474554E-2,6.371579E-2,4.6145138E-1,-6.1623763E-2,5.1585957E-3,4.6586663E-2,-9.407344E-3,-1.7751342E-2,1.1924868E-1,1.9413768E-1,4.678699E-2,4.5498174E-2,1.7434874E-1,1.8711233E-1,2.8015137E-2],"split_indices":[4415,1145,0,870,2,784,0,892,1853,886,0,2875,1212,0,845,5,0,2242,1317,1003,0,0,0,8,1048,1515,3212,3646,0,1300,4667,673,0,20,0,4665,4631,4608,0,1147,0,0,0,0,0,0,0,0,0,0,0,0,0,0,0,0,0],"split_type":[0,0,0,0,0,0,0,0,0,0,0,0,0,0,0,0,0,0,0,0,0,0,0,0,0,0,0,0,0,0,0,0,0,0,0,0,0,0,0,0,0,0,0,0,0,0,0,0,0,0,0,0,0,0,0,0,0],"sum_hessian":[1.8716135E2,1.8522758E2,1.9337634E0,9.734205E1,8.788554E1,9.4178E1,3.164049E0,7.689526E1,1.0990275E1,9.2993484E1,1.1845156E0,6.917434E1,7.7209225E0,7.6244183E0,3.3658571E0,9.188413E1,1.109349E0,5.7723522E1,1.1450818E1,6.688289E0,1.0326332E0,1.9522829E0,1.4135742E0,8.461324E1,7.2708893E0,4.475233E1,1.2971188E1,9.770117E0,1.6807013E0,4.1155863E0,2.5727034E0,8.3266106E1,1.3471427E0,6.0723405E0,1.1985487E0,4.267553E1,2.0768046E0,1.1280413E1,1.6907749E0,8.673869E0,1.0962472E0,3.1135218E0,1.0020642E0,1.4373645E0,1.1353388E0,7.667602E1,6.5900865E0,3.7680087E0,2.3043318E0,4.139698E1,1.2785469E0,1.037721E0,1.0390836E0,7.912043E0,3.3683698E0,7.338761E0,1.3351083E0],"tree_param":{"num_deleted":"0","num_feature":"5184","num_nodes":"57","size_leaf_vector":"0"}},{"base_weights":[3.0161096E-2,-3.019193E-1,3.7117472E-1,-3.616592E-1,9.7407264E-1,2.3809849E-1,1.5115302E0,-3.9840811E-1,1.4857826E0,1.767127E-1,1.6596792E0,8.409122E-1,3.1456218E0,1.9015756E-1,-4.591123E-1,2.8481352E-1,-5.484636E-1,3.7584704E-1,2.174312E0,1.1983131E0,-5.716662E-1,-2.0620064E-3,5.482997E-1,-4.7657984E-1,4.617457E-1,6.0690045E-1,-3.4893285E-2,-8.73473E-1,1.720094E-1,1.558171E0,9.244594E-2,1.7376442E-1,-5.125768E-1,-5.2062887E-1,-8.098127E-3,4.1336545E-1,1.8537153E0,-1.3273384E-1,8.812588E-1,6.676041E-1,-5.6109977E-1,2.1175547E0,-1.05247475E-1,2.7373898E-1,-1.1238879E-1,-5.6626225E-1,7.4243387E-3,-8.5583724E-2,1.1182347E-1,2.2368261E-1,1.4258182E0,6.877799E-1,2.4673693E0,-2.1679926E-1,1.0778146E0,-1.4021645E-1,1.5022465E0,4.8032242E-1,3.1855836E0,-5.9406656E-1,9.0945825E-2,-2.3930404E-1,4.8583558E-1,-1.3274135E-1,7.0651484E-1,1.8403562E0,-3.8300525E-2,-2.780224E-1,7.018672E-1],"categories":[],"categories_nodes":[],"categories_segments":[],"categories_sizes":[],"default_left":[1,1,1,1,0,1,1,1,0,1,1,1,0,1,1,1,1,0,0,1,0,1,0,1,0,1,1,0,1,1,0,1,0,1,1,1,1,1,1,0,0,1,0,0,0,1,1,0,0,1,1,0,0,1,0,0,0,0,0,0,0,0,0,0,0,0,0,0,0],"id":5,"left_children":[1,3,5,7,-1,9,11,13,-1,15,17,19,-1,21,23,25,27,-1,-1,29,-1,31,-1,33,-1,35,37,-1,39,41,-1,43,-1,45,47,49,51,53,55,-1,-1,57,-1,-1,-1,59,61,-1,-1,63,65,-1,-1,67,-1,-1,-1,-1,-1,-1,-1,-1,-1,-1,-1,-1,-1,-1,-1],"loss_changes":[2.1359066E1,7.6402006E0,1.3755414E1,6.8420715E0,0E0,7.0789385E0,7.8017864E0,3.3404999E0,0E0,6.5924587E0,1.4145365E0,4.7865577E0,0E0,6.3587147E-1,1.5524445E0,7.446607E0,2.7243786E0,0E0,0E0,2.5646954E0,0E0,7.1706456E-1,0E0,1.6834793E0,0E0,7.91477E0,3.4455857E0,0E0,1.9197702E0,4.9427223E0,0E0,2.0100522E-1,0E0,1.805172E0,8.432232E-2,5.908857E0,1.5562487E0,3.736473E0,2.5665293E0,0E0,0E0,5.1902905E0,0E0,0E0,0E0,1.3113499E0,9.345092E-1,0E0,0E0,4.998088E0,3.063159E0,0E0,0E0,2.0521803E0,0E0,0E0,0E0,0E0,0E0,0E0,0E0,0E0,0E0,0E0,0E0,0E0,0E0,0E0,0E0],"parents":[2147483647,0,0,1,1,2,2,3,3,5,5,6,6,7,7,9,9,10,10,11,11,13,13,14,14,15,15,16,16,19,19,21,21,23,23,25,25,26,26,28,28,29,29,31,31,33,33,34,34,35,35,36,36,37,37,38,38,41,41,45,45,46,46,49,49,50,50,53,53],"right_children":[2,4,6,8,-1,10,12,14,-1,16,18,20,-1,22,24,26,28,-1,-1,30,-1,32,-1,34,-1,36,38,-1,40,42,-1,44,-1,46,48,50,52,54,56,-1,-1,58,-1,-1,-1,60,62,-1,-1,64,66,-1,-1,68,-1,-1,-1,-1,-1,-1,-1,-1,-1,-1,-1,-1,-1,-1,-1],"split_conditions":[-9.536743E-7,-9.536743E-7,-9.536743E-7,-9.536743E-7,9.740727E-2,-9.536743E-7,-9.536743E-7,-9.536743E-7,1.4857827E-1,-9.536743E-7,-9.536743E-7,-9.536743E-7,3.1456217E-1,-9.536743E-7,-9.536743E-7,-9.536743E-7,-9.536743E-7,3.7584703E-2,2.1743122E-1,-9.536743E-7,-5.7166617E-2,-9.536743E-7,5.4829966E-2,-9.536743E-7,4.617457E-2,-9.536743E-7,-9.536743E-7,-8.73473E-2,-9.536743E-7,-9.536743E-7,9.244594E-3,-9.536743E-7,-5.125768E-2,-9.536743E-7,-9.536743E-7,-9.536743E-7,-9.536743E-7,-9.536743E-7,-9.536743E-7,6.676041E-2,-5.6109976E-2,-9.536743E-7,-1.0524748E-2,2.7373899E-2,-1.12388795E-2,-9.536743E-7,-9.536743E-7,-8.558373E-3,1.1182347E-2,-9.536743E-7,-9.536743E-7,6.877799E-2,2.4673693E-1,-9.536743E-7,1.0778146E-1,-1.4021645E-2,1.5022466E-1,4.8032243E-2,3.1855837E-1,-5.9406657E-2,9.094583E-3,-2.3930404E-2,4.858356E-2,-1.3274135E-2,7.065149E-2,1.8403563E-1,-3.8300527E-3,-2.7802242E-2,7.018673E-2],"split_indices":[1145,870,1175,3512,0,1284,3,1868,0,2,4628,2755,0,20,886,3330,1853,0,0,1329,0,4549,0,5,0,6,1278,0,893,1317,0,881,0,673,20,892,20,1246,20,0,0,1049,0,0,0,1070,20,0,0,1048,3,0,0,8,0,0,0,0,0,0,0,0,0,0,0,0,0,0,0],"split_type":[0,0,0,0,0,0,0,0,0,0,0,0,0,0,0,0,0,0,0,0,0,0,0,0,0,0,0,0,0,0,0,0,0,0,0,0,0,0,0,0,0,0,0,0,0,0,0,0,0,0,0,0,0,0,0,0,0,0,0,0,0,0,0,0,0,0,0,0,0],"sum_hessian":[1.8662154E2,9.4607254E1,9.2014275E1,9.106052E1,3.5467422E0,8.3481064E1,8.53321E0,9.0053535E1,1.006979E0,8.1103226E1,2.3778393E0,7.12413E0,1.4090797E0,8.220265E0,8.183327E1,7.11102E1,9.993029E0,1.1755549E0,1.2022845E0,5.806654E0,1.3174759E0,5.996245E0,2.2240207E0,8.078337E1,1.0499014E0,3.4975758E1,3.613444E1,6.7401495E0,3.2528796E0,4.0724444E0,1.7342094E0,4.950777E0,1.0454681E0,7.373876E1,7.0446053E0,3.1428806E1,3.5469518E0,3.342042E1,2.7140188E0,1.9941509E0,1.2587287E0,2.8432777E0,1.2291669E0,3.7010934E0,1.2496834E0,6.780668E1,5.9320846E0,4.4534254E0,2.5911798E0,2.7497993E1,3.930813E0,1.9544029E0,1.5925488E0,3.2017876E1,1.4025439E0,1.3188386E0,1.3951802E0,1.6948657E0,1.148412E0,6.5146614E1,2.6600668E0,4.2434354E0,1.688649E0,1.6237007E1,1.1260986E1,2.8631837E0,1.0676293E0,3.0671204E1,1.3466731E0],"tree_param":{"num_deleted":"0","num_feature":"5184","num_nodes":"69","size_leaf_vector":"0"}},{"base_weights":[3.4739967E-2,-2.7910265E-1,3.397392E-1,-3.3723965E-1,8.291444E-1,2.6702192E-1,2.224468E0,-3.7420687E-1,1.3404387E0,9.6068364E-1,2.7558014E-1,3.7977037E-1,-6.3031757E-1,-2.1221325E-2,3.2062893E0,-4.162749E-1,4.1202158E-1,4.679629E-1,-7.0327586E-1,-8.6632705E-1,-9.079456E-2,-4.4436917E-1,8.4622395E-1,6.112885E-1,-1.049182E-1,2.9829735E-1,1.1299076E0,-8.2497483E-1,-3.3944197E-2,3.269383E-1,-5.811716E-1,-4.7241274E-1,7.39916E-1,2.2148404E-1,1.2711855E0,1.409262E0,-6.438098E-1,-5.293121E-1,1.0274527E-1,1.634518E-1,1.5819967E0,1.8966904E0,1.3446856E-1,1.6089755E0,-5.1273286E-1,-5.876636E-1,6.99703E-2,2.7398837E-1,-1.8204623E-1,7.835005E-3,7.1595347E-1,1.1386501E0,3.1089098E0],"categories":[],"categories_nodes":[],"categories_segments":[],"categories_sizes":[],"default_left":[1,1,1,1,1,1,1,1,0,0,0,1,1,0,0,1,1,1,1,0,1,1,0,0,0,1,1,0,0,0,0,1,0,1,1,1,0,1,1,1,0,0,0,1,0,0,0,0,0,0,0,0,0],"id":6,"left_children":[1,3,5,7,9,11,13,15,-1,-1,-1,17,19,-1,-1,21,23,25,27,-1,29,31,-1,-1,-1,33,35,-1,-1,-1,-1,37,-1,39,41,43,-1,45,47,49,-1,-1,-1,51,-1,-1,-1,-1,-1,-1,-1,-1,-1],"loss_changes":[1.7970846E1,6.245181E0,1.2447958E1,6.001791E0,9.235215E-2,9.6244E0,7.56172E0,3.0674076E0,0E0,0E0,0E0,8.259978E0,1.287652E0,0E0,0E0,3.3414497E0,5.73965E-1,8.353399E0,5.138228E-1,0E0,1.0877464E0,3.087555E0,0E0,0E0,0E0,4.422851E0,8.551971E0,0E0,0E0,0E0,0E0,2.709938E0,0E0,4.4435606E0,2.870287E0,6.0616817E0,0E0,2.6289158E0,4.4696668E-1,5.001315E0,0E0,0E0,0E0,5.3489E0,0E0,0E0,0E0,0E0,0E0,0E0,0E0,0E0,0E0],"parents":[2147483647,0,0,1,1,2,2,3,3,4,4,5,5,6,6,7,7,11,11,12,12,15,15,16,16,17,17,18,18,20,20,21,21,25,25,26,26,31,31,33,33,34,34,35,35,37,37,38,38,39,39,43,43],"right_children":[2,4,6,8,10,12,14,16,-1,-1,-1,18,20,-1,-1,22,24,26,28,-1,30,32,-1,-1,-1,34,36,-1,-1,-1,-1,38,-1,40,42,44,-1,46,48,50,-1,-1,-1,52,-1,-1,-1,-1,-1,-1,-1,-1,-1],"split_conditions":[-9.536743E-7,-9.536743E-7,-9.536743E-7,-9.536743E-7,-9.536743E-7,-9.536743E-7,-9.536743E-7,-9.536743E-7,1.3404387E-1,9.606837E-2,2.7558014E-2,-9.536743E-7,-9.536743E-7,-2.1221326E-3,3.2062894E-1,-9.536743E-7,-9.536743E-7,-9.536743E-7,-9.536743E-7,-8.6632706E-2,-9.536743E-7,-9.536743E-7,8.46224E-2,6.112885E-2,-1.049182E-2,-9.536743E-7,-9.536743E-7,-8.2497485E-2,-3.3944198E-3,3.269383E-2,-5.811716E-2,-9.536743E-7,7.3991604E-2,-9.536743E-7,-9.536743E-7,-9.536743E-7,-6.438098E-2,-9.536743E-7,-9.536743E-7,-9.536743E-7,1.5819967E-1,1.8966904E-1,1.3446855E-2,-9.536743E-7,-5.1273286E-2,-5.876636E-2,6.99703E-3,2.7398838E-2,-1.8204624E-2,7.8350055E-4,7.159535E-2,1.1386501E-1,3.10891E-1],"split_indices":[1145,870,1524,4009,4684,2,1330,1070,0,0,0,3268,1853,0,0,784,4660,2875,4,0,845,8,0,0,0,1277,3646,0,0,0,0,5,0,1246,4669,1317,0,673,20,2756,0,0,0,4635,0,0,0,0,0,0,0,0,0],"split_type":[0,0,0,0,0,0,0,0,0,0,0,0,0,0,0,0,0,0,0,0,0,0,0,0,0,0,0,0,0,0,0,0,0,0,0,0,0,0,0,0,0,0,0,0,0,0,0,0,0,0,0,0,0],"sum_hessian":[1.8574985E2,9.158957E1,9.416028E1,8.7685425E1,3.904147E0,9.176158E1,2.3987012E0,8.655515E1,1.1302711E0,2.5603096E0,1.3438374E0,8.2031334E1,9.730247E0,1.0273229E0,1.3713783E0,8.260578E1,3.9493718E0,7.6379654E1,5.651681E0,6.3477516E0,3.382495E0,8.144149E1,1.1642872E0,2.7188225E0,1.2305495E0,6.1951313E1,1.4428338E1,4.5854177E0,1.0662633E0,2.0065155E0,1.3759797E0,8.014478E1,1.2967077E0,5.8555763E1,3.3955488E0,1.2642642E1,1.7856966E0,7.300249E1,7.1422944E0,5.723458E1,1.3211828E0,1.7590319E0,1.6365169E0,1.1600139E1,1.0425035E0,6.654269E1,6.4598074E0,4.4840193E0,2.6582751E0,4.5447956E1,1.1786624E1,1.0170247E1,1.4298909E0],"tree_param":{"num_deleted":"0","num_feature":"5184","num_nodes":"53","size_leaf_vector":"0"}},{"base_weights":[3.5550542E-2,3.795669E-3,2.890694E0,-1.6745186E-1,4.2711148E-1,-2.0849237E-1,1.137889E0,3.3630392E-1,2.098509E0,-2.55069E-1,1.0195837E0,1.5609812E0,-4.2833887E-2,1.4852567E-1,1.130213E0,-2.893841E-1,6.808613E-1,3.7075404E-2,2.3307824E0,5.040555E-1,-2.252994E-1,5.510029E-1,2.6250114E0,-3.9658117E-1,1.8155612E-3,9.93214E-1,-1.11334614E-1,-6.080361E-1,7.2400683E-1,6.7705965E-1,-7.0235884E-1,-5.349283E-1,7.267859E-1,1.1540897E0,-1.5847775E-1,-4.516827E-1,1.8523608E-1,6.66854E-1,-1.19735785E-1,1.5089609E-1,1.3025302E0,-7.6065624E-1,4.894523E-2,1.189746E0,-5.5153316E-1,-8.2476676E-2,1.5983088E0,3.2279223E-1,-6.361158E-1,-5.003855E-1,1.3828199E-1,-5.040878E-2,4.37901E-1,-4.3169275E-1,1.7622507E0,-2.9757395E-1,4.166822E-1,-4.1160405E-1,7.2842675E-1,1.4692819E0,4.1204104E-1,-9.0109694E-1,-1.6571727E-1,-5.5177605E-1,1.1864475E0,-2.9003361E-2,1.5638462E0,1.911801E0,4.5407134E-1,-6.138775E-3,4.901246E-1],"categories":[],"categories_nodes":[],"categories_segments":[],"categories_sizes":[],"default_left":[1,1,0,1,1,1,1,1,0,1,1,0,0,1,1,1,1,1,0,1,1,1,0,1,1,0,0,0,0,1,0,1,1,1,1,1,1,1,1,1,1,1,1,1,0,0,1,1,0,0,0,0,0,0,0,0,0,0,0,0,0,0,0,0,0,0,0,0,0,0,0],"id":7,"left_children":[1,3,-1,5,7,9,11,13,-1,15,17,-1,-1,19,21,23,25,27,-1,29,31,33,-1,35,37,-1,-1,-1,-1,39,-1,41,43,45,47,49,51,53,55,57,59,61,63,65,-1,-1,67,69,-1,-1,-1,-1,-1,-1,-1,-1,-1,-1,-1,-1,-1,-1,-1,-1,-1,-1,-1,-1,-1,-1,-1],"loss_changes":[1.6901552E1,1.3517923E1,0E0,7.350627E0,7.4455976E0,7.6719804E0,2.1661558E0,7.6035886E0,0E0,4.2323084E0,6.271214E0,0E0,0E0,5.8696766E0,7.0559235E0,3.8060064E0,1.2839601E0,2.1407027E0,0E0,5.1730657E0,6.8160763E0,3.7528334E0,0E0,2.9403458E0,2.8117874E0,0E0,0E0,0E0,0E0,6.449071E0,0E0,2.2815018E0,4.073558E0,2.6754174E0,1.2886747E0,2.4163532E0,5.232769E-1,7.2283607E0,2.9306526E0,4.2301025E0,7.451153E-1,8.818116E-1,4.5408864E0,2.122551E0,0E0,0E0,3.7153625E-1,1.68728E-1,0E0,0E0,0E0,0E0,0E0,0E0,0E0,0E0,0E0,0E0,0E0,0E0,0E0,0E0,0E0,0E0,0E0,0E0,0E0,0E0,0E0,0E0,0E0],"parents":[2147483647,0,0,1,1,3,3,4,4,5,5,6,6,7,7,9,9,10,10,13,13,14,14,15,15,16,16,17,17,19,19,20,20,21,21,23,23,24,24,29,29,31,31,32,32,33,33,34,34,35,35,36,36,37,37,38,38,39,39,40,40,41,41,42,42,43,43,46,46,47,47],"right_children":[2,4,-1,6,8,10,12,14,-1,16,18,-1,-1,20,22,24,26,28,-1,30,32,34,-1,36,38,-1,-1,-1,-1,40,-1,42,44,46,48,50,52,54,56,58,60,62,64,66,-1,-1,68,70,-1,-1,-1,-1,-1,-1,-1,-1,-1,-1,-1,-1,-1,-1,-1,-1,-1,-1,-1,-1,-1,-1,-1],"split_conditions":[-9.536743E-7,-9.536743E-7,2.8906938E-1,-9.536743E-7,-9.536743E-7,-9.536743E-7,-9.536743E-7,-9.536743E-7,2.098509E-1,-9.536743E-7,-9.536743E-7,1.5609811E-1,-4.2833886E-3,-9.536743E-7,-9.536743E-7,-9.536743E-7,-9.536743E-7,-9.536743E-7,2.3307824E-1,-9.536743E-7,-9.536743E-7,-9.536743E-7,2.6250115E-1,-9.536743E-7,-9.536743E-7,9.93214E-2,-1.1133461E-2,-6.080361E-2,7.240068E-2,-9.536743E-7,-7.0235886E-2,-9.536743E-7,-9.536743E-7,-9.536743E-7,-9.536743E-7,-9.536743E-7,-9.536743E-7,-9.536743E-7,-9.536743E-7,-9.536743E-7,-9.536743E-7,-9.536743E-7,-9.536743E-7,-9.536743E-7,-5.5153318E-2,-8.247668E-3,-9.536743E-7,-9.536743E-7,-6.361158E-2,-5.0038554E-2,1.3828198E-2,-5.040878E-3,4.37901E-2,-4.3169275E-2,1.7622507E-1,-2.9757395E-2,4.166822E-2,-4.1160405E-2,7.284268E-2,1.4692819E-1,4.1204106E-2,-9.01097E-2,-1.6571729E-2,-5.5177607E-2,1.1864475E-1,-2.9003362E-3,1.5638463E-1,1.911801E-1,4.5407135E-2,-6.138775E-4,4.9012464E-2],"split_indices":[3970,1048,0,8,1284,1308,4666,1853,0,2073,1281,0,0,3251,840,4661,4684,810,0,453,5,4668,0,4,1869,0,0,0,0,20,0,812,1069,1146,20,673,20,1003,2756,2875,3,3,1070,4635,0,0,2875,3293,0,0,0,0,0,0,0,0,0,0,0,0,0,0,0,0,0,0,0,0,0,0,0],"split_type":[0,0,0,0,0,0,0,0,0,0,0,0,0,0,0,0,0,0,0,0,0,0,0,0,0,0,0,0,0,0,0,0,0,0,0,0,0,0,0,0,0,0,0,0,0,0,0,0,0,0,0,0,0,0,0,0,0,0,0,0,0,0,0,0,0,0,0,0,0,0,0],"sum_hessian":[1.855392E2,1.8448865E2,1.0505514E0,1.3178214E2,5.2706512E1,1.285798E2,3.20233E0,5.112982E1,1.5766883E0,1.2464477E2,3.935037E0,2.120448E0,1.0818821E0,4.230967E1,8.820154E0,1.2090277E2,3.7419958E0,2.8372803E0,1.0977566E0,2.150693E1,2.080274E1,7.3433423E0,1.4768121E0,8.810681E1,3.279596E1,2.5018144E0,1.2401816E0,1.5224075E0,1.3148726E0,1.9193321E1,2.3136077E0,1.6028303E1,4.7744355E0,3.6305566E0,3.7127857E0,8.0688774E1,7.418034E0,4.3746953E0,2.8421265E1,1.1098337E1,8.094985E0,1.1341037E1,4.687267E0,3.5559056E0,1.2185297E0,1.1747514E0,2.4558053E0,2.010843E0,1.7019427E0,7.467595E1,6.0128226E0,4.2524915E0,3.1655428E0,2.4867234E0,1.8879718E0,2.1679228E1,6.742037E0,5.767876E0,5.3304605E0,6.2707586E0,1.8242259E0,8.758831E0,2.582206E0,3.4043393E0,1.2829275E0,1.0518014E0,2.5041041E0,1.4011246E0,1.0546807E0,1.0028398E0,1.0080031E0],"tree_param":{"num_deleted":"0","num_feature":"5184","num_nodes":"71","size_leaf_vector":"0"}},{"base_weights":[3.8798213E-2,-3.0071696E-2,1.0961275E0,-2.0237742E-1,2.455136E-1,6.241242E-1,2.108016E0,-3.0263734E-1,5.882441E-1,1.484892E-1,1.1356953E0,2.2019996E-1,1.9286797E0,2.660241E0,4.711965E-1,-3.4627956E-1,8.983595E-1,2.0512971E-1,1.8514876E0,2.4645425E-1,-7.0574844E-1,1.6636364E0,-5.6680626E-1,-2.6516795E-1,1.4912392E0,-3.7670308E-1,7.844239E-1,1.2718234E0,-2.438479E-2,-1.5854062E-1,1.6247054E0,-1.11048445E-1,5.0564456E-1,-1.7210301E-2,-8.269495E-1,2.108366E0,-3.9156456E-2,-6.414076E-1,7.7092654E-1,-4.550122E-1,5.4277606E-2,-2.9152614E-1,4.6947128E-1,-2.659944E-1,3.479542E-1,6.3508403E-1,-5.291103E-1,-7.803552E-1,-2.8024081E-2,-4.9964732E-1,5.0662845E-1,3.8449743E-1,-3.3520278E-1,-8.690393E-2,-6.5547746E-1,-3.7194353E-1,2.0304948E-1,5.1191694E-1,-1.6214131E-1,7.290778E-1,-6.2165534E-1,-6.913241E-1,-6.361749E-3,-5.603591E-1,2.3721002E-1,1.1588172E0,-5.4775995E-1,1.17639685E-2,1.1818922E0,2.573387E-1,-6.269953E-1,2.208893E-2,-2.534969E-1,-4.7228852E-1,9.262877E-2,9.430659E-1,9.1986954E-2],"categories":[],"categories_nodes":[],"categories_segments":[],"categories_sizes":[],"default_left":[1,1,1,1,1,1,1,1,1,1,1,1,0,0,0,1,1,1,0,1,1,1,0,1,0,1,0,0,0,1,0,1,1,0,0,0,0,1,0,1,1,1,0,1,1,1,1,0,0,1,1,1,1,1,0,1,0,0,0,1,0,0,0,0,0,0,0,0,0,0,0,0,0,0,0,0,0],"id":8,"left_children":[1,3,5,7,9,11,13,15,17,19,21,23,-1,-1,-1,25,27,29,-1,31,33,35,-1,37,-1,39,-1,-1,-1,41,-1,43,45,-1,-1,-1,-1,47,-1,49,51,53,-1,55,57,59,61,-1,-1,63,65,67,69,71,-1,73,-1,-1,-1,75,-1,-1,-1,-1,-1,-1,-1,-1,-1,-1,-1,-1,-1,-1,-1,-1,-1],"loss_changes":[1.3569128E1,8.383082E0,4.12644E0,8.780926E0,5.701524E0,4.4182005E0,1.6423635E0,5.3940105E0,5.69576E0,5.398953E0,6.8117085E0,5.4212394E0,0E0,0E0,0E0,3.5393257E0,1.2987039E0,5.8109484E0,0E0,5.315045E0,5.4342794E-1,4.0492134E0,0E0,3.1235726E0,0E0,3.1466246E0,0E0,0E0,0E0,9.281247E-1,0E0,1.8473194E0,4.76682E0,0E0,0E0,0E0,0E0,4.4633746E-1,0E0,3.6176796E0,2.0731084E0,5.712553E-1,0E0,1.0203674E0,6.4003545E-1,3.9801512E0,3.5374808E-1,0E0,0E0,3.5065575E0,3.367146E0,2.555963E0,1.4529495E0,1.245774E-1,0E0,7.832279E-1,0E0,0E0,0E0,3.7631845E0,0E0,0E0,0E0,0E0,0E0,0E0,0E0,0E0,0E0,0E0,0E0,0E0,0E0,0E0,0E0,0E0,0E0],"parents":[2147483647,0,0,1,1,2,2,3,3,4,4,5,5,6,6,7,7,8,8,9,9,10,10,11,11,15,15,16,16,17,17,19,19,20,20,21,21,23,23,25,25,29,29,31,31,32,32,37,37,39,39,40,40,41,41,43,43,44,44,45,45,46,46,49,49,50,50,51,51,52,52,53,53,55,55,59,59],"right_children":[2,4,6,8,10,12,14,16,18,20,22,24,-1,-1,-1,26,28,30,-1,32,34,36,-1,38,-1,40,-1,-1,-1,42,-1,44,46,-1,-1,-1,-1,48,-1,50,52,54,-1,56,58,60,62,-1,-1,64,66,68,70,72,-1,74,-1,-1,-1,76,-1,-1,-1,-1,-1,-1,-1,-1,-1,-1,-1,-1,-1,-1,-1,-1,-1],"split_conditions":[-9.536743E-7,-9.536743E-7,-9.536743E-7,-9.536743E-7,-9.536743E-7,-9.536743E-7,-9.536743E-7,-9.536743E-7,-9.536743E-7,-9.536743E-7,-9.536743E-7,-9.536743E-7,1.9286798E-1,2.6602408E-1,4.711965E-2,-9.536743E-7,-9.536743E-7,-9.536743E-7,1.8514876E-1,-9.536743E-7,-9.536743E-7,-9.536743E-7,-5.6680627E-2,-9.536743E-7,1.4912392E-1,-9.536743E-7,7.844239E-2,1.2718235E-1,-2.4384789E-3,-9.536743E-7,1.6247055E-1,-9.536743E-7,-9.536743E-7,-1.7210301E-3,-8.269495E-2,2.108366E-1,-3.9156456E-3,-9.536743E-7,7.7092655E-2,-9.536743E-7,-9.536743E-7,-9.536743E-7,4.694713E-2,-9.536743E-7,-9.536743E-7,-9.536743E-7,-9.536743E-7,-7.8035526E-2,-2.802408E-3,-9.536743E-7,-9.536743E-7,-9.536743E-7,-9.536743E-7,-9.536743E-7,-6.554775E-2,-9.536743E-7,2.0304948E-2,5.1191695E-2,-1.621413E-2,-9.536743E-7,-6.2165536E-2,-6.913241E-2,-6.361749E-4,-5.6035914E-2,2.3721002E-2,1.1588172E-1,-5.4775994E-2,1.1763969E-3,1.18189216E-1,2.5733871E-2,-6.2699534E-2,2.208893E-3,-2.534969E-2,-4.7228854E-2,9.2628775E-3,9.430659E-2,9.198695E-3],"split_indices":[1175,20,3,5,4644,2041,1002,784,2875,453,3069,810,0,0,0,885,4633,1853,0,1005,1869,4669,0,1296,0,3,0,0,0,761,0,1853,2,0,0,0,0,4,0,7,4660,4666,0,2,4684,2369,3332,0,0,6,4684,1049,4684,1145,0,5,0,0,0,4631,0,0,0,0,0,0,0,0,0,0,0,0,0,0,0,0,0],"split_type":[0,0,0,0,0,0,0,0,0,0,0,0,0,0,0,0,0,0,0,0,0,0,0,0,0,0,0,0,0,0,0,0,0,0,0,0,0,0,0,0,0,0,0,0,0,0,0,0,0,0,0,0,0,0,0,0,0,0,0,0,0,0,0,0,0,0,0,0,0,0,0,0,0,0,0,0,0],"sum_hessian":[1.8488995E2,1.744956E2,1.039434E1,1.075298E2,6.6965805E1,8.190574E0,2.2037654E0,9.597614E1,1.1553662E1,6.143642E1,5.529389E0,7.1465955E0,1.0439785E0,1.1803071E0,1.0234582E0,9.329753E1,2.6786058E0,9.7569685E0,1.7966938E0,5.5753975E1,5.6824436E0,4.2380185E0,1.2913699E0,5.7443824E0,1.4022127E0,9.150235E1,1.7951846E0,1.6375371E0,1.0410687E0,8.474317E0,1.2826525E0,2.3673096E1,3.208088E1,1.0214761E0,4.6609674E0,3.171513E0,1.0665057E0,4.4935613E0,1.2508215E0,7.7385635E1,1.4116716E1,7.4355803E0,1.0387361E0,1.8012943E1,5.6601515E0,2.8857311E1,3.2235692E0,3.4417088E0,1.0518522E0,7.441217E1,2.9734633E0,7.6464715E0,6.4702454E0,5.5525703E0,1.8830097E0,1.4862722E1,3.150222E0,4.280634E0,1.3795176E0,2.7239859E1,1.6174526E0,2.2140493E0,1.0095197E0,6.896913E1,5.443038E0,1.7759272E0,1.1975361E0,5.9022717E0,1.7441996E0,2.1738656E0,4.2963796E0,3.8809078E0,1.6716627E0,1.2209032E1,2.6536903E0,2.0031387E1,7.2084723E0],"tree_param":{"num_deleted":"0","num_feature":"5184","num_nodes":"77","size_leaf_vector":"0"}},{"base_weights":[3.9274685E-2,9.811296E-3,2.2243135E0,-1.4135788E-1,3.537417E-1,-1.808648E-1,9.8071796E-1,4.4050643E-1,-7.775408E-1,-2.2509359E-1,8.4082884E-1,9.6668854E-2,1.4900563E0,3.5586214E-1,1.8215202E0,-2.6256478E-1,5.8333117E-1,1.4013793E0,-5.619326E-1,1.627833E-1,1.096124E0,-3.660621E-1,-1.8173481E-4,7.0741457E-1,1.6022064E-1,1.3821763E-1,2.1603508E0,3.2457003E-1,-5.2523214E-1,5.0881743E-1,2.1011143E0,-4.2316028E-1,1.9928235E-1,-7.495185E-1,9.5580354E-2,4.2209396E-1,-7.0555323E-1,-8.6220247E-1,7.505063E-1,1.2417156E0,-1.918178E-1,2.7333903E0,4.0085053E-1,-4.7440526E-1,1.6028924E-1,-1.5786982E-3,3.8540408E-1,3.6420292E-1,-2.388902E-1,2.5835225E-1,9.645752E-1,-7.318526E-1,7.6135415E-1],"categories":[],"categories_nodes":[],"categories_segments":[],"categories_sizes":[],"default_left":[1,1,0,1,1,1,1,1,0,1,1,0,0,1,0,1,1,1,0,1,1,1,1,0,0,0,0,1,1,1,1,1,1,0,1,1,0,0,0,0,1,0,0,0,0,0,0,0,0,0,0,0,0],"id":9,"left_children":[1,3,-1,5,7,9,11,13,-1,15,17,-1,-1,19,-1,21,23,25,-1,27,29,31,33,-1,-1,-1,-1,35,37,39,41,43,45,-1,47,49,-1,-1,-1,-1,51,-1,-1,-1,-1,-1,-1,-1,-1,-1,-1,-1,-1],"loss_changes":[1.1936284E1,9.631009E0,0E0,5.8838506E0,5.8933735E0,5.8465624E0,1.8974848E0,5.5661316E0,0E0,3.812152E0,5.0382404E0,0E0,0E0,7.158739E0,0E0,3.153471E0,1.8386686E-1,3.6787395E0,0E0,4.83325E0,5.0959816E0,2.7725363E0,2.5006187E0,0E0,0E0,0E0,0E0,3.7669961E0,4.239601E0,4.3009644E0,2.7024555E0,2.3471088E0,3.1161398E-1,0E0,2.86333E0,2.608501E0,0E0,0E0,0E0,0E0,3.0852401E0,0E0,0E0,0E0,0E0,0E0,0E0,0E0,0E0,0E0,0E0,0E0,0E0],"parents":[2147483647,0,0,1,1,3,3,4,4,5,5,6,6,7,7,9,9,10,10,13,13,15,15,16,16,17,17,19,19,20,20,21,21,22,22,27,27,28,28,29,29,30,30,31,31,32,32,34,34,35,35,40,40],"right_children":[2,4,-1,6,8,10,12,14,-1,16,18,-1,-1,20,-1,22,24,26,-1,28,30,32,34,-1,-1,-1,-1,36,38,40,42,44,46,-1,48,50,-1,-1,-1,-1,52,-1,-1,-1,-1,-1,-1,-1,-1,-1,-1,-1,-1],"split_conditions":[-9.536743E-7,-9.536743E-7,2.2243135E-1,-9.536743E-7,-9.536743E-7,-9.536743E-7,-9.536743E-7,-9.536743E-7,-7.775408E-2,-9.536743E-7,-9.536743E-7,9.666885E-3,1.4900564E-1,-9.536743E-7,1.8215202E-1,-9.536743E-7,-9.536743E-7,-9.536743E-7,-5.6193262E-2,-9.536743E-7,-9.536743E-7,-9.536743E-7,-9.536743E-7,7.074146E-2,1.6022064E-2,1.3821763E-2,2.1603508E-1,-9.536743E-7,-9.536743E-7,-9.536743E-7,-9.536743E-7,-9.536743E-7,-9.536743E-7,-7.495185E-2,-9.536743E-7,-9.536743E-7,-7.055532E-2,-8.622025E-2,7.505063E-2,1.24171555E-1,-9.536743E-7,2.7333903E-1,4.0085055E-2,-4.7440525E-2,1.6028924E-2,-1.5786981E-4,3.8540408E-2,3.6420293E-2,-2.388902E-2,2.5835225E-2,9.645752E-2,-7.318526E-2,7.613542E-2],"split_indices":[3970,1048,0,8,3268,1308,20,1284,0,870,954,0,0,1295,0,4661,4684,4560,0,1317,840,4,1005,0,0,0,0,696,3,3251,4627,673,20,0,4549,5,0,0,0,0,1512,0,0,0,0,0,0,0,0,0,0,0,0],"split_type":[0,0,0,0,0,0,0,0,0,0,0,0,0,0,0,0,0,0,0,0,0,0,0,0,0,0,0,0,0,0,0,0,0,0,0,0,0,0,0,0,0,0,0,0,0,0,0,0,0,0,0,0,0],"sum_hessian":[1.8474648E2,1.8327959E2,1.4668792E0,1.2772783E2,5.5551758E1,1.24193924E2,3.5339036E0,5.2161777E1,3.3899813E0,1.19788025E2,4.405899E0,1.7266983E0,1.8072052E0,5.0334393E1,1.8273844E0,1.15127E2,4.661024E0,3.148663E0,1.2572362E0,4.088933E1,9.445061E0,8.227743E1,3.284957E1,3.084509E0,1.5765152E0,1.6254787E0,1.5231843E0,3.3532436E1,7.3568954E0,6.912029E0,2.5330327E0,7.495835E1,7.3190813E0,2.9487522E0,2.990082E1,3.1171604E1,2.3608325E0,6.076119E0,1.2807766E0,3.0007885E0,3.91124E0,1.4034903E0,1.1295422E0,6.907805E1,5.8803E0,3.9970336E0,3.322048E0,1.6533453E1,1.3367368E1,2.5078262E1,6.0933433E0,2.6449142E0,1.2663258E0],"tree_param":{"num_deleted":"0","num_feature":"5184","num_nodes":"53","size_leaf_vector":"0"}},{"base_weights":[3.949655E-2,-2.3250135E-2,9.145591E-1,4.7584996E-1,-9.564215E-2,1.0943618E0,-5.2586025E-1,6.150822E-1,-6.610868E-1,-1.23937786E-1,1.4166428E0,6.548816E-1,2.6476007E0,8.4914064E-1,-1.3282834E-1,-2.6068333E-1,1.9754013E-1,1.5266111E-1,1.5907159E0,5.521016E-1,1.8505597E0,2.3090614E-1,-6.334683E-1,-3.003364E-1,6.173099E-1,-8.6054265E-2,4.8658302E-1,-3.7531164E-1,1.4707611E0,2.016509E0,3.9055634E-1,7.850863E-1,-4.014533E-1,5.3320736E-1,-1.857886E-1,-3.7455183E-1,2.5196797E-1,9.1945964E-1,-1.3120693E-1,-2.8745767E-1,6.553378E-1,7.7187866E-1,-7.381321E-2,-7.4551827E-1,1.4125128E-1,3.026912E-1,1.427368E0,-2.5688821E-2,-5.6331074E-1,-3.97411E-1,5.805861E-1,7.220443E-2,9.314968E-1,1.3957234E-1,-7.0516926E-1,-1.1515678E-1,1.2982062E0,1.0321642E0,-6.6346955E-1,-6.3797385E-1,6.922195E-1,6.847811E-1,-5.320454E-1,1.1069993E-1,6.8523234E-1,3.421529E-1,2.1351736E0,-4.1277158E-1,4.5203257E-1,3.1317633E-1,-6.7379916E-1,-1.473376E-1,1.312918E0,-7.779602E-1,-9.225328E-2,-5.260275E-1,3.1404468E-1,6.696045E-1,2.4583206E0,-7.693643E-1,-9.351002E-2,-5.486082E-1,1.3858232E0],"categories":[],"categories_nodes":[],"categories_segments":[],"categories_sizes":[],"default_left":[1,1,1,1,1,1,0,1,0,1,0,1,0,1,1,1,1,1,1,1,0,1,0,1,1,1,1,1,0,0,0,1,1,0,0,1,1,0,0,1,1,1,1,0,1,1,1,0,0,1,0,1,0,1,1,1,0,1,0,1,1,0,0,0,0,0,0,0,0,0,0,0,0,0,0,0,0,0,0,0,0,0,0],"id":10,"left_children":[1,3,5,7,9,11,-1,13,-1,15,-1,17,-1,19,21,23,25,27,29,31,-1,33,-1,35,37,39,41,43,-1,-1,-1,45,47,-1,-1,49,51,-1,-1,53,55,57,59,-1,61,63,65,-1,-1,67,-1,69,-1,71,73,75,-1,77,-1,79,81,-1,-1,-1,-1,-1,-1,-1,-1,-1,-1,-1,-1,-1,-1,-1,-1,-1,-1,-1,-1,-1,-1],"loss_changes":[1.0213438E1,6.338809E0,3.7985115E0,3.925775E0,6.7204466E0,6.0398483E0,0E0,3.670555E0,0E0,6.692189E0,0E0,4.553537E0,0E0,3.623063E0,1.1858844E0,3.8901072E0,3.7837644E0,5.9435096E0,9.7947025E-1,3.3072395E0,0E0,6.0790753E-1,0E0,4.2952003E0,1.2346075E0,3.7558184E0,3.6954303E0,1.3154968E0,0E0,0E0,0E0,3.0262113E0,1.8661058E-1,0E0,0E0,2.212078E0,1.4887339E0,0E0,0E0,3.5736618E0,2.8285534E0,6.3514194E0,4.1539364E0,0E0,1.6388286E0,4.855082E-1,2.7400618E0,0E0,0E0,1.3507261E0,0E0,2.216696E0,0E0,3.7176669E0,3.750043E-1,7.610097E-1,0E0,5.194992E0,0E0,3.1916785E-1,4.3085413E0,0E0,0E0,0E0,0E0,0E0,0E0,0E0,0E0,0E0,0E0,0E0,0E0,0E0,0E0,0E0,0E0,0E0,0E0,0E0,0E0,0E0,0E0],"parents":[2147483647,0,0,1,1,2,2,3,3,4,4,5,5,7,7,9,9,11,11,13,13,14,14,15,15,16,16,17,17,18,18,19,19,21,21,23,23,24,24,25,25,26,26,27,27,31,31,32,32,35,35,36,36,39,39,40,40,41,41,42,42,44,44,45,45,46,46,49,49,51,51,53,53,54,54,55,55,57,57,59,59,60,60],"right_children":[2,4,6,8,10,12,-1,14,-1,16,-1,18,-1,20,22,24,26,28,30,32,-1,34,-1,36,38,40,42,44,-1,-1,-1,46,48,-1,-1,50,52,-1,-1,54,56,58,60,-1,62,64,66,-1,-1,68,-1,70,-1,72,74,76,-1,78,-1,80,82,-1,-1,-1,-1,-1,-1,-1,-1,-1,-1,-1,-1,-1,-1,-1,-1,-1,-1,-1,-1,-1,-1],"split_conditions":[-9.536743E-7,-9.536743E-7,-9.536743E-7,-9.536743E-7,-9.536743E-7,-9.536743E-7,-5.2586026E-2,-9.536743E-7,-6.610868E-2,-9.536743E-7,1.4166428E-1,-9.536743E-7,2.6476008E-1,-9.536743E-7,-9.536743E-7,-9.536743E-7,-9.536743E-7,-9.536743E-7,-9.536743E-7,-9.536743E-7,1.8505597E-1,-9.536743E-7,-6.3346826E-2,-9.536743E-7,-9.536743E-7,-9.536743E-7,-9.536743E-7,-9.536743E-7,1.4707612E-1,2.016509E-1,3.9055634E-2,-9.536743E-7,-9.536743E-7,5.3320736E-2,-1.857886E-2,-9.536743E-7,-9.536743E-7,9.194597E-2,-1.3120693E-2,-9.536743E-7,-9.536743E-7,-9.536743E-7,-9.536743E-7,-7.455183E-2,-9.536743E-7,-9.536743E-7,-9.536743E-7,-2.5688822E-3,-5.6331076E-2,-9.536743E-7,5.805861E-2,-9.536743E-7,9.3149684E-2,-9.536743E-7,-9.536743E-7,-9.536743E-7,1.2982063E-1,-9.536743E-7,-6.634696E-2,-9.536743E-7,-9.536743E-7,6.847811E-2,-5.3204544E-2,1.10699935E-2,6.8523236E-2,3.421529E-2,2.1351735E-1,-4.127716E-2,4.5203257E-2,3.1317633E-2,-6.7379914E-2,-1.4733761E-2,1.3129179E-1,-7.779602E-2,-9.225328E-3,-5.260275E-2,3.140447E-2,6.696045E-2,2.4583207E-1,-7.693643E-2,-9.351002E-3,-5.486082E-2,1.3858233E-1],"split_indices":[1175,1869,2950,845,436,2041,0,2251,0,1048,0,1296,0,4630,1147,870,20,810,4606,4549,0,2230,0,1214,4684,5,4630,1049,0,0,0,20,1145,0,0,5150,3647,0,0,4660,2875,453,4608,0,2251,4667,1005,0,0,765,0,4627,0,812,2870,4662,0,6,0,1003,4668,0,0,0,0,0,0,0,0,0,0,0,0,0,0,0,0,0,0,0,0,0,0],"split_type":[0,0,0,0,0,0,0,0,0,0,0,0,0,0,0,0,0,0,0,0,0,0,0,0,0,0,0,0,0,0,0,0,0,0,0,0,0,0,0,0,0,0,0,0,0,0,0,0,0,0,0,0,0,0,0,0,0,0,0,0,0,0,0,0,0,0,0,0,0,0,0,0,0,0,0,0,0,0,0,0,0,0,0],"sum_hessian":[1.8462521E2,1.7318066E2,1.1444553E1,2.123116E1,1.5194951E2,1.038809E1,1.0564626E0,1.9323727E1,1.9074327E0,1.5005986E2,1.889651E0,9.205164E0,1.1829264E0,1.4614705E1,4.70902E0,1.0541084E2,4.464901E1,6.7473116E0,2.4578524E0,1.2467838E1,2.1468673E0,3.03949E0,1.6695304E0,1.0148536E2,3.925484E0,2.2891396E1,2.1757612E1,5.3282948E0,1.419017E0,1.3121325E0,1.1457198E0,1.0161681E1,2.3061569E0,1.59949E0,1.4399998E0,8.974746E1,1.1737902E1,2.6338973E0,1.2915864E0,1.8482729E1,4.408666E0,1.4167574E1,7.5900393E0,2.8456595E0,2.4826353E0,6.643362E0,3.5183194E0,1.04314E0,1.2630168E0,8.822003E1,1.5274308E0,1.01571665E1,1.580735E0,9.468682E0,9.014047E0,2.3786557E0,2.0300107E0,1.2230581E1,1.9369926E0,4.4672284E0,3.122811E0,1.3642584E0,1.1183767E0,5.2818613E0,1.3615006E0,1.9744581E0,1.5438614E0,8.7158005E1,1.0620224E0,8.115815E0,2.041352E0,8.3109045E0,1.1577775E0,7.816473E0,1.197574E0,1.1000202E0,1.2786355E0,1.0923188E1,1.3073928E0,3.266005E0,1.2012233E0,1.1946607E0,1.9281504E0],"tree_param":{"num_deleted":"0","num_feature":"5184","num_nodes":"83","size_leaf_vector":"0"}},{"base_weights":[4.1880097E-2,3.2492005E-3,1.2635503E0,-1.2281185E-1,2.6601186E-1,-3.504244E-1,2.2394955E0,-1.6242173E-1,8.996061E-1,4.0875217E-1,-3.3192217E-1,-1.3783414E-2,-5.11881E-1,3.0718408E0,3.2304475E-1,-1.8721844E-1,1.1860082E0,1.264975E0,-9.509626E-2,2.876963E-1,1.3962096E0,-5.0549686E-1,3.8766962E-1,-2.1870713E-1,7.821665E-1,3.5790467E-1,1.5820785E0,4.2373532E-1,-4.5705655E-1,5.6193236E-2,2.1527987E0,-6.718235E-1,4.9517623E-1,-2.989781E-1,1.9771579E-1,1.3051887E0,8.612133E-2,5.135553E-1,-6.9465715E-1,-6.8036073E-1,3.912478E-1,-8.5627854E-1,-7.646061E-2,-3.352065E-1,4.7384113E-1,-1.1389704E-1,4.9305192E-1,-6.187387E-2,6.4341104E-1,-8.0205226E-1,-1.14849865E-1,-5.296947E-1,4.0900573E-1,-4.0387303E-1,9.039866E-2,9.569666E-1,-5.4103607E-1,1.8052599E-1,-5.4456437E-1,-1.6768706E-1,9.2117894E-1,-3.861512E-1,3.9754283E-1,7.365251E-1,-3.630899E-1],"categories":[],"categories_nodes":[],"categories_segments":[],"categories_sizes":[],"default_left":[1,1,1,1,1,1,1,1,1,1,1,0,0,0,0,1,0,1,0,1,1,1,0,1,1,0,0,1,1,0,0,1,0,1,1,0,0,1,0,1,0,0,1,1,1,1,1,1,1,0,0,0,0,0,0,0,0,0,0,0,0,0,0,0,0],"id":11,"left_children":[1,3,5,7,9,11,13,15,17,19,21,-1,-1,-1,-1,23,-1,25,-1,27,29,31,-1,33,35,-1,-1,37,39,-1,-1,41,-1,43,45,-1,-1,47,-1,49,-1,-1,51,53,55,57,59,61,63,-1,-1,-1,-1,-1,-1,-1,-1,-1,-1,-1,-1,-1,-1,-1,-1],"loss_changes":[8.732055E0,6.0095677E0,9.718181E0,5.112086E0,5.155606E0,1.5610337E-1,4.861244E0,4.197546E0,1.8380046E0,5.3276987E0,1.6806558E0,0E0,0E0,0E0,0E0,3.7611752E0,0E0,4.481349E-1,0E0,4.6469855E0,4.92253E0,1.9988489E0,0E0,3.8929715E0,1.314214E0,0E0,0E0,4.142351E0,1.6433376E0,0E0,0E0,9.2379904E-1,0E0,2.862235E0,1.8174183E0,0E0,0E0,2.6893578E0,0E0,3.2905912E-1,0E0,0E0,9.270886E-1,2.7491226E0,2.8408813E0,1.3820944E0,2.9869952E0,1.2620302E0,2.9869356E0,0E0,0E0,0E0,0E0,0E0,0E0,0E0,0E0,0E0,0E0,0E0,0E0,0E0,0E0,0E0,0E0],"parents":[2147483647,0,0,1,1,2,2,3,3,4,4,5,5,6,6,7,7,8,8,9,9,10,10,15,15,17,17,19,19,20,20,21,21,23,23,24,24,27,27,28,28,31,31,33,33,34,34,37,37,39,39,42,42,43,43,44,44,45,45,46,46,47,47,48,48],"right_children":[2,4,6,8,10,12,14,16,18,20,22,-1,-1,-1,-1,24,-1,26,-1,28,30,32,-1,34,36,-1,-1,38,40,-1,-1,42,-1,44,46,-1,-1,48,-1,50,-1,-1,52,54,56,58,60,62,64,-1,-1,-1,-1,-1,-1,-1,-1,-1,-1,-1,-1,-1,-1,-1,-1],"split_conditions":[-9.536743E-7,-9.536743E-7,-9.536743E-7,-9.536743E-7,-9.536743E-7,-9.536743E-7,-9.536743E-7,-9.536743E-7,-9.536743E-7,-9.536743E-7,-9.536743E-7,-1.3783415E-3,-5.11881E-2,3.0718407E-1,3.2304477E-2,-9.536743E-7,1.1860082E-1,-9.536743E-7,-9.509626E-3,-9.536743E-7,-9.536743E-7,-9.536743E-7,3.876696E-2,-9.536743E-7,-9.536743E-7,3.579047E-2,1.5820785E-1,-9.536743E-7,-9.536743E-7,5.619324E-3,2.1527986E-1,-9.536743E-7,4.9517624E-2,-9.536743E-7,-9.536743E-7,1.3051887E-1,8.612133E-3,-9.536743E-7,-6.946572E-2,-9.536743E-7,3.9124783E-2,-8.5627854E-2,-9.536743E-7,-9.536743E-7,-9.536743E-7,-9.536743E-7,-9.536743E-7,-9.536743E-7,-9.536743E-7,-8.0205224E-2,-1.1484987E-2,-5.2969467E-2,4.0900573E-2,-4.0387303E-2,9.039867E-3,9.569666E-2,-5.410361E-2,1.8052598E-2,-5.445644E-2,-1.6768707E-2,9.21179E-2,-3.861512E-2,3.9754283E-2,7.365251E-2,-3.630899E-2],"split_indices":[4787,1048,4560,8,1317,1666,3357,436,4666,1175,3,0,0,0,0,784,0,20,0,4558,4632,1234,0,3,1145,0,0,2040,3,0,0,1296,0,7,4668,0,0,1145,0,1214,0,0,785,4,3330,1145,20,20,2,0,0,0,0,0,0,0,0,0,0,0,0,0,0,0,0],"split_type":[0,0,0,0,0,0,0,0,0,0,0,0,0,0,0,0,0,0,0,0,0,0,0,0,0,0,0,0,0,0,0,0,0,0,0,0,0,0,0,0,0,0,0,0,0,0,0,0,0,0,0,0,0,0,0,0,0,0,0,0,0,0,0,0,0],"sum_hessian":[1.8411082E2,1.7943936E2,4.6714606E0,1.21623024E2,5.7816338E1,2.0018423E0,2.6696186E0,1.1789668E2,3.7263415E0,4.6929585E1,1.0886754E1,1.0007087E0,1.0011336E0,1.4409229E0,1.2286958E0,1.166134E2,1.2832826E0,2.5265794E0,1.1997621E0,4.2954937E1,3.9746454E0,9.010765E0,1.8759882E0,1.13694626E2,2.9187758E0,1.2058706E0,1.3207089E0,3.668498E1,6.269961E0,1.8219714E0,2.1526742E0,8.008297E0,1.0024687E0,9.555683E1,1.8137793E1,1.1668398E0,1.751936E0,3.4458378E1,2.226601E0,5.1201334E0,1.1498275E0,5.7794604E0,2.2288365E0,9.181879E1,3.738051E0,9.124629E0,9.013163E0,6.440799E0,2.8017576E1,3.8692381E0,1.2508951E0,1.1055677E0,1.1232688E0,7.910686E1,1.2711923E1,2.571139E0,1.1669117E0,5.7645516E0,3.3600774E0,3.7830353E0,5.2301273E0,3.8692095E0,2.57159E0,2.58906E1,2.126977E0],"tree_param":{"num_deleted":"0","num_feature":"5184","num_nodes":"65","size_leaf_vector":"0"}},{"base_weights":[4.047842E-2,1.476613E-2,1.5495921E0,-1.6337711E-2,1.062353E0,1.9610592E0,4.129951E-1,4.7017536E-1,-8.980984E-2,2.726234E-1,1.9074506E0,1.3464697E-1,1.2294432E0,-1.2089605E-1,7.5844413E-1,8.904431E-1,-5.651526E-1,-2.8364018E-2,1.2998514E0,4.4167593E-1,2.0112123E0,-3.053252E-1,2.116407E-2,4.3276918E-1,9.985494E-1,-1.3866611E-1,6.7893887E-1,-2.906592E-2,8.0549127E-1,-3.4142926E-1,4.514017E-1,9.0268716E-2,-8.5152E-1,6.41762E-1,-6.70358E-2,7.436899E-2,-7.530754E-1,-3.8737175E-1,1.6338265E-1,-1.20596774E-1,8.418355E-1,1.6433956E-1,-6.210683E-1,-7.854029E-2,7.746973E-1,-4.379047E-1,9.4415024E-2,2.5106394E-1,-6.830931E-3,2.832132E-1,-1.0654765E-1,-8.391229E-1,9.3766525E-2],"categories":[],"categories_nodes":[],"categories_segments":[],"categories_sizes":[],"default_left":[1,1,1,1,1,0,0,1,1,1,0,1,1,1,1,0,0,1,0,1,0,1,1,1,0,1,0,0,0,1,1,1,0,0,0,1,0,1,1,0,0,1,1,0,0,0,0,0,0,0,0,0,0],"id":12,"left_children":[1,3,5,7,9,-1,-1,11,13,15,-1,17,19,21,23,-1,-1,25,-1,27,-1,29,31,33,-1,35,-1,-1,-1,37,39,41,-1,-1,-1,43,-1,45,47,-1,-1,49,51,-1,-1,-1,-1,-1,-1,-1,-1,-1,-1],"loss_changes":[7.1654916E0,5.9854455E0,6.370063E-1,6.435737E0,3.014886E0,0E0,0E0,5.853822E0,4.211474E0,2.5242975E0,0E0,3.3626535E0,3.4955816E0,3.9777327E0,1.05035305E-2,0E0,0E0,1.368886E0,0E0,8.501006E-1,0E0,1.9577746E0,5.2968645E0,4.7830713E-1,0E0,2.0148318E0,0E0,0E0,0E0,1.5378652E0,8.6908835E-1,4.375733E0,0E0,0E0,0E0,1.3482918E0,0E0,1.4673758E0,9.136751E-2,0E0,0E0,2.4211903E0,1.3036389E0,0E0,0E0,0E0,0E0,0E0,0E0,0E0,0E0,0E0,0E0],"parents":[2147483647,0,0,1,1,2,2,3,3,4,4,7,7,8,8,9,9,11,11,12,12,13,13,14,14,17,17,19,19,21,21,22,22,23,23,25,25,29,29,30,30,31,31,35,35,37,37,38,38,41,41,42,42],"right_children":[2,4,6,8,10,-1,-1,12,14,16,-1,18,20,22,24,-1,-1,26,-1,28,-1,30,32,34,-1,36,-1,-1,-1,38,40,42,-1,-1,-1,44,-1,46,48,-1,-1,50,52,-1,-1,-1,-1,-1,-1,-1,-1,-1,-1],"split_conditions":[-9.536743E-7,-9.536743E-7,-9.536743E-7,-9.536743E-7,-9.536743E-7,1.9610593E-1,4.129951E-2,-9.536743E-7,-9.536743E-7,-9.536743E-7,1.9074506E-1,-9.536743E-7,-9.536743E-7,-9.536743E-7,-9.536743E-7,8.904431E-2,-5.6515258E-2,-9.536743E-7,1.2998514E-1,-9.536743E-7,2.0112124E-1,-9.536743E-7,-9.536743E-7,-9.536743E-7,9.985494E-2,-9.536743E-7,6.7893885E-2,-2.906592E-3,8.054913E-2,-9.536743E-7,-9.536743E-7,-9.536743E-7,-8.5152E-2,6.41762E-2,-6.7035803E-3,-9.536743E-7,-7.530754E-2,-9.536743E-7,-9.536743E-7,-1.2059677E-2,8.418355E-2,-9.536743E-7,-9.536743E-7,-7.854029E-3,7.746973E-2,-4.379047E-2,9.441502E-3,2.5106395E-2,-6.8309315E-4,2.832132E-2,-1.0654765E-2,-8.391229E-2,9.376653E-3],"split_indices":[3970,1284,4483,1869,4642,0,0,1003,870,4630,0,1070,1295,1145,2,0,0,4,0,20,0,3798,3266,4684,0,4606,0,0,0,4,20,2,0,0,0,5,0,673,20,0,0,1002,1853,0,0,0,0,0,0,0,0,0,0],"split_type":[0,0,0,0,0,0,0,0,0,0,0,0,0,0,0,0,0,0,0,0,0,0,0,0,0,0,0,0,0,0,0,0,0,0,0,0,0,0,0,0,0,0,0,0,0,0,0,0,0,0,0,0,0],"sum_hessian":[1.8425412E2,1.8216026E2,2.093863E0,1.7786372E2,4.296537E0,1.0047493E0,1.0891138E0,2.262796E1,1.5523576E2,2.904719E0,1.3918179E0,1.6509554E1,6.1184063E0,1.5057507E2,4.6606913E0,1.6356443E0,1.2690748E0,1.5339263E1,1.1702906E0,3.8270068E0,2.2913997E0,6.501729E1,8.555778E1,3.1671855E0,1.4935058E0,1.3965353E1,1.3739105E0,2.0694485E0,1.7575582E0,6.2580338E1,2.4369512E0,8.011067E1,5.447108E0,2.0330453E0,1.1341401E0,1.1022472E1,2.9428804E0,5.7573284E1,5.007052E0,1.2689776E0,1.1679735E0,7.325198E1,6.8586874E0,9.775867E0,1.2466052E0,5.2190308E1,5.3829784E0,2.9912105E0,2.0158412E0,5.0879147E1,2.2372839E1,5.122301E0,1.7363862E0],"tree_param":{"num_deleted":"0","num_feature":"5184","num_nodes":"53","size_leaf_vector":"0"}},{"base_weights":[4.053558E-2,-1.3009585E-2,6.987514E-1,-7.2092704E-2,4.151408E-1,8.376687E-1,-5.2373093E-1,-1.0873844E-1,7.0359313E-1,5.229619E-1,-6.015743E-1,4.2023933E-1,1.859325E0,-2.3501462E-1,1.6333671E-1,4.6673194E-2,2.0322309E0,6.419946E-1,-5.918885E-1,4.500043E-2,1.3594966E0,-2.8127348E-1,5.9403265E-1,1.4484259E-2,9.0229225E-1,-5.4768133E-1,1.1480672E0,8.0037E-1,-3.6768925E-1,-2.7781272E-1,8.633846E-1,-3.4089684E-1,2.3576155E-1,-1.6910397E-1,5.791052E-1,1.2114477E0,-2.1856664E-1,-2.0193714E-3,-7.083681E-1,9.2995626E-1,-5.203032E-1,-6.3271534E-1,5.945357E-1,-3.7895846E-1,5.9624094E-1,4.177334E-1,-5.7529414E-1,1.1531159E-1,-7.228577E-1,3.25084E-1,1.3954974E0,4.8174956E-1,2.061917E0,1.1006958E0,2.1062335E-1,-7.744796E-1,-1.8550972E-2,-4.109766E-1,2.1269107E-1,9.457394E-1,-8.7551184E-2,1.0781526E-1,1.0325754E0,-5.0683852E-2,9.5915544E-1,-8.786001E-1,-1.8637441E-1,-5.8520153E-2,1.2670847E0,-1.813016E-1,1.4218992E0,7.7539307E-1,1.8933302E0,6.1373776E-1,-5.1091224E-1],"categories":[],"categories_nodes":[],"categories_segments":[],"categories_sizes":[],"default_left":[1,1,1,1,1,1,0,1,1,1,0,1,0,1,1,1,0,1,0,1,0,1,0,1,1,1,0,1,0,1,0,1,1,1,1,1,0,0,0,1,0,1,0,1,1,1,0,1,1,1,0,1,0,1,1,0,0,0,0,0,0,0,0,0,0,0,0,0,0,0,0,0,0,0,0],"id":13,"left_children":[1,3,5,7,9,11,-1,13,15,17,-1,19,-1,21,23,25,-1,27,-1,29,-1,31,-1,33,35,37,-1,39,-1,41,-1,43,45,47,49,51,-1,-1,-1,53,-1,55,-1,57,59,61,-1,63,65,67,-1,69,-1,71,73,-1,-1,-1,-1,-1,-1,-1,-1,-1,-1,-1,-1,-1,-1,-1,-1,-1,-1,-1,-1],"loss_changes":[6.5341153E0,4.3857555E0,2.807075E0,4.4018254E0,2.6197915E0,4.7233505E0,0E0,5.060109E0,6.013238E0,2.9739509E0,0E0,3.6238525E0,0E0,4.0114045E0,5.148323E0,4.3642626E0,0E0,3.1952024E0,0E0,2.4867938E0,0E0,3.0281444E0,0E0,4.251773E0,2.9853268E0,3.8290226E-1,0E0,3.221449E0,0E0,2.4987314E0,0E0,3.2986202E0,1.786754E0,4.967945E0,1.6323192E0,2.9204435E0,0E0,0E0,0E0,1.601304E0,0E0,4.521072E-1,0E0,1.6671724E0,9.791739E-1,1.6297741E0,0E0,3.039546E0,7.2705746E-1,3.3174295E0,0E0,3.187097E0,0E0,1.5811615E0,1.5060265E0,0E0,0E0,0E0,0E0,0E0,0E0,0E0,0E0,0E0,0E0,0E0,0E0,0E0,0E0,0E0,0E0,0E0,0E0,0E0,0E0],"parents":[2147483647,0,0,1,1,2,2,3,3,4,4,5,5,7,7,8,8,9,9,11,11,13,13,14,14,15,15,17,17,19,19,21,21,23,23,24,24,25,25,27,27,29,29,31,31,32,32,33,33,34,34,35,35,39,39,41,41,43,43,44,44,45,45,47,47,48,48,49,49,51,51,53,53,54,54],"right_children":[2,4,6,8,10,12,-1,14,16,18,-1,20,-1,22,24,26,-1,28,-1,30,-1,32,-1,34,36,38,-1,40,-1,42,-1,44,46,48,50,52,-1,-1,-1,54,-1,56,-1,58,60,62,-1,64,66,68,-1,70,-1,72,74,-1,-1,-1,-1,-1,-1,-1,-1,-1,-1,-1,-1,-1,-1,-1,-1,-1,-1,-1,-1],"split_conditions":[-9.536743E-7,-9.536743E-7,-9.536743E-7,-9.536743E-7,-9.536743E-7,-9.536743E-7,-5.2373093E-2,-9.536743E-7,-9.536743E-7,-9.536743E-7,-6.015743E-2,-9.536743E-7,1.859325E-1,-9.536743E-7,-9.536743E-7,-9.536743E-7,2.032231E-1,-9.536743E-7,-5.918885E-2,-9.536743E-7,1.3594966E-1,-9.536743E-7,5.9403267E-2,-9.536743E-7,-9.536743E-7,-9.536743E-7,1.1480673E-1,-9.536743E-7,-3.6768924E-2,-9.536743E-7,8.633846E-2,-9.536743E-7,-9.536743E-7,-9.536743E-7,-9.536743E-7,-9.536743E-7,-2.1856664E-2,-2.0193715E-4,-7.083681E-2,-9.536743E-7,-5.203032E-2,-9.536743E-7,5.9453573E-2,-9.536743E-7,-9.536743E-7,-9.536743E-7,-5.7529416E-2,-9.536743E-7,-9.536743E-7,-9.536743E-7,1.3954975E-1,-9.536743E-7,2.061917E-1,-9.536743E-7,-9.536743E-7,-7.7447966E-2,-1.8550971E-3,-4.109766E-2,2.1269107E-2,9.457394E-2,-8.755119E-3,1.0781526E-2,1.0325754E-1,-5.0683855E-3,9.591555E-2,-8.786001E-2,-1.8637441E-2,-5.852015E-3,1.2670848E-1,-1.8130159E-2,1.4218992E-1,7.753931E-2,1.8933302E-1,6.1373778E-2,-5.1091224E-2],"split_indices":[1175,892,2950,1281,4992,3214,0,1048,3722,785,0,4,0,870,811,1308,0,2,0,1853,0,2756,0,5,1212,3251,0,1212,0,3,0,1260,1147,4549,2756,3683,0,0,0,2251,0,1343,0,6,4684,4608,0,1296,3,1212,0,2875,0,4630,1147,0,0,0,0,0,0,0,0,0,0,0,0,0,0,0,0,0,0,0,0],"split_type":[0,0,0,0,0,0,0,0,0,0,0,0,0,0,0,0,0,0,0,0,0,0,0,0,0,0,0,0,0,0,0,0,0,0,0,0,0,0,0,0,0,0,0,0,0,0,0,0,0,0,0,0,0,0,0,0,0,0,0,0,0,0,0,0,0,0,0,0,0,0,0,0,0,0,0],"sum_hessian":[1.8413715E2,1.7119116E2,1.2945986E1,1.5116287E2,2.0028284E1,1.1907638E1,1.038349E0,1.4516467E2,5.9981995E0,1.8547033E1,1.4812495E0,9.455593E0,2.4520442E0,9.9240944E1,4.5923733E1,4.706358E0,1.2918417E0,1.7141027E1,1.4060059E0,7.505151E0,1.9504421E0,9.4621994E1,4.6189547E0,3.907268E1,6.8510537E0,3.3833241E0,1.3230337E0,1.4996099E1,2.1449282E0,5.8558393E0,1.6493114E0,8.5144035E1,9.477958E0,3.0014029E1,9.058652E0,5.306573E0,1.5444809E0,1.0000182E0,2.3833058E0,1.3925552E1,1.0705475E0,4.3576784E0,1.4981612E0,8.239327E1,2.7507617E0,8.13721E0,1.3407475E0,2.0352478E1,9.661549E0,7.9753194E0,1.0833327E0,3.6991625E0,1.6074104E0,1.0825797E1,3.0997548E0,3.3283772E0,1.029301E0,7.8453026E1,3.9402475E0,1.5668409E0,1.1839207E0,6.191612E0,1.9455985E0,1.779241E1,2.5600696E0,6.9935904E0,2.6679587E0,6.3338914E0,1.6414281E0,2.6425974E0,1.056565E0,9.078261E0,1.7475355E0,2.084543E0,1.0152118E0],"tree_param":{"num_deleted":"0","num_feature":"5184","num_nodes":"75","size_leaf_vector":"0"}},{"base_weights":[4.192518E-2,-7.492654E-3,6.186534E-1,-2.4977155E-2,1.4833897E0,7.861287E-1,-3.242583E-1,-4.330638E-2,1.0323318E0,1.3195336E0,2.711977E-1,3.1284577E-1,-1.00165024E-1,1.6146145E0,-4.168109E-2,-2.3520488E-1,9.2161775E-1,4.224898E-1,-6.476077E-1,-1.2661977E-1,7.55695E-1,7.2403044E-1,2.1998258E0,-7.3202145E-1,5.809139E-1,1.5636547E0,-1.419668E-1,5.2881116E-1,-6.0425484E-1,-1.5905932E-1,6.1833024E-1,1.4281471E0,-5.627522E-1,-1.0941505E-2,1.0351278E0,2.6410785E-1,1.0819476E0,-2.3237799E-1,2.4477452E-1,3.5759795E-1,9.738291E-1,4.2910606E-1,1.7227222E0,1.13705315E-1,9.494916E-1,1.4118205E0,-1.2364414E-1,-1.7928463E-1,-8.867264E-1,1.1282412E-1,1.4598473E0,2.0552158E-1,4.918713E-1],"categories":[],"categories_nodes":[],"categories_segments":[],"categories_sizes":[],"default_left":[1,1,1,1,0,1,0,1,0,1,1,1,1,1,0,1,1,1,0,1,1,1,0,0,0,0,0,1,0,1,1,1,0,0,0,1,1,1,1,1,0,0,0,0,0,0,0,0,0,0,0,0,0],"id":14,"left_children":[1,3,5,7,-1,9,-1,11,-1,13,15,17,19,21,-1,23,25,27,-1,29,31,33,-1,-1,-1,-1,-1,35,-1,37,39,41,-1,-1,-1,43,45,47,49,51,-1,-1,-1,-1,-1,-1,-1,-1,-1,-1,-1,-1,-1],"loss_changes":[5.2703094E0,4.4988027E0,2.559453E0,3.3423867E0,0E0,3.1261697E0,0E0,3.4378886E0,0E0,2.465991E0,2.7571464E0,2.7379656E0,3.397294E0,9.782715E-1,0E0,2.5065322E0,2.6663492E0,2.678466E0,0E0,3.53727E0,4.8072796E0,7.9941976E-1,0E0,0E0,0E0,0E0,0E0,2.6593533E0,0E0,4.1180534E0,2.211392E-1,2.240262E-1,0E0,0E0,0E0,1.4307784E0,2.6352253E0,3.8918524E0,3.2925038E0,3.5417676E-3,0E0,0E0,0E0,0E0,0E0,0E0,0E0,0E0,0E0,0E0,0E0,0E0,0E0],"parents":[2147483647,0,0,1,1,2,2,3,3,5,5,7,7,9,9,10,10,11,11,12,12,13,13,15,15,16,16,17,17,19,19,20,20,21,21,27,27,29,29,30,30,31,31,35,35,36,36,37,37,38,38,39,39],"right_children":[2,4,6,8,-1,10,-1,12,-1,14,16,18,20,22,-1,24,26,28,-1,30,32,34,-1,-1,-1,-1,-1,36,-1,38,40,42,-1,-1,-1,44,46,48,50,52,-1,-1,-1,-1,-1,-1,-1,-1,-1,-1,-1,-1,-1],"split_conditions":[-9.536743E-7,-9.536743E-7,-9.536743E-7,-9.536743E-7,1.4833897E-1,-9.536743E-7,-3.2425832E-2,-9.536743E-7,1.0323318E-1,-9.536743E-7,-9.536743E-7,-9.536743E-7,-9.536743E-7,-9.536743E-7,-4.168109E-3,-9.536743E-7,-9.536743E-7,-9.536743E-7,-6.476077E-2,-9.536743E-7,-9.536743E-7,-9.536743E-7,2.1998258E-1,-7.320215E-2,5.809139E-2,1.5636547E-1,-1.4196681E-2,-9.536743E-7,-6.0425486E-2,-9.536743E-7,-9.536743E-7,-9.536743E-7,-5.627522E-2,-1.0941506E-3,1.0351278E-1,-9.536743E-7,-9.536743E-7,-9.536743E-7,-9.536743E-7,-9.536743E-7,9.738291E-2,4.2910606E-2,1.7227222E-1,1.1370531E-2,9.494916E-2,1.4118205E-1,-1.23644145E-2,-1.7928464E-2,-8.867264E-2,1.1282412E-2,1.4598474E-1,2.0552158E-2,4.918713E-2],"split_indices":[1175,2484,1069,871,0,20,0,1869,0,3962,4560,845,1284,4608,0,1296,811,1212,0,870,1510,4635,0,0,0,0,0,1003,0,5,1252,1048,0,0,0,4,4633,954,1027,20,0,0,0,0,0,0,0,0,0,0,0,0,0],"split_type":[0,0,0,0,0,0,0,0,0,0,0,0,0,0,0,0,0,0,0,0,0,0,0,0,0,0,0,0,0,0,0,0,0,0,0,0,0,0,0,0,0,0,0,0,0,0,0,0,0,0,0,0,0],"sum_hessian":[1.8375621E2,1.7016258E2,1.359363E1,1.6916196E2,1.0006202E0,1.1684553E1,1.9090765E0,1.6722208E2,1.9398762E0,4.971819E0,6.7127347E0,2.2401432E1,1.4482065E2,3.9330618E0,1.0387572E0,4.133142E0,2.5795925E0,2.0608868E1,1.7925655E0,1.4130495E2,3.5157003E0,2.4467576E0,1.486304E0,2.6332083E0,1.499934E0,1.3153825E0,1.2642099E0,1.9114489E1,1.4943783E0,1.3616212E2,5.142823E0,2.2731261E0,1.2425742E0,1.0145941E0,1.4321636E0,1.39271345E1,5.187354E0,1.1559895E2,2.0563173E1,4.124044E0,1.0187793E0,1.0770484E0,1.1960777E0,1.2376992E1,1.5501419E0,3.9386137E0,1.2487406E0,1.0810165E2,7.4973016E0,1.9534666E1,1.0285064E0,3.1204648E0,1.003579E0],"tree_param":{"num_deleted":"0","num_feature":"5184","num_nodes":"53","size_leaf_vector":"0"}},{"base_weights":[4.277669E-2,-2.3532463E-3,6.2151605E-1,-1.9496528E-2,1.4460367E0,8.486653E-1,-6.30172E-1,-4.1061483E-2,1.0827221E0,3.1499144E-1,1.3112566E0,-6.0936775E-2,8.4685546E-1,1.8043813E0,-1.0941544E-1,-2.5695044E-1,1.4163965E0,1.5884874E0,2.1959904E-1,-1.01501144E-1,4.538504E-1,1.1954125E-1,1.3702309E0,4.0263903E-1,-7.21064E-1,2.0392377E0,-9.283371E-3,-1.6428846E-1,2.3077889E-1,8.766869E-1,-3.828128E-1,-3.0145383E-1,4.852781E-2,1.28237E-1,1.2064004E0,3.9582258E-1,1.2178298E0,8.356358E-2,-6.777253E-1,-3.8927782E-1,8.476861E-2,1.4187646E-1,-5.779944E-1,4.3752E-1,-1.9509286E-1,8.6327356E-1,-2.862942E-1,1.0876917E-1,1.8477945E0],"categories":[],"categories_nodes":[],"categories_segments":[],"categories_sizes":[],"default_left":[1,1,1,1,0,1,0,1,1,1,1,1,1,0,0,1,0,1,0,1,1,0,0,0,0,0,0,1,1,1,1,1,1,1,0,1,1,0,0,0,0,0,0,0,0,0,0,0,0],"id":15,"left_children":[1,3,5,7,-1,9,-1,11,13,15,17,19,21,-1,-1,23,-1,25,-1,27,29,-1,-1,-1,-1,-1,-1,31,33,35,37,39,41,43,-1,45,47,-1,-1,-1,-1,-1,-1,-1,-1,-1,-1,-1,-1],"loss_changes":[4.820677E0,4.3030124E0,4.330836E0,4.1122212E0,0E0,2.4819546E0,0E0,3.0307796E0,3.0541563E0,4.62306E0,1.4565716E0,3.5135558E0,1.2686837E0,0E0,0E0,1.9117675E0,0E0,3.3296127E0,0E0,3.2662477E0,4.6911077E0,0E0,0E0,0E0,0E0,0E0,0E0,3.8308146E0,2.3471837E0,9.0942574E-1,7.208545E-1,2.7341404E0,3.1289458E0,2.4602485E0,0E0,1.842005E0,2.929422E0,0E0,0E0,0E0,0E0,0E0,0E0,0E0,0E0,0E0,0E0,0E0,0E0],"parents":[2147483647,0,0,1,1,2,2,3,3,5,5,7,7,8,8,9,9,10,10,11,11,12,12,15,15,17,17,19,19,20,20,27,27,28,28,29,29,30,30,31,31,32,32,33,33,35,35,36,36],"right_children":[2,4,6,8,-1,10,-1,12,14,16,18,20,22,-1,-1,24,-1,26,-1,28,30,-1,-1,-1,-1,-1,-1,32,34,36,38,40,42,44,-1,46,48,-1,-1,-1,-1,-1,-1,-1,-1,-1,-1,-1,-1],"split_conditions":[-9.536743E-7,-9.536743E-7,-9.536743E-7,-9.536743E-7,1.4460367E-1,-9.536743E-7,-6.3017204E-2,-9.536743E-7,-9.536743E-7,-9.536743E-7,-9.536743E-7,-9.536743E-7,-9.536743E-7,1.8043813E-1,-1.0941545E-2,-9.536743E-7,1.4163965E-1,-9.536743E-7,2.1959905E-2,-9.536743E-7,-9.536743E-7,1.1954125E-2,1.3702309E-1,4.0263902E-2,-7.21064E-2,2.0392378E-1,-9.2833716E-4,-9.536743E-7,-9.536743E-7,-9.536743E-7,-9.536743E-7,-9.536743E-7,-9.536743E-7,-9.536743E-7,1.2064004E-1,-9.536743E-7,-9.536743E-7,8.356358E-3,-6.777253E-2,-3.8927782E-2,8.476861E-3,1.4187646E-2,-5.779944E-2,4.3752E-2,-1.9509286E-2,8.632736E-2,-2.862942E-2,1.0876917E-2,1.8477945E-1],"split_indices":[1308,2172,4648,2997,0,4629,0,1246,2251,1622,4738,6,1853,0,0,809,0,785,0,5,3330,0,0,0,0,0,0,20,1027,1048,20,3,453,20,0,20,20,0,0,0,0,0,0,0,0,0,0,0,0],"split_type":[0,0,0,0,0,0,0,0,0,0,0,0,0,0,0,0,0,0,0,0,0,0,0,0,0,0,0,0,0,0,0,0,0,0,0,0,0,0,0,0,0,0,0,0,0,0,0,0,0],"sum_hessian":[1.8351366E2,1.711624E2,1.2351263E1,1.701352E2,1.0271971E0,1.0726637E1,1.6246258E0,1.6781464E2,2.320554E0,5.7611494E0,4.9654875E0,1.6505147E2,2.763171E0,1.1256032E0,1.1949507E0,4.2966666E0,1.4644829E0,3.5969205E0,1.368567E0,1.5373985E2,1.1311614E1,1.6703526E0,1.0928185E0,1.8293229E0,2.4673436E0,2.5899599E0,1.0069606E0,1.2973149E2,2.4008368E1,7.4823265E0,3.8292878E0,7.863365E1,5.1097836E1,2.2748814E1,1.2595539E0,4.0018005E0,3.4805262E0,1.7610315E0,2.0682564E0,6.405918E1,1.4574472E1,4.5145008E1,5.95283E0,1.1446464E1,1.1302349E1,2.2169535E0,1.7848469E0,1.6856236E0,1.7949026E0],"tree_param":{"num_deleted":"0","num_feature":"5184","num_nodes":"49","size_leaf_vector":"0"}},{"base_weights":[4.259211E-2,2.0893766E-2,1.0937033E0,-2.3146073E-4,9.512858E-1,1.749397E0,-1.401923E-1,-3.6236968E-2,4.2915976E-1,-5.301601E-1,1.6917664E0,-6.237429E-2,6.928138E-1,7.7061385E-1,-1.6098337E-1,-8.1523746E-2,9.5433164E-1,1.10278636E-1,1.472058E0,3.5915896E-1,1.0478531E0,-5.519308E-1,5.9566116E-1,-1.36127E-1,1.956638E-1,1.4315726E0,-1.2039993E-2,-6.819846E-1,1.099242E0,7.6195866E-1,-2.7307656E-1,1.01229325E-1,1.5291854E0,-7.043197E-1,-4.0895313E-2,-1.8175276E-1,3.5086998E-1,1.08527705E-1,9.8990464E-1,-2.1022685E-1,1.0853865E0,7.446921E-1,-7.324769E-1,-3.3257496E-2,7.6265264E-1],"categories":[],"categories_nodes":[],"categories_segments":[],"categories_sizes":[],"default_left":[1,1,1,1,1,0,0,1,1,0,0,1,1,1,1,1,1,1,0,1,1,1,0,1,1,0,0,0,0,0,0,0,0,0,0,1,1,1,0,0,0,0,0,0,0],"id":16,"left_children":[1,3,5,7,9,-1,-1,11,13,-1,-1,15,17,19,21,23,25,27,-1,29,31,33,-1,35,37,-1,-1,-1,-1,-1,-1,-1,-1,-1,-1,39,41,43,-1,-1,-1,-1,-1,-1,-1],"loss_changes":[4.183968E0,3.57225E0,3.2477927E0,2.778391E0,5.323384E0,0E0,0E0,3.2026122E0,2.925667E0,0E0,0E0,3.2119677E0,2.4800332E0,6.480384E-1,2.080869E0,2.432015E0,1.4260235E0,4.206479E0,0E0,1.5161704E0,2.0521603E0,3.157482E-1,0E0,3.0269785E0,1.7310343E0,0E0,0E0,0E0,0E0,0E0,0E0,0E0,0E0,0E0,0E0,4.6514745E0,5.5650377E0,2.3497062E0,0E0,0E0,0E0,0E0,0E0,0E0,0E0],"parents":[2147483647,0,0,1,1,2,2,3,3,4,4,7,7,8,8,11,11,12,12,13,13,14,14,15,15,16,16,17,17,19,19,20,20,21,21,23,23,24,24,35,35,36,36,37,37],"right_children":[2,4,6,8,10,-1,-1,12,14,-1,-1,16,18,20,22,24,26,28,-1,30,32,34,-1,36,38,-1,-1,-1,-1,-1,-1,-1,-1,-1,-1,40,42,44,-1,-1,-1,-1,-1,-1,-1],"split_conditions":[-9.536743E-7,-9.536743E-7,-9.536743E-7,-9.536743E-7,-9.536743E-7,1.749397E-1,-1.401923E-2,-9.536743E-7,-9.536743E-7,-5.3016014E-2,1.6917664E-1,-9.536743E-7,-9.536743E-7,-9.536743E-7,-9.536743E-7,-9.536743E-7,-9.536743E-7,-9.536743E-7,1.4720581E-1,-9.536743E-7,-9.536743E-7,-9.536743E-7,5.9566118E-2,-9.536743E-7,-9.536743E-7,1.4315726E-1,-1.2039993E-3,-6.8198465E-2,1.099242E-1,7.6195866E-2,-2.7307658E-2,1.01229325E-2,1.5291855E-1,-7.043197E-2,-4.0895315E-3,-9.536743E-7,-9.536743E-7,-9.536743E-7,9.899046E-2,-2.1022685E-2,1.0853865E-1,7.446921E-2,-7.324769E-2,-3.3257497E-3,7.626527E-2],"split_indices":[3970,2997,4510,6,840,0,0,1284,3330,0,0,871,3,1048,812,5,4660,1309,0,20,20,4608,0,3798,1027,0,0,0,0,0,0,0,0,0,0,1246,760,1295,0,0,0,0,0,0,0],"split_type":[0,0,0,0,0,0,0,0,0,0,0,0,0,0,0,0,0,0,0,0,0,0,0,0,0,0,0,0,0,0,0,0,0,0,0,0,0,0,0,0,0,0,0,0,0],"sum_hessian":[1.8345E2,1.8073883E2,2.711158E0,1.7770369E2,3.03514E0,1.4975659E0,1.2135923E0,1.6480038E2,1.2903308E1,1.1061494E0,1.9289906E0,1.5997939E2,4.8210025E0,7.9801955E0,4.9231124E0,1.5792471E2,2.0546658E0,3.4119046E0,1.409098E0,4.136556E0,3.8436399E0,3.424353E0,1.4987596E0,1.3235999E2,2.5564732E1,1.0531702E0,1.0014955E0,2.0666811E0,1.3452235E0,2.40142E0,1.7351357E0,1.7035745E0,2.1400652E0,2.3464339E0,1.077919E0,1.215948E2,1.0765183E1,2.406158E1,1.5031505E0,1.1973824E2,1.8565629E0,8.12438E0,2.6408029E0,2.055527E1,3.506311E0],"tree_param":{"num_deleted":"0","num_feature":"5184","num_nodes":"45","size_leaf_vector":"0"}},{"base_weights":[4.3016303E-2,2.771755E-2,1.4036976E0,6.893948E-3,1.2544941E0,-1.2900131E-2,8.2544327E-1,1.1234545E-2,-5.890711E-1,-9.122185E-2,1.8851732E0,-4.6352003E-2,2.621401E-1,-1.191218E-1,-7.9955786E-1,-5.493206E-1,4.4132182E-1,-7.034787E-2,1.187732E0,1.6606018E-1,1.3106264E0,-5.5043155E-1,3.7345123E-1,-1.195918E-1,3.9469728E-1,-1.0254868E-2,7.06671E-1,-2.0118918E-1,1.9370212E-1,7.3845947E-1,-2.6199135E-1,1.920795E-1,-8.085194E-1,4.52351E-2,1.3370732E0],"categories":[],"categories_nodes":[],"categories_segments":[],"categories_sizes":[],"default_left":[1,1,0,1,0,1,1,1,1,1,0,1,1,1,0,0,0,1,0,1,0,0,0,1,1,1,1,0,0,0,0,0,0,0,0],"id":17,"left_children":[1,3,-1,5,-1,7,9,11,13,15,-1,17,19,21,-1,-1,-1,23,-1,25,-1,-1,-1,27,29,31,33,-1,-1,-1,-1,-1,-1,-1,-1],"loss_changes":[3.7964075E0,4.6717095E0,0E0,2.9458992E0,0E0,2.4800022E0,4.342044E0,2.4929874E0,6.139715E-1,1.0366557E0,0E0,4.2440867E0,3.0262794E0,9.263987E-1,0E0,0E0,0E0,3.2249324E0,0E0,2.9281073E0,0E0,0E0,0E0,3.2662263E0,3.2453494E0,4.046695E0,3.0878513E0,0E0,0E0,0E0,0E0,0E0,0E0,0E0,0E0],"parents":[2147483647,0,0,1,1,3,3,5,5,6,6,7,7,8,8,9,9,11,11,12,12,13,13,17,17,19,19,23,23,24,24,25,25,26,26],"right_children":[2,4,-1,6,-1,8,10,12,14,16,-1,18,20,22,-1,-1,-1,24,-1,26,-1,-1,-1,28,30,32,34,-1,-1,-1,-1,-1,-1,-1,-1],"split_conditions":[-9.536743E-7,-9.536743E-7,1.4036976E-1,-9.536743E-7,1.254494E-1,-9.536743E-7,-9.536743E-7,-9.536743E-7,-9.536743E-7,-9.536743E-7,1.8851732E-1,-9.536743E-7,-9.536743E-7,-9.536743E-7,-7.995579E-2,-5.4932058E-2,4.4132184E-2,-9.536743E-7,1.187732E-1,-9.536743E-7,1.3106264E-1,-5.5043157E-2,3.7345123E-2,-9.536743E-7,-9.536743E-7,-9.536743E-7,-9.536743E-7,-2.0118918E-2,1.9370211E-2,7.3845945E-2,-2.6199136E-2,1.920795E-2,-8.085194E-2,4.52351E-3,1.3370733E-1],"split_indices":[3223,3386,0,2997,0,2952,1003,3,4684,2876,0,871,1284,20,0,0,0,6,0,4630,0,0,0,5,3330,4627,4608,0,0,0,0,0,0,0,0],"split_type":[0,0,0,0,0,0,0,0,0,0,0,0,0,0,0,0,0,0,0,0,0,0,0,0,0,0,0,0,0,0,0,0,0,0,0],"sum_hessian":[1.8324197E2,1.8221362E2,1.0283394E0,1.8016115E2,2.0524795E0,1.7686838E2,3.2927735E0,1.7069864E2,6.1697316E0,2.255601E0,1.0371724E0,1.3949722E2,3.1201422E1,2.3929589E0,3.7767727E0,1.1956172E0,1.0599837E0,1.3776155E2,1.7356772E0,2.964338E1,1.5580432E0,1.2131934E0,1.1797655E0,1.25242386E2,1.251916E1,2.3092886E1,6.550493E0,9.9647125E1,2.559526E1,8.135752E0,4.3834085E0,1.902902E1,4.0638657E0,3.71957E0,2.8309228E0],"tree_param":{"num_deleted":"0","num_feature":"5184","num_nodes":"35","size_leaf_vector":"0"}},{"base_weights":[4.1670375E-2,3.8296648E-4,4.8336986E-1,-1.6120724E-2,1.2956399E0,5.907431E-1,-5.226552E-1,-4.3845825E-2,6.7837894E-1,7.2982216E-1,-2.8388277E-1,-6.469395E-2,8.621972E-1,-8.973498E-2,2.384856E0,1.1697196E0,2.6954606E-1,-4.1345563E-2,-7.9958755E-1,-2.3073408E-1,1.7655191E0,2.6654145E-1,-6.087685E-1,5.980535E-1,1.8599105E0,-6.811938E-2,1.0666277E0,-1.3622338E-1,1.4852677E-1,1.9048786E-2,4.963588E-1,-2.0811349E-1,1.0086509E0,9.311527E-1,-4.4892922E-1,-1.6526498E-1,5.446952E-1,2.3672602E-1,-7.9668033E-1,2.9856345E-1,1.3002753E0,-7.303235E-1,1.0250959E-1,-1.941407E-1,6.837256E-1,1.0048021E0,-5.1124823E-1,3.172043E-1,-2.3211971E-1],"categories":[],"categories_nodes":[],"categories_segments":[],"categories_sizes":[],"default_left":[1,1,1,1,0,1,0,1,1,1,0,1,1,1,0,1,1,1,0,0,0,1,0,1,0,1,0,1,1,0,0,0,1,0,1,1,1,1,0,0,0,0,0,0,0,0,0,0,0],"id":18,"left_children":[1,3,5,7,-1,9,-1,11,13,15,-1,17,19,21,-1,23,25,27,-1,-1,-1,29,-1,31,-1,33,-1,35,37,-1,-1,-1,39,-1,41,43,45,47,-1,-1,-1,-1,-1,-1,-1,-1,-1,-1,-1],"loss_changes":[3.3615532E0,3.6459746E0,2.0108545E0,3.2730074E0,0E0,1.996182E0,0E0,3.1330361E0,8.769053E0,2.3106594E0,0E0,2.7153335E0,4.0938826E0,1.1727682E0,0E0,1.3860292E0,2.1282122E0,2.8358953E0,0E0,0E0,0E0,2.1440724E-1,0E0,1.8442231E0,0E0,2.8171437E0,0E0,2.1612847E0,4.5700464E0,0E0,0E0,0E0,3.246069E-1,0E0,8.879173E-1,2.6142793E0,2.7084413E0,1.9165232E0,0E0,0E0,0E0,0E0,0E0,0E0,0E0,0E0,0E0,0E0,0E0],"parents":[2147483647,0,0,1,1,2,2,3,3,5,5,7,7,8,8,9,9,11,11,12,12,13,13,15,15,16,16,17,17,21,21,23,23,25,25,27,27,28,28,32,32,34,34,35,35,36,36,37,37],"right_children":[2,4,6,8,-1,10,-1,12,14,16,-1,18,20,22,-1,24,26,28,-1,-1,-1,30,-1,32,-1,34,-1,36,38,-1,-1,-1,40,-1,42,44,46,48,-1,-1,-1,-1,-1,-1,-1,-1,-1,-1,-1],"split_conditions":[-9.536743E-7,-9.536743E-7,-9.536743E-7,-9.536743E-7,1.2956399E-1,-9.536743E-7,-5.226552E-2,-9.536743E-7,-9.536743E-7,-9.536743E-7,-2.8388277E-2,-9.536743E-7,-9.536743E-7,-9.536743E-7,2.384856E-1,-9.536743E-7,-9.536743E-7,-9.536743E-7,-7.995876E-2,-2.3073409E-2,1.7655192E-1,-9.536743E-7,-6.0876854E-2,-9.536743E-7,1.8599105E-1,-9.536743E-7,1.0666277E-1,-9.536743E-7,-9.536743E-7,1.9048786E-3,4.9635883E-2,-2.081135E-2,-9.536743E-7,9.311527E-2,-9.536743E-7,-9.536743E-7,-9.536743E-7,-9.536743E-7,-7.966804E-2,2.9856345E-2,1.3002753E-1,-7.303235E-2,1.0250959E-2,-1.9414071E-2,6.837256E-2,1.00480214E-1,-5.1124822E-2,3.172043E-2,-2.321197E-2],"split_indices":[1175,1103,7,8,0,1069,0,436,1853,20,0,2194,1254,1048,0,1853,3231,1048,0,0,0,2251,0,4632,0,3330,0,7,3212,0,0,0,4643,0,1003,784,3330,4558,0,0,0,0,0,0,0,0,0,0,0],"split_type":[0,0,0,0,0,0,0,0,0,0,0,0,0,0,0,0,0,0,0,0,0,0,0,0,0,0,0,0,0,0,0,0,0,0,0,0,0,0,0,0,0,0,0,0,0,0,0,0,0],"sum_hessian":[1.8333992E2,1.6858269E2,1.4757228E1,1.6743683E2,1.145865E0,1.3707065E1,1.0501635E0,1.6191008E2,5.5267406E0,1.1969319E1,1.7377452E0,1.5917603E2,2.7340562E0,4.464576E0,1.062165E0,5.3320255E0,6.637294E0,1.552983E2,3.8777387E0,1.5741092E0,1.159947E0,2.9358246E0,1.5287509E0,3.9373403E0,1.3946853E0,5.3046427E0,1.3326516E0,1.0374182E2,5.1556473E1,1.934947E0,1.0008776E0,1.495068E0,2.4422722E0,1.0649493E0,4.239693E0,1.0022447E2,3.517345E0,4.7841805E1,3.7146676E0,1.3001883E0,1.1420839E0,2.5924122E0,1.6472809E0,9.767374E1,2.5507357E0,2.4835973E0,1.0337477E0,4.110883E1,6.7329736E0],"tree_param":{"num_deleted":"0","num_feature":"5184","num_nodes":"49","size_leaf_vector":"0"}},{"base_weights":[4.1005794E-2,2.7005324E-2,1.1865896E0,8.200116E-3,1.0273035E0,-1.7269878E-2,6.0948056E-1,1.528665E0,-5.0476596E-2,-6.397563E-2,2.677974E-1,-1.4916638E-1,1.3990383E0,-8.367158E-2,8.685413E-1,3.9258865E-1,-6.9283026E-1,5.2825403E-1,-6.7836773E-1,1.7754613E0,3.4385896E-1,-1.3610648E-1,2.6686332E-1,4.6781996E-1,-5.4486644E-1,-1.5862958E-1,7.6719934E-1,5.466871E-1,-4.911641E-1,3.2762155E-1,1.1899666E0,-1.9299348E-1,4.952725E-1,-1.2770037E-1,1.3755761E0,3.4029475E-1,1.4550602E0,-1.2589614E-1,-7.122282E-1,6.376669E-1,-1.11447774E-1],"categories":[],"categories_nodes":[],"categories_segments":[],"categories_sizes":[],"default_left":[1,1,0,1,1,1,1,0,0,1,1,1,1,1,0,1,0,0,0,0,0,1,1,1,0,1,1,1,1,1,0,0,0,0,0,0,0,0,0,0,0],"id":19,"left_children":[1,3,-1,5,7,9,11,-1,-1,13,15,17,19,21,-1,23,-1,-1,-1,-1,-1,25,27,29,-1,31,33,35,37,39,-1,-1,-1,-1,-1,-1,-1,-1,-1,-1,-1],"loss_changes":[2.9241042E0,3.4360487E0,0E0,2.7784948E0,1.8986261E0,2.3387165E0,4.6247945E0,0E0,0E0,2.839231E0,3.237739E0,2.03018E0,8.6268663E-1,2.7644072E0,0E0,1.8441076E0,0E0,0E0,0E0,0E0,0E0,2.761979E0,4.436758E0,1.7765255E0,0E0,2.9593613E0,1.9877676E0,2.2844381E0,3.806889E-1,2.698242E0,0E0,0E0,0E0,0E0,0E0,0E0,0E0,0E0,0E0,0E0,0E0],"parents":[2147483647,0,0,1,1,3,3,4,4,5,5,6,6,9,9,10,10,11,11,12,12,13,13,15,15,21,21,22,22,23,23,25,25,26,26,27,27,28,28,29,29],"right_children":[2,4,-1,6,8,10,12,-1,-1,14,16,18,20,22,-1,24,-1,-1,-1,-1,-1,26,28,30,-1,32,34,36,38,40,-1,-1,-1,-1,-1,-1,-1,-1,-1,-1,-1],"split_conditions":[-9.536743E-7,-9.536743E-7,1.1865896E-1,-9.536743E-7,-9.536743E-7,-9.536743E-7,-9.536743E-7,1.528665E-1,-5.04766E-3,-9.536743E-7,-9.536743E-7,-9.536743E-7,-9.536743E-7,-9.536743E-7,8.685413E-2,-9.536743E-7,-6.928303E-2,5.2825402E-2,-6.783678E-2,1.7754613E-1,3.4385897E-2,-9.536743E-7,-9.536743E-7,-9.536743E-7,-5.4486644E-2,-9.536743E-7,-9.536743E-7,-9.536743E-7,-9.536743E-7,-9.536743E-7,1.1899666E-1,-1.9299349E-2,4.952725E-2,-1.2770037E-2,1.3755761E-1,3.4029476E-2,1.4550602E-1,-1.2589614E-2,-7.122282E-2,6.376669E-2,-1.1144778E-2],"split_indices":[3223,3386,0,1277,4277,2875,812,0,0,9,3646,4666,4560,4,0,2825,0,0,0,0,0,1246,4634,840,0,870,4608,1302,1048,4662,0,0,0,0,0,0,0,0,0,0,0],"split_type":[0,0,0,0,0,0,0,0,0,0,0,0,0,0,0,0,0,0,0,0,0,0,0,0,0,0,0,0,0,0,0,0,0,0,0,0,0,0,0,0,0],"sum_hessian":[1.8331335E2,1.821113E2,1.2020547E0,1.7974045E2,2.3708513E0,1.7336792E2,6.372517E0,1.3326048E0,1.0382465E0,1.4962823E2,2.3739689E1,3.663509E0,2.709008E0,1.4742471E2,2.203524E0,2.1533659E1,2.206029E0,1.6075305E0,2.0559785E0,1.4935762E0,1.2154318E0,1.2877376E2,1.8650955E1,2.03977E1,1.135959E0,1.2644535E2,2.328408E0,1.3825947E1,4.825009E0,1.8298822E1,2.0988774E0,1.2080183E2,5.6435266E0,1.2620605E0,1.0663475E0,1.238627E1,1.4396771E0,2.4109147E0,2.4140942E0,1.0460154E1,7.838669E0],"tree_param":{"num_deleted":"0","num_feature":"5184","num_nodes":"41","size_leaf_vector":"0"}},{"base_weights":[4.0626653E-2,5.8670707E-2,-7.7021354E-1,4.393986E-2,1.2993493E0,2.6004875E-2,9.384615E-1,2.9769176E-1,-2.1452049E-2,1.3695303E0,-4.8020396E-2,1.326162E-1,1.8930955E0,-5.406117E-2,6.3251996E-1,-1.3348094E-1,7.402454E-1,-8.4874764E-2,7.210242E-1,3.7733012E-1,9.65225E-1,-2.5192177E-1,8.9953274E-1,1.1566013E0,-6.0998356E-1,-5.1476125E-2,-7.203076E-1,-5.320009E-1,1.1357483E0,-1.5105528E-1,5.717551E-1,-1.2429695E-1,-7.194251E-1,5.007916E-1,1.8456956E0,-1.1029262E-1,3.4313214E-1,-1.6729517E-1,-8.281E-1,-7.853764E-2,1.561601E0],"categories":[],"categories_nodes":[],"categories_segments":[],"categories_sizes":[],"default_left":[1,1,0,1,0,1,1,1,1,0,0,1,0,1,1,1,1,1,1,1,0,1,0,1,0,1,1,0,1,0,0,0,0,0,0,0,0,0,0,0,0],"id":20,"left_children":[1,3,-1,5,-1,7,9,11,13,-1,-1,15,-1,17,19,21,23,25,27,29,-1,31,-1,33,-1,35,37,-1,39,-1,-1,-1,-1,-1,-1,-1,-1,-1,-1,-1,-1],"loss_changes":[2.7404065E0,3.2533526E0,0E0,2.8640733E0,0E0,2.2953947E0,1.5585253E0,6.719221E0,3.277082E0,0E0,0E0,4.150743E0,0E0,3.5425348E0,2.556789E-1,2.4626007E0,5.082017E0,2.9571466E0,3.555191E0,6.795096E-1,0E0,9.354192E-1,0E0,1.9206972E0,0E0,3.173872E0,2.7684784E-1,0E0,2.4938526E0,0E0,0E0,0E0,0E0,0E0,0E0,0E0,0E0,0E0,0E0,0E0,0E0],"parents":[2147483647,0,0,1,1,3,3,5,5,6,6,7,7,8,8,11,11,13,13,14,14,15,15,16,16,17,17,18,18,19,19,21,21,23,23,25,25,26,26,28,28],"right_children":[2,4,-1,6,-1,8,10,12,14,-1,-1,16,-1,18,20,22,24,26,28,30,-1,32,-1,34,-1,36,38,-1,40,-1,-1,-1,-1,-1,-1,-1,-1,-1,-1,-1,-1],"split_conditions":[-9.536743E-7,-9.536743E-7,-7.702135E-2,-9.536743E-7,1.2993494E-1,-9.536743E-7,-9.536743E-7,-9.536743E-7,-9.536743E-7,1.3695304E-1,-4.80204E-3,-9.536743E-7,1.8930955E-1,-9.536743E-7,-9.536743E-7,-9.536743E-7,-9.536743E-7,-9.536743E-7,-9.536743E-7,-9.536743E-7,9.65225E-2,-9.536743E-7,8.995327E-2,-9.536743E-7,-6.0998358E-2,-9.536743E-7,-9.536743E-7,-5.3200092E-2,-9.536743E-7,-1.5105528E-2,5.7175513E-2,-1.2429695E-2,-7.194251E-2,5.0079163E-2,1.8456957E-1,-1.1029262E-2,3.4313213E-2,-1.6729517E-2,-8.281001E-2,-7.853764E-3,1.561601E-1],"split_indices":[1115,3223,0,3386,0,1869,4277,8,1118,0,0,1295,0,1284,4668,6,1510,3266,1005,2073,0,2251,0,839,0,2241,1145,0,20,0,0,0,0,0,0,0,0,0,0,0,0],"split_type":[0,0,0,0,0,0,0,0,0,0,0,0,0,0,0,0,0,0,0,0,0,0,0,0,0,0,0,0,0,0,0,0,0,0,0,0,0,0,0,0,0],"sum_hessian":[1.8321477E2,1.801338E2,3.08097E0,1.790434E2,1.0904052E0,1.7653302E2,2.5103812E0,2.546651E1,1.5106651E2,1.4767706E0,1.0336106E0,2.4060144E1,1.406366E0,1.4476538E2,6.301128E0,1.7275196E1,6.784948E0,1.4008672E2,4.6786637E0,4.773731E0,1.5273967E0,1.617659E1,1.0986078E0,5.2954497E0,1.4894985E0,1.341184E2,5.9683137E0,1.0931364E0,3.5855272E0,1.3440624E0,3.4296687E0,1.3701939E1,2.4746504E0,3.597989E0,1.6974604E0,1.1734812E2,1.6770277E1,1.3898603E0,4.5784535E0,1.1427217E0,2.4428055E0],"tree_param":{"num_deleted":"0","num_feature":"5184","num_nodes":"41","size_leaf_vector":"0"}},{"base_weights":[3.9529394E-2,-5.0634927E-1,6.393696E-2,-7.1619105E-1,4.4249117E-1,8.102499E-2,-7.477199E-1,-8.261797E-1,-1.484297E-1,6.676149E-2,1.1700988E0,-1.0106376E-2,2.9197437E-1,-1.7993483E-1,1.02472916E-1,9.681341E-2,9.5719653E-1,-2.3700683E-1,1.1505935E0,1.5009663E-1,-7.690163E-1,3.1689692E-1,-5.707118E-1,4.4218567E-1,2.4950361E0,-1.301392E-1,-7.67323E-1,9.927281E-2,9.203981E-1,1.3393094E-1,9.114019E-1,-8.8568616E-1,9.372548E-1,6.0049575E-2,1.4763057E0,-1.8771234E-1,3.224541E-1,-8.687943E-1,-6.340708E-2,2.3519288E-1,-1.9414791E-1,1.5781536E0,1.1547279E-2,5.247871E-3,1.3062508E0,-2.6156452E-1,1.4034412E0,5.5077773E-1,-5.0649315E-1],"categories":[],"categories_nodes":[],"categories_segments":[],"categories_sizes":[],"default_left":[1,1,1,1,0,1,0,0,0,1,0,1,1,1,1,1,1,1,0,1,0,1,1,1,0,1,1,1,1,1,1,0,0,1,0,0,0,0,0,0,0,0,0,0,0,0,0,0,0],"id":21,"left_children":[1,3,5,7,-1,9,-1,-1,-1,11,-1,13,15,17,19,21,23,25,-1,27,-1,29,31,33,-1,35,37,39,41,43,45,-1,-1,47,-1,-1,-1,-1,-1,-1,-1,-1,-1,-1,-1,-1,-1,-1,-1],"loss_changes":[2.4863043E0,1.90872E0,2.5180702E0,3.100543E-1,0E0,2.631536E0,0E0,0E0,0E0,3.0020037E0,0E0,2.5062823E0,5.6347227E0,4.2392287E0,3.3895519E0,5.3553333E0,6.733096E0,2.7857351E0,0E0,2.8697903E0,0E0,2.8291392E0,5.1477404E0,3.3207154E0,0E0,1.1961195E0,5.402818E-1,2.9201908E0,2.7081554E0,3.299759E0,3.9527326E0,0E0,0E0,2.3201804E0,0E0,0E0,0E0,0E0,0E0,0E0,0E0,0E0,0E0,0E0,0E0,0E0,0E0,0E0,0E0],"parents":[2147483647,0,0,1,1,2,2,3,3,5,5,9,9,11,11,12,12,13,13,14,14,15,15,16,16,17,17,19,19,21,21,22,22,23,23,25,25,26,26,27,27,28,28,29,29,30,30,33,33],"right_children":[2,4,6,8,-1,10,-1,-1,-1,12,-1,14,16,18,20,22,24,26,-1,28,-1,30,32,34,-1,36,38,40,42,44,46,-1,-1,48,-1,-1,-1,-1,-1,-1,-1,-1,-1,-1,-1,-1,-1,-1,-1],"split_conditions":[-9.536743E-7,-9.536743E-7,-9.536743E-7,-9.536743E-7,4.4249117E-2,-9.536743E-7,-7.477199E-2,-8.261797E-2,-1.4842971E-2,-9.536743E-7,1.1700988E-1,-9.536743E-7,-9.536743E-7,-9.536743E-7,-9.536743E-7,-9.536743E-7,-9.536743E-7,-9.536743E-7,1.1505935E-1,-9.536743E-7,-7.690164E-2,-9.536743E-7,-9.536743E-7,-9.536743E-7,2.4950361E-1,-9.536743E-7,-9.536743E-7,-9.536743E-7,-9.536743E-7,-9.536743E-7,-9.536743E-7,-8.856862E-2,9.372548E-2,-9.536743E-7,1.4763057E-1,-1.8771235E-2,3.224541E-2,-8.687943E-2,-6.340708E-3,2.3519289E-2,-1.9414792E-2,1.5781537E-1,1.1547279E-3,5.247871E-4,1.3062508E-1,-2.6156453E-2,1.4034413E-1,5.5077773E-2,-5.0649315E-2],"split_indices":[1185,812,1115,2,0,3223,0,0,0,1853,0,1004,4630,1254,2952,4549,1254,4684,0,1284,0,1003,784,2997,0,4,1070,1002,809,1070,4661,0,0,20,0,0,0,0,0,0,0,0,0,0,0,0,0,0,0],"split_type":[0,0,0,0,0,0,0,0,0,0,0,0,0,0,0,0,0,0,0,0,0,0,0,0,0,0,0,0,0,0,0,0,0,0,0,0,0,0,0,0,0,0,0,0,0,0,0,0,0],"sum_hessian":[1.8317961E2,6.9947805E0,1.7618483E2,5.9287868E0,1.0659937E0,1.7343365E2,2.7511725E0,4.5853453E0,1.3434416E0,1.7223917E2,1.1944996E0,1.2912303E2,4.3116123E1,5.1235226E1,7.788781E1,3.4221775E1,8.894349E0,4.9915985E1,1.3192384E0,7.463694E1,3.2508676E0,2.6131475E1,8.090299E0,7.627496E0,1.2668536E0,4.2580666E1,7.335321E0,7.107627E1,3.560675E0,2.091876E1,5.2127156E0,7.033788E0,1.0565106E0,6.342014E0,1.2854822E0,3.829457E1,4.286095E0,6.2064195E0,1.1289016E0,4.871067E1,2.2365597E1,1.6384586E0,1.9222163E0,1.9754795E1,1.1639653E0,1.6788745E0,3.533841E0,3.4133036E0,2.92871E0],"tree_param":{"num_deleted":"0","num_feature":"5184","num_nodes":"49","size_leaf_vector":"0"}},{"base_weights":[3.8398396E-2,5.3894702E-2,-7.398602E-1,4.0837754E-2,1.0565097E0,2.4346307E-2,8.179816E-1,9.598462E-4,5.4486233E-1,1.1560704E0,-3.918956E-2,1.7686473E-2,-7.4421334E-1,-1.3471496E-1,1.179541E0,3.3574305E-2,-7.253502E-1,4.847041E-1,-6.6058457E-1,1.5934774E0,-2.3372639E-2,1.9816061E-2,9.2235386E-1,-3.5110284E-2,2.51628E-1],"categories":[],"categories_nodes":[],"categories_segments":[],"categories_sizes":[],"default_left":[1,1,0,1,0,1,1,1,1,0,0,1,0,1,1,1,0,0,0,0,0,1,0,0,0],"id":22,"left_children":[1,3,-1,5,-1,7,9,11,13,-1,-1,15,-1,17,19,21,-1,-1,-1,-1,-1,23,-1,-1,-1],"loss_changes":[2.2606032E0,2.3325632E0,0E0,2.2893445E0,0E0,2.1598122E0,1.1214628E0,2.142553E0,3.4493742E0,0E0,0E0,2.0084157E0,0E0,1.8125906E0,2.0525136E0,2.005508E0,0E0,0E0,0E0,0E0,0E0,2.0970118E0,0E0,0E0,0E0],"parents":[2147483647,0,0,1,1,3,3,5,5,6,6,7,7,8,8,11,11,13,13,14,14,15,15,21,21],"right_children":[2,4,-1,6,-1,8,10,12,14,-1,-1,16,-1,18,20,22,-1,-1,-1,-1,-1,24,-1,-1,-1],"split_conditions":[-9.536743E-7,-9.536743E-7,-7.3986016E-2,-9.536743E-7,1.0565098E-1,-9.536743E-7,-9.536743E-7,-9.536743E-7,-9.536743E-7,1.1560704E-1,-3.918956E-3,-9.536743E-7,-7.442134E-2,-9.536743E-7,-9.536743E-7,-9.536743E-7,-7.253502E-2,4.847041E-2,-6.605846E-2,1.5934774E-1,-2.337264E-3,-9.536743E-7,9.223539E-2,-3.5110284E-3,2.5162801E-2],"split_indices":[1115,3223,0,3386,0,1277,4277,3069,812,0,0,1065,0,4666,1329,1178,0,0,0,0,0,3,0,0,0],"split_type":[0,0,0,0,0,0,0,0,0,0,0,0,0,0,0,0,0,0,0,0,0,0,0,0,0],"sum_hessian":[1.8313799E2,1.804752E2,2.662785E0,1.7918246E2,1.2927427E0,1.7646901E2,2.7134478E0,1.6984006E2,6.6289635E0,1.695857E0,1.0175909E0,1.6706624E2,2.773809E0,3.5816655E0,3.047298E0,1.6450359E2,2.56265E0,1.6804972E0,1.9011682E0,2.0255883E0,1.0217096E0,1.6300262E2,1.5009729E0,1.3246454E2,3.0538078E1],"tree_param":{"num_deleted":"0","num_feature":"5184","num_nodes":"25","size_leaf_vector":"0"}},{"base_weights":[3.5403047E-2,-4.832546E-1,5.7490695E-2,-7.0240074E-1,4.7348607E-1,7.208133E-2,-7.1645224E-1,-8.1606734E-1,-1.4040254E-1,6.5303277E-3,2.621875E-1,-1.6760966E-2,8.7568456E-1,8.609365E-2,8.3673936E-1,-7.060026E-2,2.7562737E-1,1.3455623E0,-1.088807E-1,-1.4142759E-2,1.4607424E0,3.9233625E-1,2.0229824E0,-1.0434167E-1,7.51591E-1,4.5879003E-1,-7.228813E-1,1.8857759E-1,-6.54445E-1,4.789751E-2,1.2829974E0,-6.460055E-2,-7.021557E-1,1.5762306E0,-2.9858372E-1,2.6719126E-1,1.6565316E0,-2.339965E-2,8.748127E-1,-8.741001E-1,4.6901232E-1,4.7802842E-1,-4.876463E-1,-3.1072594E-2,-7.9045486E-1,-8.2160324E-1,-5.146805E-2,4.829458E-1,-3.7238988E-1,-2.8936806E-1,7.7515465E-1,-2.2952643E-1,1.2878383E0,-1.630949E-1,7.8753567E-1,-6.519302E-1,-2.6515445E-2],"categories":[],"categories_nodes":[],"categories_segments":[],"categories_sizes":[],"default_left":[1,1,1,1,0,1,0,0,0,1,1,1,1,1,1,1,1,0,0,1,0,1,0,1,1,1,0,1,1,1,0,1,1,0,0,1,0,1,1,0,0,1,1,0,0,0,0,0,0,0,0,0,0,0,0,0,0],"id":23,"left_children":[1,3,5,7,-1,9,-1,-1,-1,11,13,15,17,19,21,23,25,-1,-1,27,-1,29,-1,31,33,35,-1,37,39,41,-1,43,45,-1,-1,47,-1,49,51,-1,-1,53,55,-1,-1,-1,-1,-1,-1,-1,-1,-1,-1,-1,-1,-1,-1],"loss_changes":[2.1416523E0,1.9351432E0,2.060303E0,3.0841303E-1,0E0,2.1852539E0,0E0,0E0,0E0,2.6772094E0,4.477996E0,2.051316E0,1.7431765E0,4.917247E0,4.707466E0,3.1244125E0,4.0397387E0,0E0,0E0,4.5512166E0,0E0,2.6479878E0,0E0,2.4812179E0,4.324572E0,3.6294022E0,0E0,3.9022906E0,2.4894047E0,1.9395008E0,0E0,2.4290257E0,4.6506524E-1,0E0,0E0,2.4552538E0,0E0,4.7612996E0,3.1799946E0,0E0,0E0,1.0438389E0,2.7017564E-1,0E0,0E0,0E0,0E0,0E0,0E0,0E0,0E0,0E0,0E0,0E0,0E0,0E0,0E0],"parents":[2147483647,0,0,1,1,2,2,3,3,5,5,9,9,10,10,11,11,12,12,13,13,14,14,15,15,16,16,19,19,21,21,23,23,24,24,25,25,27,27,28,28,29,29,31,31,32,32,35,35,37,37,38,38,41,41,42,42],"right_children":[2,4,6,8,-1,10,-1,-1,-1,12,14,16,18,20,22,24,26,-1,-1,28,-1,30,-1,32,34,36,-1,38,40,42,-1,44,46,-1,-1,48,-1,50,52,-1,-1,54,56,-1,-1,-1,-1,-1,-1,-1,-1,-1,-1,-1,-1,-1,-1],"split_conditions":[-9.536743E-7,-9.536743E-7,-9.536743E-7,-9.536743E-7,4.7348607E-2,-9.536743E-7,-7.164522E-2,-8.160674E-2,-1.4040254E-2,-9.536743E-7,-9.536743E-7,-9.536743E-7,-9.536743E-7,-9.536743E-7,-9.536743E-7,-9.536743E-7,-9.536743E-7,1.3455623E-1,-1.088807E-2,-9.536743E-7,1.4607424E-1,-9.536743E-7,2.0229824E-1,-9.536743E-7,-9.536743E-7,-9.536743E-7,-7.228813E-2,-9.536743E-7,-9.536743E-7,-9.536743E-7,1.2829974E-1,-9.536743E-7,-9.536743E-7,1.5762307E-1,-2.9858371E-2,-9.536743E-7,1.6565315E-1,-9.536743E-7,-9.536743E-7,-8.741001E-2,4.6901233E-2,-9.536743E-7,-9.536743E-7,-3.1072595E-3,-7.904549E-2,-8.2160324E-2,-5.1468047E-3,4.829458E-2,-3.723899E-2,-2.8936807E-2,7.751547E-2,-2.2952644E-2,1.2878384E-1,-1.630949E-2,7.875357E-2,-6.519302E-2,-2.6515445E-3],"split_indices":[1185,810,1115,2,0,1853,0,0,0,3970,4630,4,4510,6,1254,1284,839,0,0,4549,0,2997,0,2040,809,1148,0,1003,1281,20,0,1513,3238,0,0,4631,0,675,4661,0,0,1048,2252,0,0,0,0,0,0,0,0,0,0,0,0,0,0],"split_type":[0,0,0,0,0,0,0,0,0,0,0,0,0,0,0,0,0,0,0,0,0,0,0,0,0,0,0,0,0,0,0,0,0,0,0,0,0,0,0,0,0,0,0,0,0,0,0,0,0,0,0,0,0,0,0,0,0],"sum_hessian":[1.8352191E2,6.6434236E0,1.768785E2,5.6216073E0,1.0218165E0,1.744957E2,2.3827868E0,4.29986E0,1.3217471E0,1.305238E2,4.3971893E1,1.2807248E2,2.4513261E0,3.4536636E1,9.435258E0,1.0879746E2,1.9275017E1,1.4111886E0,1.0401375E0,3.31119E1,1.4247361E0,7.8319182E0,1.6033393E0,1.05347275E2,3.4501905E0,1.6744072E1,2.5309443E0,2.5685371E1,7.4265285E0,6.407696E0,1.4242227E0,9.981959E1,5.5276856E0,1.6520287E0,1.7981619E0,1.5489368E1,1.254704E0,2.0361597E1,5.3237724E0,6.3976364E0,1.028892E0,3.6131392E0,2.7945564E0,9.640916E1,3.4104297E0,4.4484158E0,1.07927E0,1.1765373E1,3.7239957E0,1.5752625E1,4.6089725E0,1.5700599E0,3.7537127E0,1.3303854E0,2.2827537E0,1.7554059E0,1.0391505E0],"tree_param":{"num_deleted":"0","num_feature":"5184","num_nodes":"57","size_leaf_vector":"0"}},{"base_weights":[3.404126E-2,-4.6158043E-1,5.4268092E-2,-6.850922E-1,4.3868598E-1,6.846328E-2,-7.2200215E-1,-8.0296665E-1,-1.3351806E-1,4.998649E-2,8.555472E-1,2.5981482E-2,5.8285755E-1,-1.0283563E-2,1.5360067E0,4.6828408E-2,-6.269037E-1,-4.5363702E-2,1.0606745E0,3.1323084E-1,-2.0897668E-3,-7.686847E-1,-1.652429E-2,5.352306E-1,-6.142671E-1,1.331577E0,2.6837125E-1,1.8104468E-1,1.5054344E0,-3.4704998E-2,4.9217743E-1,-3.0873794E-2,6.450897E-1,-5.468335E-2,1.0288165E0,7.976815E-1,-5.9824073E-1],"categories":[],"categories_nodes":[],"categories_segments":[],"categories_sizes":[],"default_left":[1,1,1,1,0,1,0,0,0,1,1,1,1,0,0,1,1,1,1,1,1,0,0,0,0,0,0,1,0,1,1,0,0,0,0,0,0],"id":24,"left_children":[1,3,5,7,-1,9,-1,-1,-1,11,13,15,17,-1,-1,19,21,23,25,27,29,-1,-1,-1,-1,-1,-1,31,-1,33,35,-1,-1,-1,-1,-1,-1],"loss_changes":[1.8745587E0,1.7773547E0,2.0125542E0,3.0043817E-1,0E0,2.5148335E0,0E0,0E0,0E0,2.1964622E0,2.3557959E0,2.2953832E0,2.2712922E0,0E0,0E0,2.1153197E0,4.3913245E-1,1.7023525E0,5.543604E-1,3.6957242E0,2.243141E0,0E0,0E0,0E0,0E0,0E0,0E0,2.3607962E0,0E0,2.8284883E0,3.3466988E0,0E0,0E0,0E0,0E0,0E0,0E0],"parents":[2147483647,0,0,1,1,2,2,3,3,5,5,9,9,10,10,11,11,12,12,15,15,16,16,17,17,18,18,19,19,20,20,27,27,29,29,30,30],"right_children":[2,4,6,8,-1,10,-1,-1,-1,12,14,16,18,-1,-1,20,22,24,26,28,30,-1,-1,-1,-1,-1,-1,32,-1,34,36,-1,-1,-1,-1,-1,-1],"split_conditions":[-9.536743E-7,-9.536743E-7,-9.536743E-7,-9.536743E-7,4.3868598E-2,-9.536743E-7,-7.220022E-2,-8.0296665E-2,-1.33518055E-2,-9.536743E-7,-9.536743E-7,-9.536743E-7,-9.536743E-7,-1.0283564E-3,1.5360068E-1,-9.536743E-7,-9.536743E-7,-9.536743E-7,-9.536743E-7,-9.536743E-7,-9.536743E-7,-7.686847E-2,-1.6524291E-3,5.352306E-2,-6.142671E-2,1.331577E-1,2.6837125E-2,-9.536743E-7,1.5054344E-1,-9.536743E-7,-9.536743E-7,-3.0873795E-3,6.450897E-2,-5.468335E-3,1.0288165E-1,7.976815E-2,-5.9824076E-2],"split_indices":[1185,810,1240,2,0,3970,0,0,0,1277,1279,290,812,0,0,1869,1295,4666,4560,8,1343,0,0,0,0,0,0,1295,0,871,2755,0,0,0,0,0,0],"split_type":[0,0,0,0,0,0,0,0,0,0,0,0,0,0,0,0,0,0,0,0,0,0,0,0,0,0,0,0,0,0,0,0,0,0,0,0,0],"sum_hessian":[1.8349242E2,6.3392954E0,1.7715312E2,5.269927E0,1.0693686E0,1.7486723E2,2.2858877E0,3.9664927E0,1.3034344E0,1.718955E2,2.9717374E0,1.6548921E2,6.4062724E0,1.7411498E0,1.2305877E0,1.6126813E2,4.221091E0,3.1585515E0,3.247721E0,2.4180563E1,1.3708757E2,3.2149549E0,1.0061358E0,1.5925074E0,1.5660441E0,1.912994E0,1.3347269E0,2.2804014E1,1.3765488E0,1.2947375E2,7.6138062E0,1.6295643E1,6.508371E0,1.2801752E2,1.4562385E0,6.1571975E0,1.4566085E0],"tree_param":{"num_deleted":"0","num_feature":"5184","num_nodes":"37","size_leaf_vector":"0"}},{"base_weights":[3.2339707E-2,4.5786027E-2,-7.1275103E-1,3.5135373E-2,9.797297E-1,-1.5459794E-2,2.519506E-1,-4.566421E-2,5.027536E-1,1.6007285E-1,1.0977507E0,-1.3320594E-2,-7.053886E-1,-2.79398E-1,1.3988974E0,2.4000092E-1,-6.798513E-1,-6.0247988E-2,3.887012E-1,-8.279805E-1,-3.3316653E-2,-4.9239403E-1,1.962733E-1,2.9154164E-1,1.8063123E0,5.2280672E-2,7.1435565E-1,-8.6479194E-2,8.280066E-1,1.7272696E-1,1.2853739E0,-3.6881354E-2,-6.5205115E-1,2.223589E-1,-7.63401E-1,1.1799873E-2,1.2862561E0,-1.6145958E-1,1.9194257E-1,1.2479358E0,-1.1681282E-1,4.4211355E-1,-5.094904E-1,3.4301364E-1,-2.0226932E-1,3.5650018E-1,-5.51577E-1,1.7316561E0,1.3206115E-1],"categories":[],"categories_nodes":[],"categories_segments":[],"categories_sizes":[],"default_left":[1,1,0,1,0,1,1,1,1,1,0,1,1,1,1,1,0,1,1,0,0,1,0,0,0,1,1,1,1,1,0,0,0,1,0,1,1,0,0,0,0,0,0,0,0,0,0,0,0],"id":25,"left_children":[1,3,-1,5,-1,7,9,11,13,15,-1,17,19,21,23,25,-1,27,29,-1,-1,31,-1,-1,-1,33,35,37,39,41,-1,-1,-1,43,-1,45,47,-1,-1,-1,-1,-1,-1,-1,-1,-1,-1,-1,-1],"loss_changes":[1.8820974E0,1.7786155E0,0E0,1.9921713E0,0E0,2.3379204E0,2.493708E0,2.9922023E0,6.1586375E0,2.3219042E0,0E0,2.572477E0,5.1247907E-1,6.2626565E-1,1.278656E0,2.6430168E0,0E0,2.9108882E0,2.5390427E0,0E0,0E0,2.592659E-1,0E0,0E0,0E0,3.3113186E0,3.3822308E0,2.5208447E0,1.5701113E0,2.5491817E0,0E0,0E0,0E0,1.0690773E0,0E0,1.1294875E0,2.1628036E0,0E0,0E0,0E0,0E0,0E0,0E0,0E0,0E0,0E0,0E0,0E0,0E0],"parents":[2147483647,0,0,1,1,3,3,5,5,6,6,7,7,8,8,9,9,11,11,12,12,13,13,14,14,15,15,17,17,18,18,21,21,25,25,26,26,27,27,28,28,29,29,33,33,35,35,36,36],"right_children":[2,4,-1,6,-1,8,10,12,14,16,-1,18,20,22,24,26,-1,28,30,-1,-1,32,-1,-1,-1,34,36,38,40,42,-1,-1,-1,44,-1,46,48,-1,-1,-1,-1,-1,-1,-1,-1,-1,-1,-1,-1],"split_conditions":[-9.536743E-7,-9.536743E-7,-7.127511E-2,-9.536743E-7,9.7972974E-2,-9.536743E-7,-9.536743E-7,-9.536743E-7,-9.536743E-7,-9.536743E-7,1.0977507E-1,-9.536743E-7,-9.536743E-7,-9.536743E-7,-9.536743E-7,-9.536743E-7,-6.798513E-2,-9.536743E-7,-9.536743E-7,-8.279806E-2,-3.3316654E-3,-9.536743E-7,1.962733E-2,2.9154165E-2,1.8063124E-1,-9.536743E-7,-9.536743E-7,-9.536743E-7,-9.536743E-7,-9.536743E-7,1.285374E-1,-3.6881354E-3,-6.520512E-2,-9.536743E-7,-7.63401E-2,-9.536743E-7,-9.536743E-7,-1.6145958E-2,1.9194258E-2,1.2479358E-1,-1.1681282E-2,4.4211354E-2,-5.0949037E-2,3.4301367E-2,-2.0226931E-2,3.565002E-2,-5.51577E-2,1.731656E-1,1.3206116E-2],"split_indices":[1115,1902,0,3,0,1280,1284,2825,1515,785,0,6,4574,761,20,4630,0,2997,811,0,0,4606,0,0,0,4627,4608,5,2251,3330,0,0,0,1002,0,1212,1513,0,0,0,0,0,0,0,0,0,0,0,0],"split_type":[0,0,0,0,0,0,0,0,0,0,0,0,0,0,0,0,0,0,0,0,0,0,0,0,0,0,0,0,0,0,0,0,0,0,0,0,0,0,0,0,0,0,0,0,0,0,0,0,0],"sum_hessian":[1.836006E2,1.812679E2,2.332711E0,1.8024995E2,1.0179421E0,1.4689888E2,3.3351067E1,1.3967E2,7.2288785E0,3.1155912E1,2.1951542E0,1.3411508E2,5.5549283E0,4.2274203E0,3.001458E0,2.9100899E1,2.0550137E0,1.2085768E2,1.3257396E1,4.501781E0,1.0531472E0,2.8956501E0,1.3317702E0,1.2687039E0,1.7327541E0,2.164526E1,7.4556403E0,1.1826774E2,2.5899444E0,1.1645154E1,1.6122421E0,1.0710046E0,1.8246456E0,1.8512585E1,3.1326742E0,3.8036492E0,3.6519911E0,9.350615E1,2.476159E1,1.5709219E0,1.0190225E0,8.600879E0,3.0442755E0,1.456598E1,3.9466052E0,2.5876265E0,1.2160226E0,2.2741058E0,1.3778851E0],"tree_param":{"num_deleted":"0","num_feature":"5184","num_nodes":"49","size_leaf_vector":"0"}},{"base_weights":[3.0785957E-2,4.3290168E-2,-6.970533E-1,3.2878924E-2,9.3924576E-1,1.1275267E-3,3.4597284E-1,2.196103E-2,-7.744343E-1,1.9947426E-1,1.3213178E0,4.1786362E-3,7.2944593E-1,3.6738914E-1,-6.7557395E-1,-2.154544E-2,5.733142E-1,1.5735738E0,-2.7988902E-1,1.3699102E-1,1.0663202E0,1.5219066E-3,-7.8330016E-1,-8.389544E-2,1.7644898E0,-1.1768171E-1,8.932487E-1,1.5798405E0,-2.2683281E-2,-1.4450555E-2,1.0056622E0,2.6384392E-1,-6.01461E-1,-7.0645505E-1,8.450327E-1],"categories":[],"categories_nodes":[],"categories_segments":[],"categories_sizes":[],"default_left":[1,1,0,1,0,1,1,1,0,1,0,1,1,1,0,1,1,0,0,1,1,1,0,1,0,1,0,0,0,0,0,0,0,0,0],"id":26,"left_children":[1,3,-1,5,-1,7,9,11,-1,13,-1,15,17,19,-1,21,23,-1,-1,25,27,29,-1,31,-1,33,-1,-1,-1,-1,-1,-1,-1,-1,-1],"loss_changes":[1.7107453E0,1.6712875E0,0E0,1.8031318E0,0E0,2.6946352E0,2.1227534E0,2.039516E0,0E0,2.5547185E0,0E0,2.3457675E0,3.8271112E0,2.0790937E0,0E0,2.697608E0,5.5720096E0,0E0,0E0,2.32766E0,1.8691838E0,2.4193642E0,0E0,1.1341022E0,0E0,5.991001E0,0E0,0E0,0E0,0E0,0E0,0E0,0E0,0E0,0E0],"parents":[2147483647,0,0,1,1,3,3,5,5,6,6,7,7,9,9,11,11,12,12,13,13,15,15,16,16,19,19,20,20,21,21,23,23,25,25],"right_children":[2,4,-1,6,-1,8,10,12,-1,14,-1,16,18,20,-1,22,24,-1,-1,26,28,30,-1,32,-1,34,-1,-1,-1,-1,-1,-1,-1,-1,-1],"split_conditions":[-9.536743E-7,-9.536743E-7,-6.970533E-2,-9.536743E-7,9.3924575E-2,-9.536743E-7,-9.536743E-7,-9.536743E-7,-7.7443436E-2,-9.536743E-7,1.3213179E-1,-9.536743E-7,-9.536743E-7,-9.536743E-7,-6.7557395E-2,-9.536743E-7,-9.536743E-7,1.5735738E-1,-2.7988901E-2,-9.536743E-7,-9.536743E-7,-9.536743E-7,-7.833002E-2,-9.536743E-7,1.7644899E-1,-9.536743E-7,8.932487E-2,1.5798406E-1,-2.268328E-3,-1.4450555E-3,1.0056622E-1,2.6384393E-2,-6.01461E-2,-7.06455E-2,8.450327E-2],"split_indices":[1115,1903,0,1175,0,958,828,436,0,1069,0,8,4660,4,0,2194,892,0,0,2041,20,1103,0,